0.1490628,-0.0462791,0.1240479,0.1307699,0.1803748,-0.1325264,-0.0722018,0.1175323,-0.0973742,0.0236485,-0.0099041,0.0564684,-0.0592485,0.0058720,0.1981571,0.1823675,0.0594659,0.0952147,-0.1570419,0.0468714,-0.2119465,-0.1126614,-0.1589572,0.1332836,-0.1504357,-0.0434040,-0.1622177,-0.1714114,0.2186178,-0.1234536,0.0056667,0.1485915,0.0493563,-0.0893745,0.0602724,0.0106421,-0.0028118,0.2071596,-0.0909146,0.1189030,0.0117191,0.1182703,-0.0437176,0.1715596,-0.0949467,-0.0646495,0.1348381,0.1836082,-0.1885238,0.1968853,0.0113906,-0.1813812,-0.1348651,0.0715225,0.1709914,-0.0662118,-0.1909706,-0.2103154,-0.0185342,-0.1914418,-0.1146800,0.2062216,0.1762388,0.1537654,-0.1022419,0.0174221,-0.0546816,0.1140353,0.0054927,0.0734929,0.0138492,-0.2018773,-0.0273258,0.1892207,0.1887714,0.0968165,-0.0945179,0.1045205,0.0613356,-0.0639527,0.0823167,-0.1463628,-0.0262449,0.1665406,0.1442487,-0.0743425,-0.1187602,0.1723672,-0.0655689,0.0817947,0.2000144,0.0388402,0.0689272,0.1571641,-0.0264835,0.1857743,-0.0445028,0.1379240,0.0807205,0.1800789