0.0591444,-0.0183624,0.0492191,0.0518863,0.0715683,-0.0525832,-0.0286479,0.0466339,-0.0386357,0.0093831,-0.0039297,0.0224053,-0.0235083,0.0023299,0.0786239,0.0723590,0.0235946,0.0377789,-0.0623104,0.0185974,-0.0840951,-0.0447013,-0.0630703,0.0528836,-0.0596892,-0.0172216,-0.0643640,-0.0680118,0.0867422,-0.0489834,0.0022484,0.0589575,0.0195834,-0.0354616,0.0239146,0.0042225,-0.0011157,0.0821958,-0.0360727,0.0471778,0.0046498,0.0469268,-0.0173461,0.0680706,-0.0376725,-0.0256513,0.0535005,0.0728512,-0.0748016,0.0781192,0.0045195,-0.0719676,-0.0535112,0.0283784,0.0678452,-0.0262712,-0.0757724,-0.0834480,-0.0073539,-0.0759594,-0.0455022,0.0818236,0.0699272,0.0610103,-0.0405671,0.0069127,-0.0216963,0.0452464,0.0021794,0.0291602,0.0054950,-0.0800999,-0.0108422,0.0750781,0.0748998,0.0384144,-0.0375024,0.0414712,0.0243365,-0.0253748,0.0326613,-0.0580732,-0.0104133,0.0660792,0.0572343,-0.0294973,-0.0471211,0.0683910,-0.0260161,0.0324541,0.0793608,0.0154108,0.0273486,0.0623588,-0.0105080,0.0737107,-0.0176576,0.0547248,0.0320279,0.0714509,-0.0030441,-0.0494062,0.0782801,0.0730428,-0.0612572,0.0662508,0.0245280,-0.0118305,0.0207928,-0.0380646,0.0497238,-0.0334750,-0.0092087,-0.0476186,-0.0543250,-0.0389035,0.0098132,-0.0145169,-0.0574415,0.0707262,-0.0689920,-0.0650099,-0.0007921,0.0452858,0.0842781,0.0756290,0.0320673,-0.0203087,0.0434247,-0.0228339,-0.0357869,-0.0465485,0.0146890,-0.0444360,-0.0604349,0.0403609,-0.0651143,0.0510223,-0.0583987,0.0426077,-0.0739715,0.0782543,-0.0777965,0.0037490,-0.0562935,-0.0451923,0.0517747,0.0404489,0.0272199,0.0812622,0.0242460,0.0451570,-0.0706768,-0.0634752,0.0035137,-0.0733278,-0.0747753,-0.0513482,-0.0067074,0.0555785,0.0127471,0.0444348,-0.0778991,-0.0594931,0.0869280,-0.0514049,0.0677970,-0.0651154,0.0865465,-0.0775308,0.0644214,-0.0743542,-0.0862056,0.0735541,0.0163239,-0.0555699,-0.0585674,-0.0188305,0.0718081,0.0555816,-0.0244974,0.0091250,0.0138096,-0.0082451,0.0325789,-0.0696059,0.0053562,0.0447327,-0.0340249,0.0855780,0.0133821,0.0656513,0.0430837,0.0224121,-0.0807709,0.0430826,0.0579363,0.0739552,0.0648963,0.0575536,0.0833536,0.0423886,0.0701286,0.0840771,0.0290135,-0.0004766,-0.0584219,0.0573753,0.0676220,-0.0735430,0.0260278,-0.0438046,0.0225111,-0.0470918,0.0348794,-0.0318392,-0.0297685,-0.0466935,-0.0740356,0.0231357,-0.0480446,0.0262756,0.0018578,0.0819682,-0.0382415,0.0080161,0.0381217,-0.0672344,-0.0049578,0.0160888,0.0772484,-0.0085334,-0.0284517,0.0604478,-0.0113854,-0.0863673,-0.0269579,0.0171218,0.0579371,-0.0462651,0.0305080,-0.0029642,-0.0031406,-0.0339101,0.0368731,-0.0551903,0.0211799,-0.0798245,-0.0149546,0.0340734,0.0302403,0.0239299,-0.0265802,-0.0548310,0.0189690,0.0221075,0.0401142,-0.0298385,0.0418022,-0.0517728,0.0731794,0.0321215,0.0266230,-0.0422014,0.0056401,-0.0716916,-0.0416396,0.0656113,0.0323594,-0.0706316,-0.0675829,-0.0240618,0.0133333,0.0162056,0.0289572,-0.0367227,0.0479444,-0.0367920,-0.0296181,-0.0539394,0.0842105,-0.0863070,0.0569197,-0.0292988,-0.0542088,-0.0110405,0.0797378,0.0728345,0.0460501,0.0346109,-0.0658674,0.0323004,-0.0201968,0.0476847,0.0770281,0.0723725,0.0629223,-0.0515406,0.0510547,0.0083525,-0.0352431,0.0704009,0.0712198,0.0650193,-0.0003227,0.0132479,-0.0586325,-0.0393074,0.0633851,-0.0013215,-0.0063176,0.0606665,-0.0006994,-0.0363271,-0.0555614,0.0320209,0.0395615,-0.0627527,0.0179263,-0.0013175,0.0587873,0.0389881,-0.0559463,-0.0483386,-0.0002564,-0.0658473,-0.0628952,-0.0242632,-0.0304588,0.0750886,0.0710184,0.0212273,0.0585603,0.0553091,-0.0006825,-0.0286915,-0.0183721,0.0276141,0.0189302,-0.0419162,-0.0606366,-0.0743166,-0.0681788,0.0255932,-0.0237146,-0.0368111,-0.0293150,-0.0710822,-0.0126347,0.0755405,0.0145294,-0.0407765,0.0275994,0.0455122,-0.0021859,-0.0595861,0.0665941,0.0218480,0.0030799,-0.0507938,0.0100074,-0.0128308,0.0573626,-0.0183615,-0.0444509,-0.0302490,0.0398761,0.0241062,0.0842942,-0.0281228,0.0691191,-0.0632714,-0.0155103,-0.0859888,0.0492509,0.0477043,-0.0358708,-0.0669932,0.0635512,0.0384237,-0.0783818,-0.0088485,0.0845763,0.0361467,-0.0502654,-0.0045387,0.0634898,-0.0706005,-0.0696199,-0.0203595,-0.0344651,0.0273166,0.0537388,-0.0640316,-0.0779740,-0.0776412,-0.0073515,0.0488313,0.0333941,-0.0099864,-0.0662207,0.0155841,0.0136713,0.0051982,0.0165244,-0.0240069,-0.0340266,0.0675828,-0.0040710,-0.0574045,0.0190773,0.0044763,0.0206762,0.0167245,-0.0463061,0.0573399,-0.0747434,-0.0697454,0.0736686,-0.0574342,-0.0031758,-0.0477257,0.0568116,-0.0363662,-0.0248282,0.0657667,-0.0270783,0.0547495,0.0276689,-0.0806133,-0.0421660,0.0483773,0.0218999,0.0584344,-0.0333536,-0.0485048,-0.0525016,0.0195490,-0.0678512,0.0303566,0.0490736,0.0381553,-0.0520962,-0.0171793,-0.0320494,-0.0114732,-0.0467686,-0.0198636,0.0057105,-0.0600291,0.0096314,-0.0843944,-0.0208257,-0.0204862,-0.0338314,0.0412753,-0.0416486,0.0260194,0.0090956,0.0729493,0.0323353,0.0538587,0.0343975,-0.0326940,0.0253640,-0.0858852,0.0057303,0.0597915,0.0205930,0.0248083,0.0032190,-0.0172626,-0.0239656,0.0380519,0.0524872,0.0309142,-0.0603504,-0.0812105,-0.0758786,0.0322893,-0.0543105,0.0206819,0.0348240,0.0117930,-0.0867335,-0.0859366,-0.0338608,-0.0414530,0.0270120,0.0621639,-0.0554328,-0.0275818,0.0290935,0.0658939,0.0266533,-0.0324716,0.0669379,-0.0545455,-0.0596092,0.0006017,0.0571919,0.0305389,0.0702683,-0.0537028,-0.0183383,0.0358264,0.0641405,0.0082404,0.0415451,0.0751910,-0.0463995,0.0741637,0.0089438,0.0753537,-0.0009724,0.0091395,0.0763462,0.0520959,0.0546156,0.0164291,0.0273307,0.0861120,0.0757764,-0.0305049,0.0650768,0.0155006,0.0239526,0.0450855,0.0478843,0.0512726,-0.0412419,0.0181471,-0.0051177,-0.0579027,0.0513735,0.0634731,0.0648528,0.0285848,-0.0152156,0.0194688,0.0168467,0.0253140,0.0067034,-0.0611387,0.0137385,-0.0811982,0.0349299,0.0031556,0.0578268,0.0026164,-0.0673444,-0.0017716,0.0017993,-0.0784971,0.0546526,-0.0200531,0.0239327,-0.0083239,-0.0618967,-0.0151121,-0.0439805,-0.0162094,-0.0838942,0.0378310,0.0128170,0.0544084,0.0143750,-0.0092593,-0.0039359,0.0860885,-0.0767196,-0.0740183,0.0244734,0.0169129,-0.0482279,-0.0487172,0.0226438,0.0736312,0.0413676,-0.0064584,-0.0106815,0.0609524,0.0786991,0.0780469,0.0693844,0.0464225,-0.0289354,0.0063880,-0.0488305,-0.0039029,0.0782050,-0.0058819,0.0668168,0.0812400,-0.0549800,-0.0072953,0.0487192,0.0463241,0.0703746,-0.0421458,0.0454835,0.0805841,-0.0292350,-0.0169723,0.0105679,0.0094663,0.0212397,-0.0537174,-0.0038317,-0.0243219,0.0267533,0.0724159,-0.0502987,0.0185232,0.0635336,-0.0678434,-0.0219834,-0.0523309,0.0254737,0.0161153,0.0306954,0.0167496,-0.0766958,0.0105831,0.0110604,-0.0447466,-0.0836413,-0.0271495,-0.0853516,0.0736624,0.0176339,0.0470610,0.0673174,0.0753280,-0.0568404,-0.0090438,-0.0021349,0.0513284,0.0241679,0.0809626,-0.0599226,-0.0360079,0.0664494,-0.0232922,0.0694444,0.0430539,-0.0042064,-0.0394681,0.0776521,-0.0656618,0.0635763,0.0214184,0.0380169,0.0738097,-0.0549277,-0.0378518,-0.0578661,-0.0516399,0.0219279,-0.0562886,-0.0649066,-0.0473674,0.0777015,-0.0845184,-0.0589685,-0.0660680,-0.0066331,0.0258258,0.0721895,-0.0693943,0.0198593,-0.0746622,-0.0184731,-0.0006205,-0.0110252,-0.0359578,-0.0444958,0.0716975,0.0115032,-0.0537728,-0.0808934,-0.0118496,0.0545748,0.0440527,-0.0249690,0.0865762,-0.0807282,0.0040941,-0.0519929,0.0281288,0.0347347,-0.0299704,0.0676906,0.0255071,-0.0275596,-0.0782070,0.0463682,0.0527365,0.0345479,0.0316286,0.0702713,-0.0325220,0.0438955,-0.0351310,0.0537867,-0.0540589,0.0158403,-0.0776383,-0.0692905,-0.0595856,-0.0444819,-0.0632548,0.0154940,-0.0768363,0.0677270,0.0774541,-0.0771892,0.0739279,-0.0053809,-0.0422529,0.0151276,-0.0575754,0.0147058,-0.0041109,0.0548608,0.0740754,0.0046112,0.0142999,0.0398827,-0.0477701,-0.0410007,0.0232248,0.0066371,-0.0840343,0.0750230,-0.0265054,-0.0511640,0.0039342,-0.0172145,-0.0335254,0.0312778,0.0252327,-0.0098510,-0.0401574,0.0353256,-0.0290531,-0.0496324,0.0450655,-0.0420543,0.0319159,-0.0841165,0.0600025,0.0612696,0.0175184,-0.0310376,0.0292013,0.0046646,0.0605027,-0.0434280,-0.0423818,-0.0741965,0.0025005,0.0677722,0.0193697,0.0053953,0.0558660,0.0797935,0.0411604,-0.0271289,-0.0243502,-0.0792941,-0.0827803,-0.0860466,-0.0022160,-0.0360086,0.0362081,0.0556601,0.0012882,-0.0056555,-0.0733234,-0.0537251,-0.0028429,0.0736082,-0.0793846,-0.0722536,-0.0443585,0.0367458,0.0193402,-0.0707849,0.0802469,0.0638875,-0.0580523,-0.0041818,0.0447306,0.0482465,-0.0857156,0.0136674,0.0411109,0.0423740,0.0734676,-0.0701685,0.0500090,0.0776165,-0.0692859,-0.0391361,-0.0453212,0.0538513,-0.0704052,0.0428961,-0.0387333,-0.0567994,0.0761002,0.0453530,-0.0701203,0.0836447,0.0600286,-0.0275496,0.0334614,-0.0075604,-0.0114054,0.0267792,-0.0306020,0.0174714,-0.0643317,-0.0728005,-0.0212112,-0.0631182,0.0277960,-0.0670295,0.0661849,0.0143346,-0.0502688,0.0292648,0.0050219,-0.0326256,0.0770578,0.0466298,-0.0657034,-0.0802765,0.0025967,-0.0175075,-0.0501467,-0.0082322,-0.0590837,-0.0333379,-0.0115166,-0.0859842,0.0260416,-0.0649844,-0.0066155,-0.0722929,0.0487239,0.0497117,0.0321076,0.0713213,0.0638403,-0.0760328,-0.0787260,0.0047072,-0.0561331,0.0743880,-0.0678874,-0.0194728,0.0167237,0.0240636,0.0348307,0.0068523,-0.0162357,0.0560564,0.0135050,0.0732901,-0.0483803,0.0502874,-0.0218712,-0.0205348,-0.0699796,0.0535413,-0.0195899,0.0429912,0.0754860,0.0607238,0.0576274,0.0372807,0.0235063,0.0028058,0.0216729,0.0004175,0.0137022,0.0298759,-0.0818044,0.0444982,0.0173348,-0.0627627,-0.0619037,-0.0528707,0.0482301,0.0598561,0.0409108,-0.0549348,0.0289834,-0.0325133,-0.0685738,0.0675323,-0.0691550,-0.0035159,-0.0399317,-0.0522055,-0.0369038,0.0274075,0.0777148,-0.0483469,0.0012022,0.0484130,0.0758629,-0.0622206,-0.0357103,0.0106066,0.0251260,0.0649211,-0.0464466,0.0302507,0.0224902,0.0578174,0.0544171,0.0475156,-0.0819824,0.0157180,0.0204426,0.0458575,0.0477123,-0.0375031,-0.0735849,0.0660677,-0.0569000,-0.0558108,-0.0243774,-0.0099025,-0.0210872,0.0256480,-0.0694241,-0.0303015,0.0642302,0.0187072,-0.0688176,0.0531639,0.0434157,-0.0175987,-0.0231586,-0.0183875,-0.0396068,0.0173240,-0.0750659,0.0698126,-0.0117877,0.0662803,0.0303990,-0.0068410,-0.0049308,-0.0360875,-0.0479126,-0.0441476,0.0133386,-0.0345684,-0.0650091,0.0433678,-0.0034501,-0.0024574,-0.0534639,0.0623918,-0.0637385,-0.0359588,-0.0548388,-0.0864375,0.0696775,-0.0367273,0.0536556,0.0261641,0.0326031,-0.0564321,-0.0791525,0.0799255,0.0478210,-0.0672894,0.0628089,-0.0508958,0.0859201,0.0062788,0.0291923,-0.0059399,0.0571205,0.0682087,0.0368416,-0.0164701,-0.0532888,0.0587616,-0.0600314,0.0301902,-0.0306248,-0.0265662,0.0056529,-0.0074342,0.0244041,0.0377432,-0.0069426,0.0071525,-0.0859132,-0.0402162,-0.0536126,0.0336190,-0.0097191,-0.0458360,0.0266154,-0.0488272,-0.0261963,0.0024952,-0.0127940,-0.0272053,-0.0781552,-0.0705308,0.0537839,0.0658945,0.0846070,0.0036964,-0.0375047,-0.0556109,-0.0244711,-0.0106070,0.0615084,0.0318332,0.0497559,-0.0197679,-0.0625302,-0.0127691,-0.0689539,0.0174563,0.0813125,-0.0679380,0.0641693,-0.0592293,0.0526102,-0.0324790,-0.0181362,-0.0077036,0.0056229,0.0425967,0.0817207,0.0797581,-0.0715378,-0.0833636,-0.0777019,0.0691753,0.0694600,-0.0800240,-0.0140575,-0.0549738,-0.0487058,0.0484005,0.0213483,-0.0741266,-0.0066955,-0.0158249,-0.0069654,0.0177034,0.0583351,0.0110099,-0.0517694,0.0527185,0.0300010,-0.0745292,0.0804183,-0.0043180,-0.0200791,-0.0246470,0.0749076,0.0724730,-0.0689794,0.0696991,0.0653019,-0.0535880,0.0732647,0.0745292,-0.0713419,0.0557956,0.0814343,0.0015298,-0.0861074,-0.0542007,-0.0369989,0.0221700,-0.0413981,0.0432348,-0.0805840,0.0385657,-0.0259909,0.0646802,-0.0373536,0.0091689,0.0304696,0.0795766,0.0215688,0.0239588,-0.0116705,-0.0854394,0.0862409,-0.0236921,0.0739627,-0.0696676,-0.0409221,0.0523355,-0.0363265,-0.0545865,0.0399355,-0.0207392,-0.0857201,0.0344407,0.0677197,-0.0848984,0.0671692,-0.0562083,0.0242008,-0.0611581,0.0739556,0.0305459,0.0643367,-0.0389644,0.0082970,-0.0599460,0.0571336,-0.0481626,-0.0672986,-0.0082268,0.0627253,0.0079600,-0.0067370,0.0620371,0.0711970,-0.0197035,0.0792986,-0.0566542,-0.0542971,-0.0439570,-0.0243116,0.0725675,0.0222330,-0.0231026,0.0200791,0.0030235,-0.0210718,0.0003191,0.0337443,-0.0838001,0.0260901,0.0207708,0.0336750,0.0034977,0.0687355,-0.0449572,0.0304809,0.0389400,-0.0061906,0.0501114,-0.0562160,-0.0303944,-0.0288577,0.0239761,-0.0552864,-0.0445898,-0.0826565,-0.0629169,-0.0143149,-0.0500245,-0.0199447,0.0483026,-0.0643861,-0.0846409,-0.0617290,0.0426221,0.0053118,0.0041283,-0.0439879,-0.0478730,0.0072574,0.0690314,0.0598269,-0.0459968,-0.0144001,0.0416333,-0.0040248,-0.0708483,-0.0063559,0.0767137,0.0661922,0.0243573,-0.0406098,-0.0495947,-0.0385957,-0.0089671,-0.0072554,-0.0343231,0.0150451,0.0653589,0.0025816,0.0820295,0.0267324,0.0251246,0.0843177,0.0519325,-0.0191824,0.0027003,-0.0308683,0.0237588,0.0417564,0.0633182,0.0058611,0.0146542,-0.0696077,0.0783901,-0.0306417,0.0132966,-0.0793873,0.0499315,0.0030812,0.0737340,-0.0126403,0.0494005,-0.0627898,0.0356931,-0.0464958,0.0168840,-0.0855591,0.0554785,-0.0046863,0.0039516,0.0505788,-0.0648830,-0.0578529,0.0479674,0.0739786,0.0098939,-0.0362614,-0.0438188,-0.0532764,-0.0814341,-0.0674298,0.0395138,0.0201492,-0.0501084,0.0309748,0.0764367,0.0501173,0.0385166,0.0394391,-0.0337307,0.0253214,-0.0601304,-0.0712593,0.0494608,0.0624919,-0.0308260,-0.0205844,0.0638619,-0.0622767,0.0616585,-0.0191157,0.0752313,0.0837046,0.0099606,0.0362695,0.0707541,-0.0670747,-0.0869210,-0.0599939,-0.0334220,-0.0814260,-0.0404945,-0.0808373,0.0256524,-0.0036738,0.0370666,0.0151599,-0.0404856,-0.0113460,-0.0323301,0.0127128,-0.0729537,-0.0055314,0.0283826,0.0634362,-0.0299686,0.0844858,-0.0440773,-0.0530359,-0.0647200,-0.0693479,0.0147776,-0.0764179,-0.0725724,-0.0621910,0.0467808,0.0851108,-0.0423365,0.0467890,-0.0618122,0.0111707,0.0522921,-0.0153776,0.0172625,-0.0089846,0.0678778,-0.0326001,-0.0807538,-0.0595370,0.0429831,-0.0261548,0.0401050,0.0569585,0.0552430,-0.0184415,0.0334656,-0.0616548,-0.0208848,0.0763174,-0.0277616,0.0013243,-0.0799597,0.0739451,0.0118356,-0.0656030,-0.0751750,-0.0283127,-0.0674213,-0.0305823,-0.0684529,-0.0423044,0.0675175,0.0707684,0.0292472,-0.0021491,-0.0251453,0.0101959,0.0521800,-0.0189700,0.0375881,0.0082339,0.0418043,-0.0092360,-0.0217367,0.0101181,0.0592516,-0.0752003,0.0353924,-0.0485623,-0.0858120,-0.0792983,0.0396911,-0.0788425,0.0815760,-0.0354025,-0.0575164,-0.0805281,0.0232139,-0.0380085,-0.0241813,0.0416902,0.0066162,-0.0435929,0.0255294,-0.0510657,0.0411872,-0.0865450,0.0460593,0.0064380,-0.0185859,-0.0032817,-0.0722572,-0.0637107,0.0744114,-0.0070648,0.0333365,0.0467338,0.0046641,-0.0182002,0.0851006,0.0057812,-0.0105693,0.0378626,0.0138679,-0.0159224,-0.0844690,0.0432806,-0.0095214,0.0256741,-0.0816571,0.0532265,-0.0195649,0.0118883,-0.0772955,-0.0809646,0.0477518,0.0508208,-0.0805805,0.0068820,-0.0296704,-0.0122373,-0.0833289,-0.0149984,0.0109811,0.0780116,0.0648659,-0.0426116,0.0378163,-0.0173991,0.0261174,0.0359878,0.0753113,-0.0713810,-0.0130787,0.0022500,-0.0003744,-0.0106186,-0.0413985,0.0770334,-0.0718737,-0.0361265,0.0433307,-0.0045094,0.0626910,0.0529643,0.0014551,0.0235137,0.0168559,0.0078037,-0.0565335,0.0741147,0.0824955,-0.0529332,-0.0278129,0.0065475,-0.0618507,-0.0498761,0.0508651,0.0628947,0.0196539,-0.0099467,0.0119534,0.0080361,0.0056014,0.0858039,-0.0766431,-0.0817021,-0.0117438,-0.0311125,0.0822604,0.0033116,0.0196902,0.0386620,0.0857313,-0.0045480,0.0046972,0.0002573,-0.0679635,-0.0653760,-0.0788682,-0.0375678,-0.0781904,-0.0833018,-0.0035719,-0.0190742,0.0101748,0.0215065,0.0179789,-0.0258893,-0.0025279,-0.0492963,0.0510932,-0.0775036,0.0456689,-0.0302345,-0.0786288,0.0559549,-0.0250074,-0.0034435,-0.0620867,-0.0296761,0.0867972,0.0445326,-0.0779432,0.0855994,-0.0469445,0.0136831,-0.0010725,-0.0279789,0.0352362,0.0069885,0.0213824,0.0439749,0.0106159,-0.0691186,-0.0620284,-0.0661384,0.0393170,0.0428796,-0.0050986,-0.0501400,0.0805124,-0.0409345,-0.0407144,0.0392521,0.0157601,-0.0324141,0.0082779,0.0776818,0.0510715,0.0331203,-0.0389234,0.0509395,-0.0092763,-0.0299375,0.0496098,0.0307083,0.0706747,-0.0383918,-0.0841997,0.0189818,0.0555258,0.0241119,-0.0239725,-0.0207875,0.0419224,0.0009282,0.0000032,-0.0056897,-0.0431214,0.0818338,0.0310995,-0.0495381,-0.0460298,0.0773142,0.0766432,0.0566595,-0.0420290,-0.0020081,0.0474122,-0.0778867,-0.0558169,-0.0784404,0.0599820,0.0218360,-0.0214487,0.0226626,-0.0343849,-0.0377032,0.0711999,-0.0316554,0.0682077,0.0397966,0.0793856,-0.0426939,-0.0679200,0.0343789,0.0451634,0.0190124,-0.0582399,-0.0848871,0.0139171,0.0597888,-0.0474961,0.0548164,0.0501738,-0.0577821,0.0245467,-0.0787843,0.0271390,-0.0149702,-0.0697419,0.0582512,-0.0064815,0.0771692,-0.0068419,0.0589989,0.0129027,0.0457023,-0.0656334,-0.0028265,-0.0728822,-0.0843548,-0.0499590,-0.0804257,-0.0401196,-0.0309499,0.0408823,-0.0818854,0.0749917,0.0695716,-0.0798434,0.0019796,0.0424312,-0.0404103,-0.0301331,0.0056759,-0.0112633,0.0813427,0.0138207,-0.0710534,-0.0205566,0.0310079,0.0741270,0.0598911,0.0212479,-0.0196441,0.0319608,-0.0527785,-0.0608709,0.0532566,0.0313241,-0.0468240,0.0558309,0.0682942,-0.0403206,-0.0712179,-0.0495848,-0.0863674,-0.0661741,-0.0615223,0.0701333,-0.0590884,0.0273865,0.0256354,-0.0125696,0.0841825,-0.0556179,0.0630963,0.0785961,0.0451319,0.0789720,-0.0288897,-0.0107894,0.0661698,-0.0559278,-0.0764706,-0.0404034,0.0629622,-0.0423200,-0.0143452,0.0292897,0.0759332,0.0257600,-0.0018086,0.0572982,0.0723686,0.0139027,-0.0792157,0.0729303,0.0346576,-0.0538089,0.0561345,0.0624984,0.0605067,-0.0051593,-0.0370003,0.0577600,0.0261520,-0.0608332,0.0494270,-0.0156453,-0.0687903,-0.0663919,0.0604945,0.0843086,-0.0353905,0.0709531,-0.0430239,-0.0593575,-0.0582961,0.0295601,0.0568613,-0.0692920,-0.0316090,-0.0318764,0.0749354,-0.0461696,0.0689554,0.0826488,-0.0601684,0.0166839,-0.0580892,0.0828952,-0.0077468,-0.0845117,-0.0091932,0.0421819,0.0601775,-0.0699704,0.0682779,0.0226753,0.0013135,0.0864167,0.0432126,-0.0251211,0.0837962,-0.0791071,-0.0410972,-0.0461569,-0.0515354,-0.0124642,0.0703324,-0.0816032,0.0051730,-0.0482058,-0.0265505,-0.0068208,-0.0074462,-0.0445242,-0.0111011,0.0193145,0.0590888,0.0177388,0.0152806,-0.0355872,0.0201563,-0.0808417,-0.0803344,-0.0065953,-0.0638829,0.0748727,-0.0708491,0.0243597,0.0743602,0.0592926,0.0861677,0.0712272,0.0671147,-0.0418586,-0.0618588,-0.0713499,0.0326063,-0.0784555,-0.0660240,-0.0491498,-0.0397322,-0.0056453,0.0309586,0.0397507,0.0367596,-0.0670717,-0.0278639,0.0089193,0.0375963,0.0743458,0.0602613,-0.0291765,0.0804333,0.0668561,0.0511573,-0.0703788,0.0547996,0.0672373,0.0409101,0.0422306,0.0396008,0.0401487,0.0265287,0.0197863,0.0852192,0.0515991,0.0353656,0.0308964,0.0600727,0.0562708,0.0686757,-0.0665887,-0.0363037,0.0127051,0.0600912,-0.0864732,0.0325626,-0.0547019,0.0093753,-0.0167703,-0.0672852,-0.0172926,0.0409823,-0.0737811,-0.0373657,0.0052105,-0.0572308,-0.0694953,-0.0144813,0.0706084,0.0596645,-0.0618097,0.0238280,-0.0007359,0.0449058,0.0221180,-0.0360660,-0.0066578,-0.0339148,-0.0629224,-0.0373161,-0.0521682,-0.0425820,0.0133094,0.0474660,-0.0694200,0.0137653,-0.0069005,-0.0371927,-0.0637886,0.0632583,-0.0175489,0.0058480,0.0173115,-0.0044008,0.0554114,-0.0644071,0.0252975,0.0728453,0.0080407,0.0089768,0.0455807,0.0331601,-0.0541244,-0.0420844,-0.0088632,0.0549228,0.0087788,0.0714081,-0.0659212,0.0327855,-0.0528371,-0.0311603,0.0771326,0.0474014,-0.0706234,-0.0792165,-0.0257624,0.0094052,-0.0294801,-0.0026219,-0.0142656,0.0399002,-0.0837030,-0.0838832,-0.0514298,0.0586375,-0.0613612,0.0607969,0.0445536,0.0336086,-0.0171555,0.0032052,-0.0201604,0.0156493,0.0480499,0.0579055,-0.0163571,-0.0301004,0.0423845,0.0046509,-0.0842441,0.0764765,0.0604198,0.0798177,0.0369488,0.0767255,-0.0863279,-0.0757428,-0.0007984,-0.0288789,0.0085644,0.0718652,-0.0759078,0.0117905,0.0749112,-0.0404084,-0.0165011,-0.0733791,-0.0665407,-0.0588766,0.0471586,0.0032330,0.0312577,-0.0599309,-0.0680468,-0.0076215,0.0849038,0.0025253,0.0492072,0.0403592,-0.0797530,0.0518922,0.0299066,0.0675960,0.0447808,-0.0200738,0.0573924,0.0453820,-0.0088875,-0.0303351,-0.0704260,0.0866061,-0.0453990,-0.0594046,0.0114675,-0.0574170,-0.0128839,0.0818955,-0.0438670,0.0075046,-0.0639103,-0.0836375,-0.0761916,0.0542766,-0.0566392,-0.0573092,-0.0402741,-0.0586646,0.0321452,-0.0779960,0.0686237,0.0393214,0.0608253,0.0116012,0.0199882,0.0186770,0.0784565,-0.0095485,-0.0228701,-0.0173601,0.0470455,-0.0063670,-0.0176832,-0.0852827,0.0211575,0.0807134,-0.0557705,-0.0786555,0.0756798,-0.0127084,0.0157782,-0.0751596,-0.0094168,0.0265158,0.0660461,0.0208731,0.0561357,-0.0611571,0.0491377,0.0013517,-0.0522240,0.0308323,-0.0462561,-0.0783278,-0.0444956,0.0606613,0.0272783,-0.0529683,-0.0358164,-0.0825210,0.0166007,-0.0757001,-0.0019588,0.0858467,-0.0740536,-0.0677305,0.0796310,-0.0428950,-0.0594569,0.0683816,0.0313257,0.0432504,0.0801511,-0.0650202,-0.0171630,0.0592681,0.0427821,-0.0479564,0.0850401,0.0049907,0.0403244,-0.0541131,-0.0511061,0.0809975,-0.0455118,-0.0086726,0.0547296,0.0686957,0.0252882,-0.0680159,0.0731038,-0.0450402,-0.0567868,-0.0157841,-0.0461226,-0.0439113,0.0034145,-0.0534208,0.0001228,0.0308868,-0.0719683,-0.0554806,-0.0127919,-0.0787464,-0.0335716,0.0569743,0.0674508,-0.0777187,-0.0779113,0.0655618,0.0142011,0.0493423,-0.0754805,0.0500241,0.0434106,-0.0340631,-0.0455777,0.0112111,-0.0522966,0.0666397,0.0301243,-0.0661219,-0.0653296,0.0602666,0.0050231,-0.0245231,-0.0705738,-0.0784915,0.0089852,0.0164782,0.0393244,0.0239460,0.0479267,-0.0603966,0.0321288,-0.0725740,0.0835067,0.0126505,-0.0633636,-0.0813337,-0.0087169,0.0377667,0.0549377,0.0027317,0.0008616,0.0114192,0.0555978,0.0422131,-0.0642989,-0.0836279,0.0219237,0.0527546,-0.0628207,0.0435232,0.0260921,0.0291316,-0.0679291,0.0424474,0.0375692,0.0279852,-0.0280036,-0.0100355,-0.0349979,-0.0670060,0.0164970,0.0840599,-0.0526510,0.0130746,0.0097813,-0.0290854,0.0186701,-0.0858648,-0.0782479,-0.0133214,0.0037961,0.0095429,0.0850269,-0.0275353,-0.0351731,-0.0662011,-0.0242341,0.0736797,0.0734827,-0.0001256,0.0302737,0.0126456,-0.0579231,0.0492738,-0.0318362,0.0665752,-0.0096701,0.0270893,-0.0303894,0.0422611,0.0470124,0.0730368,0.0393919,0.0812906,-0.0008177,-0.0377560,-0.0347239,-0.0690768,-0.0366916,-0.0260427,0.0045310,0.0540336,0.0704294,0.0026287,-0.0604308,-0.0516729,0.0233568,0.0022643,-0.0649223,0.0099103,-0.0847905,0.0522805,-0.0643732,-0.0557845,0.0146252,-0.0092803,-0.0761383,-0.0819741,-0.0691201,-0.0195986,0.0472161,0.0648215,-0.0334909,-0.0003212,0.0591830,0.0526205,0.0488520,-0.0624701,0.0704728,-0.0747688,-0.0015836,-0.0119254,0.0661939,-0.0180834,0.0776325,-0.0811661,0.0171729,0.0140602,0.0080274,0.0391797,-0.0629586,0.0101660,0.0045311,-0.0404027,0.0413107,-0.0677729,0.0372462,0.0521015,-0.0628178,0.0550552,-0.0544262,0.0713274,0.0329476,-0.0009880,-0.0159230,0.0052015,-0.0352967,-0.0540001,0.0296606,-0.0517530,-0.0418398,-0.0588522,0.0232507,-0.0625751,0.0099936,0.0139541,-0.0568120,-0.0597626,-0.0589149,0.0381445,0.0663462,-0.0349443,-0.0386186,-0.0160518,0.0115821,-0.0842370,0.0031044,-0.0381009,0.0547936,0.0272157,-0.0699747,-0.0865618,0.0116139,0.0499020,-0.0006206,0.0826201,-0.0318256,0.0510118,-0.0583092,0.0847641,0.0861879,-0.0132199,-0.0610172,0.0225095,0.0111342,0.0359056,-0.0504655,0.0412513,0.0630721,-0.0224512,-0.0075333,0.0424891,0.0295336,0.0407772,-0.0604918,-0.0458135,0.0434693,0.0295417,0.0030148,0.0113337,-0.0301717,0.0199692,0.0117011,0.0683713,-0.0170579,-0.0758487,0.0640623,0.0380456,0.0620923,-0.0811761,0.0358806,0.0613511,-0.0074668,0.0617925,-0.0030685,-0.0832618,0.0107689,0.0333951,0.0449187,-0.0130881,-0.0759853,-0.0495438,-0.0575281,0.0404774,0.0781625,-0.0310908,0.0815930,0.0347027,0.0853800,-0.0023213,-0.0408928,-0.0317209,-0.0692812,0.0577375,-0.0502787,0.0005900,0.0688179,-0.0731456,-0.0482935,0.0439810,-0.0673925,0.0745162,0.0184030,0.0120699,0.0493795,-0.0715947,0.0157372,-0.0267807,0.0487295,-0.0262732,0.0470604,0.0596733,0.0111121,0.0764614,0.0132216,0.0023455,-0.0415586,0.0078855,-0.0498810,-0.0431077,-0.0813650,-0.0038446,0.0121006,-0.0637171,-0.0330363,0.0487510,0.0238021,-0.0511475,0.0625346,0.0624377,0.0797627,0.0820713,0.0500247,0.0112365,0.0072120,0.0124751,0.0265709,-0.0639799,0.0726236,-0.0116287,-0.0033240,0.0327548,-0.0388845,-0.0791410,0.0222871,0.0612662,0.0101336,0.0676576,-0.0177775,0.0471818,-0.0623792,-0.0122133,-0.0435920,0.0366505,0.0109988,0.0103009,-0.0015276,-0.0521283,0.0460825,-0.0259221,-0.0766197,0.0389161,-0.0307799,0.0603341,-0.0367765,0.0633612,-0.0141199,0.0767235,0.0863105,-0.0284254,-0.0218343,-0.0039426,-0.0825998,0.0262103,0.0038455,0.0266164,0.0005473,-0.0729500,0.0073449,0.0696990,0.0611610,0.0318948,-0.0294435,-0.0693601,-0.0183838,0.0684844,0.0278699,0.0670178,-0.0705730,-0.0129767,-0.0458334,-0.0602636,-0.0609897,0.0103158,-0.0868586,-0.0108371,-0.0132521,-0.0140494,-0.0210428,-0.0138707,0.0444543,0.0440521,0.0691158,0.0487837,-0.0166668,-0.0139679,-0.0115290,0.0708097,0.0000113,0.0827451,0.0535795,-0.0257569,0.0277108,-0.0627931,-0.0081879,-0.0776021,-0.0812379,-0.0672471,0.0763448,-0.0648817,0.0067053,-0.0564177,-0.0382162,0.0326447,0.0408273,-0.0381457,-0.0651215,-0.0593539,0.0347341,0.0007648,0.0137045,-0.0077407,-0.0421122,-0.0041089,-0.0458862,0.0281501,0.0688524,0.0295140,0.0120306,-0.0180655,0.0253299,-0.0213190,0.0431068,-0.0338884,0.0028170,-0.0520102,-0.0245614,0.0085083,-0.0323282,-0.0351457,0.0305557,0.0613063,-0.0046342,0.0792686,0.0070219,-0.0507361,-0.0458063,0.0288295,-0.0231609,0.0758569,-0.0573348,0.0774727,-0.0188129,-0.0125179,-0.0135654,0.0222300,-0.0712969,-0.0316421,-0.0351851,0.0276629,0.0372215,0.0770740,-0.0805852,-0.0066008,-0.0437436,0.0091609,0.0283181,0.0186241,-0.0692600,0.0829190,0.0704076,0.0482248,0.0572962,-0.0211558,0.0405643,-0.0226110,0.0150372,0.0816872,-0.0807107,0.0788054,0.0706150,-0.0511163,0.0693490,-0.0351271,0.0232949,-0.0311455,0.0740321,0.0389272,0.0241415,-0.0480822,-0.0203391,-0.0255661,-0.0579373,-0.0139952,0.0547622,-0.0147518,0.0820948,-0.0038489,-0.0830568,-0.0740943,-0.0078589,0.0742799,0.0610597,-0.0374919,-0.0338051,0.0146949,0.0268262,0.0681612,0.0094529,0.0330447,0.0600375,-0.0068612,0.0688575,0.0424574,0.0449408,0.0052233,-0.0756173,0.0320437,-0.0427787,0.0354533,0.0708907,0.0238114,-0.0770420,-0.0739757,-0.0771130,0.0646493,-0.0017984,-0.0819473,-0.0261287,0.0020739,-0.0691124,0.0529415,-0.0105753,0.0788765,-0.0714795,0.0425487,0.0066422,0.0422759,0.0237808,-0.0708340,-0.0116086,-0.0031108,0.0092339,-0.0296802,-0.0475825,-0.0327545,0.0624722,-0.0362707,0.0862184,-0.0672356,0.0861117,0.0701800,0.0435049,-0.0778594,0.0831333,0.0533211,0.0737191,-0.0055942,0.0583030,-0.0393387,0.0834089,0.0761197,-0.0733263,-0.0140956,0.0680671,-0.0578766,-0.0584760,-0.0122199,0.0713284,0.0522339,0.0038752,-0.0272093,-0.0378060,-0.0738200,0.0300396,0.0015406,-0.0196454,0.0055827,0.0521990,-0.0203561,0.0252763,0.0513816,-0.0371053,-0.0181479,0.0604513,-0.0409011,-0.0517559,0.0472413,0.0404338,-0.0803820,-0.0790266,0.0369136,0.0826669,-0.0654237,-0.0641112,0.0638048,-0.0363713,-0.0356581,-0.0353442,-0.0519720,-0.0703533,0.0554602,0.0077478,-0.0212302,0.0685693,-0.0491417,0.0672395,-0.0380053,0.0433702,0.0325094,0.0285677,-0.0182827,-0.0030381,0.0783916,0.0504986,-0.0295159,-0.0494387,0.0856719,-0.0692037,0.0779243,-0.0816393,-0.0613012,0.0279087,-0.0859016,-0.0397958,0.0507267,0.0648323,0.0107621,-0.0718606,-0.0574410,0.0457192,-0.0552848,0.0849483,-0.0334621,0.0104141,0.0665884,0.0043253,-0.0092755,-0.0583460,-0.0392337,-0.0636952,0.0571509,0.0294128,0.0201958,0.0486133,-0.0070177,0.0776091,0.0861038,-0.0082750,-0.0785238,0.0770989,-0.0029851,-0.0528958,0.0180785,-0.0019576,-0.0057625,-0.0181239,-0.0240544,-0.0819295,-0.0030554,0.0054337,0.0507189,0.0285889,0.0034529,-0.0696724,-0.0479261,-0.0168879,0.0215821,0.0297276,0.0116953,0.0692775,0.0529615,-0.0180830,0.0117612,-0.0137718,-0.0563988,-0.0821856,-0.0230918,-0.0572242,-0.0035315,-0.0146865,-0.0670544,0.0804125,0.0193468,0.0379533,-0.0084742,-0.0733448,-0.0670998,0.0544005,-0.0683451,0.0167739,-0.0270948,0.0693029,-0.0415663,0.0632872,0.0865596,-0.0025633,-0.0405298,0.0212125,-0.0597648,0.0580946,0.0035609,0.0801258,-0.0469175,-0.0716070,-0.0205751,-0.0163872,-0.0668635,0.0432622,0.0133177,0.0165342,-0.0583535,0.0331925,0.0100176,0.0479225,-0.0157834,-0.0853858,0.0615069,0.0040459,0.0559439,0.0800909,-0.0661093,-0.0580801,0.0624646,-0.0207465,-0.0817221,0.0620951,0.0636194,-0.0353227,-0.0036215,-0.0830746,-0.0641573,0.0868686,0.0839803,-0.0241457,-0.0716675,-0.0235240,0.0463963,-0.0516019,-0.0671909,-0.0272152,0.0518614,-0.0386153,-0.0809518,-0.0250501,-0.0776219,-0.0098061,-0.0235068,0.0708141,0.0811689,-0.0544920,0.0639759,-0.0718695,-0.0256430,0.0395114,-0.0056869,-0.0204359,0.0146774,-0.0289967,0.0311705,-0.0758733,-0.0251422,0.0539424,-0.0759338,-0.0280910,-0.0571324,-0.0606722,0.0353142,0.0761929,-0.0253450,0.0550524,-0.0379514,-0.0604127,-0.0704920,-0.0319741,0.0014664,-0.0611847,0.0451490,0.0648887,-0.0772997,0.0393888,-0.0765324,0.0736053,0.0544484,-0.0152463,0.0261876,-0.0381677,0.0512470,-0.0460642,0.0197648,-0.0045117,-0.0350084,0.0815518,-0.0374984,-0.0240131,-0.0334683,-0.0077017,0.0022439,-0.0850833,-0.0184379,0.0638280,0.0568983,0.0305398,-0.0835138,0.0733354,0.0854949,0.0048817,-0.0747784,0.0437148,-0.0171587,-0.0651490,-0.0038256,-0.0067620,-0.0784729,-0.0363064,0.0649208,0.0346438,0.0124551,0.0292387,0.0755088,-0.0547092,-0.0622021,-0.0464287,-0.0600866,-0.0127714,0.0164873,-0.0066258,0.0664559,-0.0681979,-0.0047799,-0.0389111,0.0825592,-0.0348107,0.0785578,0.0859746,-0.0484044,0.0771236,0.0039272,-0.0362537,0.0339093,0.0736976,-0.0144736,-0.0568455,-0.0199936,-0.0060173,-0.0062227,-0.0420019,-0.0583026,-0.0806967,0.0741659,-0.0697230,-0.0484768,-0.0749653,-0.0292226,-0.0216342,-0.0008076,0.0741939,0.0586691,-0.0212808,-0.0809332,-0.0330399,0.0267372,-0.0853031,0.0190785,0.0183659,-0.0862577,0.0576032,0.0085604,0.0045986,-0.0655797,-0.0444595,-0.0086329,0.0068758,-0.0143759,0.0583026,-0.0860706,0.0663306,-0.0706284,-0.0574441,0.0725630,-0.0833916,-0.0402380,-0.0628429,-0.0714278,0.0174685,0.0024520,0.0146937,0.0047332,-0.0258080,0.0803420,0.0107291,0.0280813,0.0201500,0.0123551,-0.0397693,-0.0484132,0.0130265,-0.0690953,0.0470763,-0.0693040,-0.0477458,-0.0843124,0.0089922,0.0460592,-0.0117591,-0.0196343,0.0469177,-0.0323577,-0.0033335,0.0764027,-0.0467238,0.0002040,-0.0507645,-0.0226376,0.0157054,0.0536332,0.0667435,-0.0565300,-0.0285628,-0.0459937,-0.0631171,0.0690955,0.0690167,0.0439621,-0.0054786,-0.0576817,0.0824780,-0.0793811,-0.0398479,0.0426251,-0.0617560,-0.0006645,0.0452418,0.0341653,-0.0415344,-0.0534464,-0.0723981,-0.0815459,0.0011251,0.0111975,0.0817859,0.0413304,-0.0755276,-0.0559076,-0.0682364,0.0271069,0.0846546,0.0854362,0.0575060,-0.0308373,-0.0474865,0.0813180,-0.0486709,-0.0653989,0.0383509,0.0327796,-0.0361516,0.0338998,0.0403276,0.0109297,-0.0104043,0.0655008,-0.0766639,-0.0520916,0.0127370,-0.0312693,-0.0186088,0.0272680,-0.0258860,0.0694453,-0.0484637,-0.0310292,0.0238466,-0.0370622,-0.0000077,0.0425393,0.0769739,-0.0022822,0.0410465,0.0475507,0.0538097,0.0804891,0.0419396,-0.0817904,-0.0718390,-0.0066386,0.0379184,-0.0210614,-0.0596679,-0.0086831,0.0767974,0.0168569,-0.0301115,-0.0867957,0.0516945,0.0695546,-0.0311358,-0.0538434,0.0098935,0.0299073,-0.0713272,0.0483589,0.0858073,0.0394485,-0.0756324,-0.0011295,-0.0049413,-0.0855876,0.0835174,-0.0508240,0.0488922,0.0503979,-0.0572641,0.0039027,0.0555367,-0.0421739,0.0841933,0.0065259,0.0236938,-0.0624038,0.0847719,0.0135620,0.0413823,-0.0322687,0.0136955,0.0061477,-0.0496432,0.0694889,0.0392334,0.0471794,0.0124671,0.0548353,0.0086092,0.0113452,0.0073546,0.0199060,-0.0767135,-0.0845158,0.0212475,-0.0801252,-0.0484106,-0.0167894,0.0572019,-0.0187455,0.0740425,0.0258094,0.0260097,0.0713066,-0.0545938,-0.0372257,-0.0780263,-0.0567510,0.0632654,0.0502852,-0.0020905,-0.0099682,-0.0304962,0.0351954,-0.0274085,-0.0781920,-0.0045543,0.0719877,0.0635724,-0.0828742,-0.0035962,-0.0160021,0.0239609,0.0066195,-0.0135887,-0.0417207,0.0134235,0.0249298,0.0284190,-0.0163038,-0.0807449,0.0155323,-0.0774235,0.0321939,-0.0000902,-0.0450881,0.0818973,0.0088127,-0.0149100,0.0582336,-0.0278312,0.0699287,-0.0386637,0.0286017,0.0181950,0.0208570,0.0373388,-0.0732885,0.0059156,0.0139821,-0.0692336,-0.0846098,0.0849092,0.0416565,0.0089389,-0.0156087,0.0868649,-0.0645668,-0.0776080,0.0283548,0.0060585,-0.0714238,-0.0430420,0.0155642,0.0476993,0.0437969,0.0574052,0.0426674,-0.0343195,-0.0444339,0.0139719,0.0247785,-0.0614344,0.0622374,-0.0335490,0.0436897,-0.0038348,-0.0831393,0.0573304,-0.0848484,0.0177719,0.0750260,-0.0825290,0.0157520,0.0297533,0.0133390,-0.0867858,0.0296891,0.0357013,-0.0774647,-0.0288853,-0.0451693,-0.0619594,0.0150018,0.0573241,0.0726690,-0.0281304,0.0278001,0.0284073,0.0244793,0.0702954,-0.0445499,-0.0376714,-0.0780681,-0.0692416,0.0157087,0.0525507,0.0138527,0.0194986,0.0229520,0.0159335,-0.0496586,0.0110488,0.0203337,0.0530225,-0.0461271,-0.0532565,0.0531658,0.0704912,0.0693740,0.0626302,-0.0453233,-0.0627244,-0.0862583,0.0566076,0.0815288,0.0733398,-0.0584519,0.0223998,0.0148180,0.0529565,0.0057661,0.0571973,-0.0716440,0.0146270,0.0748848,0.0309939,-0.0197514,0.0018084,-0.0364367,-0.0837286,-0.0691872,0.0008338,0.0142494,0.0380756,-0.0330729,0.0550514,0.0717483,-0.0668362,0.0386134,0.0541932,0.0827231,0.0802193,0.0783979,0.0833939,0.0498978,0.0729976,0.0698045,0.0783750,0.0084683,-0.0023066,0.0444024,-0.0726948,-0.0320384,0.0596876,0.0288614,-0.0440827,0.0037523,-0.0778191,0.0446549,0.0542448,-0.0746185,0.0623968,-0.0318506,0.0265600,0.0135433,0.0220057,-0.0053177,-0.0016376,0.0420986,-0.0536334,-0.0343736,0.0378925,-0.0603433,-0.0429048,0.0343573,0.0764837,-0.0568363,0.0172327,0.0679296,0.0385612,-0.0720030,0.0254029,0.0527956,-0.0171123,-0.0018387,-0.0052721,0.0257341,-0.0850155,0.0038379,-0.0165401,0.0561584,0.0161485,-0.0410725,-0.0626213,-0.0442206,0.0593999,0.0463135,0.0373908,-0.0291668,0.0014830,0.0706865,0.0233888,-0.0475536,-0.0765859,0.0674131,0.0737328,0.0868269,-0.0763523,0.0040363,0.0678273,0.0491381,0.0189624,0.0063011,0.0150045,-0.0850790,-0.0824667,-0.0771967,0.0275843,-0.0805531,0.0135703,-0.0758850,0.0625344,-0.0572103,-0.0300284,0.0868423,-0.0145018,-0.0575576,0.0462267,-0.0640401,0.0002048,-0.0392195,-0.0802828,-0.0633356,0.0001561,-0.0699395,-0.0828516,-0.0130403,-0.0700417,-0.0722747,0.0779252,0.0847147,0.0637925,0.0099585,0.0040867,-0.0081321,0.0118086,0.0085491,0.0016003,-0.0475363,0.0149251,-0.0717585,-0.0364922,-0.0094696,-0.0420396,0.0204086,-0.0095564,0.0303878,0.0497802,-0.0502589,0.0532768,-0.0369442,-0.0025492,0.0599232,-0.0133507,0.0845360,0.0769128,-0.0092732,-0.0154334,-0.0800581,0.0053812,-0.0244373,-0.0822725,-0.0177554,0.0724503,0.0087434,0.0610416,-0.0026702,-0.0696367,-0.0242872,0.0367226,0.0322176,-0.0091165,-0.0866986,-0.0641811,0.0357730,0.0206391,0.0131916,-0.0207683,-0.0165099,0.0498618,-0.0544207,0.0334751,-0.0396165,-0.0814266,-0.0668048,-0.0420097,0.0824153,0.0108512,0.0294861,-0.0845719,-0.0706967,-0.0818804,-0.0799152,-0.0015230,0.0774991,0.0157573,-0.0274105,-0.0121003,0.0330497,0.0352315,-0.0623068,-0.0216619,-0.0608142,-0.0620763,0.0010861,0.0618880,0.0454919,-0.0726515,-0.0458095,-0.0579471,0.0641395,-0.0133010,0.0624571,-0.0624062,-0.0077985,0.0825815,-0.0174867,-0.0123123,0.0065036,-0.0749298,-0.0099551,0.0227360,-0.0698810,-0.0029411,-0.0657161,-0.0793111,-0.0741130,-0.0061975,-0.0044823,0.0458658,-0.0578952,0.0201400,-0.0627252,-0.0317802,0.0449929,0.0252900,-0.0568214,0.0035557,0.0395677,-0.0157017,0.0325377,0.0167780,0.0579264,0.0080657,0.0413010,-0.0368012,0.0037181,-0.0631149,0.0378156,-0.0767075,-0.0511156,-0.0590686,0.0329577,-0.0340675,0.0249194,0.0541707,-0.0264495,0.0377355,-0.0389559,0.0559974,-0.0033278,-0.0099220,-0.0107917,0.0208761,0.0452270,-0.0527280,-0.0407630,0.0753347,0.0377568,0.0857338,-0.0272962,-0.0166346,0.0155827,-0.0562989,0.0783603,-0.0300455,-0.0061710,-0.0048508,-0.0062312,-0.0552846,0.0053709,0.0295823,-0.0274241,-0.0486006,0.0824440,0.0844244,-0.0813590,-0.0309346,0.0352308,-0.0333858,-0.0618664,-0.0550262,0.0436213,0.0142710,0.0527790,0.0019191,0.0484722,-0.0749131,-0.0096753,-0.0007001,-0.0761084,0.0499577,0.0695944,0.0264034,0.0805879,0.0610255,0.0832871,-0.0125122,-0.0307544,-0.0098733,0.0191323,0.0615457,-0.0672201,0.0786374,-0.0739840,-0.0717053,0.0761327,-0.0684139,-0.0157108,0.0244343,-0.0148706,0.0093520,0.0563373,-0.0581785,-0.0633062,0.0221871,0.0306698,0.0720951,0.0342031,-0.0659346,-0.0155341,0.0450238,0.0709522,-0.0328689,-0.0155019,0.0646110,-0.0587725,-0.0191439,-0.0348303,-0.0025977,0.0579120,0.0712311,-0.0279812,0.0776210,0.0629394,-0.0150360,-0.0810134,0.0521430,0.0034792,-0.0097950,-0.0103518,0.0755377,0.0864861,-0.0409437,-0.0695699,-0.0637492,0.0681726,0.0480290,-0.0785832,0.0154466,0.0690236,-0.0071882,-0.0264587,0.0530467,0.0468720,0.0449686,0.0307286,0.0750287,-0.0611045,0.0828274,-0.0144982,0.0837367,0.0671294,0.0444498,0.0744285,0.0431397,-0.0575154,0.0803443,0.0083536,0.0328929,-0.0163799,0.0849309,0.0215015,-0.0168230,-0.0429419,0.0388607,0.0063569,-0.0616985,-0.0000394,0.0147028,0.0406773,-0.0179450,-0.0794146,-0.0727105,-0.0518274,0.0543866,0.0591872,0.0658303,0.0424861,0.0850119,0.0617286,-0.0589412,0.0818194,0.0419289,0.0724378,0.0693188,-0.0018605,-0.0720067,0.0627339,-0.0804361,0.0478154,-0.0405751,-0.0824344,-0.0176123,0.0295311,-0.0384472,-0.0656807,-0.0510411,-0.0132165,0.0212090,0.0505909,-0.0594683,-0.0836651,0.0581054,-0.0452497,-0.0485633,0.0255629,-0.0729917,-0.0696622,-0.0188801,-0.0749090,0.0789956,0.0091079,-0.0800187,0.0339953,-0.0053835,0.0762292,-0.0547944,0.0095390,0.0520340,-0.0483014,-0.0295748,-0.0754702,-0.0438066,0.0397421,0.0409901,0.0046754,0.0609905,0.0768781,0.0783881,-0.0047296,0.0405398,-0.0680094,-0.0014655,0.0117161,-0.0263300,0.0369003,-0.0496501,-0.0123925,0.0541673,0.0183990,-0.0003724,0.0462337,-0.0594223,0.0065381,-0.0067001,0.0221234,-0.0041619,0.0254347,-0.0552668,-0.0390569,0.0640625,0.0020876,-0.0275980,-0.0666733,-0.0450994,-0.0735370,0.0249313,-0.0710380,-0.0835880,0.0163902,0.0111615,0.0438809,0.0353099,-0.0772331,-0.0313321,-0.0779492,0.0465963,0.0059470,-0.0034126,0.0138345,-0.0625832,0.0831441,-0.0268609,-0.0350763,0.0027531,0.0533681,0.0739762,0.0855203,-0.0081264,-0.0682197,-0.0404657,-0.0309931,0.0207971,0.0188654,-0.0107372,0.0626268,0.0322575,-0.0727350,0.0785179,0.0355986,0.0305843,0.0027503,-0.0074496,-0.0210349,0.0124463,0.0481475,-0.0120550,-0.0278865,-0.0328346,0.0714615,0.0728771,-0.0084887,0.0676765,-0.0409129,0.0433641,-0.0164996,-0.0744740,0.0304112,-0.0179084,0.0043288,0.0491206,0.0285550,0.0602649,-0.0170114,-0.0395087,-0.0374015,-0.0413138,0.0796780,-0.0232074,-0.0497251,0.0283475,-0.0795522,0.0399543,-0.0660312,-0.0136580,-0.0345285,0.0690454,0.0612161,0.0245142,-0.0507184,0.0457485,0.0104622,0.0277221,0.0264959,0.0564784,-0.0158429,-0.0769328,0.0689335,-0.0723609,-0.0079121,-0.0136668,0.0636889,-0.0662862,-0.0403311,-0.0402517,-0.0188657,0.0091966,0.0053637,-0.0261168,0.0729183,0.0425677,-0.0846985,0.0802953,-0.0044071,-0.0638006,-0.0202919,0.0479936,-0.0816843,-0.0460049,-0.0144214,-0.0454735,0.0866727,0.0829699,0.0691777,0.0262394,0.0525192,-0.0335943,0.0362357,0.0345235,-0.0190260,-0.0586055,-0.0660724,-0.0422662,-0.0379625,-0.0194744,0.0044112,0.0301010,0.0766513,-0.0771543,-0.0829450,0.0626405,0.0523426,-0.0807143,0.0560066,-0.0389936,-0.0575857,-0.0512144,-0.0779292,-0.0523409,-0.0102902,-0.0054214,-0.0108852,-0.0105466,-0.0093806,-0.0286367,-0.0712363,-0.0437906,0.0246982,0.0519286,0.0776621,-0.0812570,0.0802522,-0.0753394,-0.0365941,-0.0446394,-0.0078847,0.0547462,0.0723907,-0.0181626,0.0645211,0.0763748,-0.0424512,0.0299346,0.0825896,-0.0733738,0.0778701,-0.0619252,-0.0376591,0.0868701,-0.0273370,0.0389799,-0.0054805,0.0487069,-0.0584958,0.0720681,-0.0668589,-0.0428030,-0.0586516,0.0447684,-0.0778036,-0.0679187,0.0504405,-0.0844805,-0.0563290,-0.0730827,-0.0421908,0.0227154,0.0685927,-0.0567292,-0.0823763,0.0461846,-0.0672835,-0.0378984,-0.0108099,-0.0716231,-0.0243430,-0.0198690,-0.0466192,0.0249271,-0.0199281,0.0129730,-0.0230222,0.0615206,-0.0252492,0.0054111,0.0466595,-0.0051790,0.0495372,0.0749370,-0.0473397,0.0586628,-0.0799108,-0.0838283,0.0611114,-0.0493106,-0.0699819,-0.0680085,0.0603340,0.0855399,-0.0378086,0.0648868,0.0447954,-0.0181630,-0.0599407,-0.0529436,-0.0028569,0.0026455,0.0141165,0.0374531,-0.0593566,0.0811176,-0.0365031,0.0045504,0.0557091,0.0251768,-0.0769676,0.0154394,-0.0669313,0.0594988,0.0034473,-0.0273418,0.0312324,0.0104657,-0.0242410,0.0054147,0.0480842,-0.0072937,0.0243354,0.0214891,-0.0086829,0.0734560,-0.0005532,-0.0508166,-0.0316361,0.0264353,-0.0168311,0.0524361,-0.0578484,0.0842145,0.0029601,-0.0302759,0.0784030,0.0533861,0.0612037,0.0471829,-0.0083662,0.0711652,-0.0243068,0.0116317,0.0437348,0.0660697,0.0712190,-0.0119619,-0.0103937,-0.0399511,0.0803819,-0.0492386,0.0396843,0.0177882,0.0591796,-0.0559278,0.0043150,-0.0283028,-0.0198153,0.0596080,0.0850616,0.0502827,0.0251150,-0.0597159,0.0475681,-0.0588541,-0.0030627,0.0390420,0.0814612,-0.0287882,-0.0007042,-0.0138341,-0.0445521,0.0619181,0.0847267,0.0861118,0.0410587,0.0690165,-0.0127793,-0.0562642,-0.0578637,-0.0193265,-0.0185737,0.0687497,0.0853908,-0.0463233,-0.0741073,0.0027767,0.0123031,-0.0069934,-0.0245444,0.0104355,-0.0436398,-0.0863585,0.0376487,-0.0830008,-0.0582835,-0.0523431,0.0429703,-0.0637514,0.0057979,-0.0446631,0.0093436,0.0481749,-0.0696741,0.0071412,0.0473575,0.0583137,-0.0107714,-0.0523509,-0.0848797,0.0182940,0.0152517,-0.0165242,0.0001145,0.0137134,0.0240816,0.0129364,-0.0704391,-0.0505445,-0.0809862,-0.0080543,0.0468202,-0.0376969,-0.0074837,-0.0024602,-0.0337686,0.0211619,0.0321259,-0.0777274,0.0443396,-0.0490053,-0.0354614,-0.0332459,0.0860987,-0.0182064,0.0608244,0.0465271,-0.0468219,-0.0368762,0.0811053,-0.0447724,0.0683469,0.0094279,0.0256325,-0.0184677,-0.0637878,-0.0372151,0.0813978,-0.0472978,-0.0008304,-0.0865175,0.0315770,-0.0409393,-0.0372852,-0.0628358,0.0435297,0.0158754,0.0452552,-0.0112736,0.0250771,0.0026657,0.0266502,0.0765448,0.0563490,0.0258198,-0.0285907,0.0302442,-0.0145823,0.0115165,0.0802972,-0.0204061,0.0536732,0.0617150,0.0759510,-0.0076234,-0.0436819,-0.0747660,0.0420906,-0.0492132,-0.0351346,-0.0456689,-0.0488015,0.0833715,0.0003210,0.0008424,-0.0663934,-0.0430785,-0.0702114,0.0657909,0.0325771,0.0417949,-0.0184725,-0.0277018,0.0314105,-0.0490527,0.0850471,-0.0841093,0.0681207,-0.0164643,0.0143363,0.0614887,0.0500588,-0.0189196,0.0362745,0.0390806,0.0603861,0.0795218,0.0512438,0.0155476,-0.0566205,-0.0708200,0.0568079,-0.0184929,-0.0743776,-0.0298003,0.0692786,-0.0538418,0.0140504,0.0859964,-0.0749800,-0.0403017,0.0408621,-0.0065234,0.0189257,-0.0146565,0.0313531,0.0170436,-0.0118367,0.0125446,-0.0863498,-0.0844295,-0.0128958,0.0506381,-0.0164200,-0.0635504,0.0027896,-0.0429630,-0.0709577,-0.0328957,0.0595138,-0.0406491,-0.0167865,0.0293925,0.0277871,-0.0042349,0.0865214,0.0101366,0.0288524,0.0136427,0.0092039,0.0408014,0.0602702,-0.0368631,-0.0526511,-0.0077333,0.0354095,0.0656311,-0.0776188,-0.0633563,-0.0087534,-0.0770395,-0.0608567,0.0652799,0.0605278,0.0096524,-0.0851996,-0.0236117,0.0536186,-0.0692282,0.0304217,0.0262032,-0.0229482,-0.0732940,-0.0313334,-0.0820902,0.0094002,-0.0317411,0.0149756,-0.0486765,0.0688307,-0.0627497,0.0790540,0.0421717,-0.0126837,-0.0605262,-0.0524908,-0.0642033,-0.0818242,-0.0431805,-0.0406305,-0.0036484,-0.0332908,-0.0145581,-0.0252976,-0.0596922,0.0820234,-0.0235681,0.0036252,0.0487129,-0.0058671,-0.0528822,-0.0120131,0.0581138,-0.0392470,0.0435827,0.0629528,0.0570823,-0.0750876,-0.0090008,-0.0785233,0.0806722,0.0151786,-0.0863984,0.0359148,-0.0844342,-0.0599955,0.0703532,-0.0617084,-0.0548905,-0.0597564,-0.0154098,0.0283902,-0.0061181,0.0569612,-0.0838365,0.0211189,0.0520555,-0.0204755,-0.0621850,0.0138393,0.0605865,-0.0281381,-0.0851029,0.0317712,0.0195440,0.0454089,0.0077948,-0.0103028,0.0572504,0.0857232,-0.0018970,0.0509936,0.0139727,-0.0013663,-0.0000208,0.0164676,0.0255674,-0.0165967,0.0416884,0.0576060,0.0105761,-0.0606505,-0.0009329,-0.0824712,0.0832398,0.0021597,0.0255769,0.0483662,0.0686134,0.0503209,-0.0247237,0.0422707,-0.0647463,-0.0228975,-0.0128872,0.0417268,-0.0644177,0.0818368,-0.0555052,0.0797618,0.0806308,0.0295269,0.0438263,0.0076744,-0.0587685,-0.0431236,-0.0627871,0.0537280,0.0272088,0.0658304,0.0244049,-0.0491443,-0.0817493,-0.0634571,-0.0446863,-0.0854386,0.0256317,0.0678197,0.0498567,0.0073159,0.0312115,-0.0617962,-0.0373425,0.0533943,0.0022355,0.0366995,0.0081920,0.0247469,0.0316071,0.0396159,0.0175796,0.0253088,-0.0177863,-0.0255233,-0.0539460,0.0103744,0.0182822,-0.0298040,-0.0228267,-0.0414382,-0.0509027,-0.0853509,-0.0036533,-0.0457229,-0.0618789,0.0385896,-0.0442324,0.0506820,0.0194801,-0.0813049,-0.0289312,-0.0362375,-0.0561719,0.0206554,-0.0697723,0.0329927,-0.0295742,0.0253488,-0.0291896,-0.0848963,-0.0219644,0.0753191,0.0273416,0.0471784,-0.0371333,0.0603248,-0.0293763,0.0680780,-0.0564083,0.0347261,-0.0602893,-0.0203819,0.0363043,0.0229865,0.0208243,0.0613546,-0.0253531,0.0635210,0.0251074,0.0810562,0.0691452,0.0831053,-0.0421105,-0.0739558,0.0168316,-0.0249536,0.0459661,0.0741865,-0.0865340,-0.0701526,0.0762193,-0.0215693,-0.0817626,0.0166318,-0.0613200,-0.0319668,-0.0099725,-0.0037672,-0.0508180,0.0205483,-0.0559702,-0.0241782,-0.0867628,0.0672633,0.0857375,0.0209906,0.0416887,-0.0265447,-0.0024175,-0.0201330,-0.0324177,-0.0202014,-0.0239569,0.0124010,-0.0072281,0.0798038,0.0743765,-0.0481911,0.0670612,0.0747716,-0.0314146,0.0563514,-0.0337268,-0.0262481,-0.0139460,-0.0081177,0.0287142,0.0630106,0.0750442,0.0648253,-0.0033702,-0.0678551,-0.0462820,-0.0032039,0.0863373,-0.0474736,-0.0691424,0.0410969,0.0129108,0.0153692,-0.0659653,0.0674223,0.0820969,-0.0029930,-0.0071059,-0.0120603,-0.0101183,-0.0196585,0.0266777,-0.0299862,-0.0318160,0.0821922,-0.0605640,0.0213863,-0.0309850,0.0124192,-0.0736605,0.0846583,-0.0114993,-0.0855454,0.0625545,0.0720596,-0.0664714,-0.0706566,-0.0180734,-0.0670632,-0.0312011,-0.0002867,0.0609628,0.0686388,-0.0718466,0.0819267,0.0491319,-0.0766789,-0.0079954,-0.0449031,-0.0018100,0.0688154,0.0223676,-0.0620614,-0.0480999,0.0774807,-0.0667983,-0.0217348,0.0119379,-0.0108542,0.0776135,0.0252065,-0.0131250,-0.0208150,0.0265902,-0.0374997,-0.0356846,0.0470480,-0.0212272,0.0331711,0.0669140,0.0345008,-0.0540447,0.0409477,0.0162105,-0.0389622,0.0359453,-0.0215868,-0.0287119,-0.0589793,0.0204393,0.0564072,-0.0770930,-0.0441223,0.0812749,-0.0382638,-0.0535707,-0.0724525,0.0269305,0.0452963,0.0036224,0.0176149,-0.0164263,0.0774266,0.0837290,-0.0767652,-0.0470022,-0.0388847,0.0572120,0.0186997,0.0812156,0.0371968,-0.0337286,-0.0597583,-0.0087846,0.0694110,-0.0117913,-0.0597685,-0.0391048,0.0464259,-0.0318186,0.0682636,0.0159040,-0.0219825,-0.0627878,0.0102498,0.0266829,-0.0294294,0.0247264,-0.0333157,-0.0710622,-0.0585803,0.0712283,-0.0005594,-0.0680828,0.0680282,0.0096045,-0.0281560,-0.0577857,-0.0201126,0.0774729,-0.0634992,-0.0698450,-0.0431848,-0.0363283,0.0082995,-0.0607029,0.0388095,0.0354602,-0.0128786,-0.0016937,-0.0832876,-0.0315442,-0.0727189,-0.0183409,-0.0074029,0.0244600,-0.0785871,0.0500968,-0.0377427,-0.0249737,0.0659637,-0.0093939,-0.0406745,-0.0215248,0.0094524,-0.0595755,0.0750089,0.0682256,-0.0304320,-0.0320329,0.0587694,-0.0070020,-0.0149487,-0.0713446,0.0435988,0.0802799,-0.0451183,-0.0045209,0.0288110,0.0289322,0.0807145,0.0324525,0.0843171,-0.0789335,-0.0728176,-0.0100149,0.0324556,-0.0644756,-0.0468472,0.0816420,-0.0025201,-0.0678126,-0.0146810,0.0437345,-0.0024082,0.0817006,0.0710882,-0.0143285,0.0629971,-0.0462729,0.0405677,0.0348373,0.0336542,-0.0613101,0.0504219,-0.0096762,-0.0679594,-0.0816256,0.0727321,0.0477807,0.0342357,0.0665174,-0.0066959,0.0316238,0.0745130,0.0074157,-0.0653203,0.0200395,0.0298692,-0.0252383,0.0147524,-0.0595800,-0.0061217,-0.0868578,0.0710836,0.0783992,0.0817720,0.0552427,-0.0228584,0.0578399,-0.0779594,-0.0692198,0.0057481,0.0426239,-0.0436008,-0.0307591,-0.0539814,-0.0246311,-0.0254556,-0.0681785,-0.0637795,-0.0781490,0.0852681,0.0164538,0.0404039,0.0728520,-0.0630597,0.0620128,0.0059624,0.0537387,-0.0501546,-0.0662144,0.0810878,0.0306528,-0.0661430,0.0652423,0.0221229,-0.0713002,0.0335558,0.0861936,0.0734689,0.0425256,-0.0699554,-0.0077122,-0.0017796,-0.0266271,0.0484578,0.0311681,0.0356710,-0.0639269,0.0499188,0.0588206,-0.0551467,0.0482578,-0.0116547,0.0721864,0.0341806,0.0122147,0.0472700,-0.0467862,-0.0209757,0.0840445,-0.0260714,-0.0268171,0.0277682,-0.0052853,-0.0485039,-0.0370380,0.0103436,0.0719810,-0.0377736,-0.0031167,0.0275775,-0.0207998,0.0761003,-0.0611313,0.0395022,0.0376290,0.0569660,-0.0117560,0.0606312,0.0199556,-0.0398644,-0.0814446,-0.0187157,0.0354100,0.0776709,-0.0714642,-0.0393044,0.0380118,-0.0313213,0.0266489,0.0351272,0.0295364,0.0867610,-0.0240338,-0.0626781,-0.0486721,0.0258573,0.0345947,-0.0636202,0.0750129,-0.0554511,0.0508864,-0.0327161,-0.0662800,0.0766843,-0.0801430,0.0582781,0.0467211,-0.0049698,0.0319802,-0.0202524,0.0420948,0.0374648,0.0479611,-0.0094243,0.0282065,0.0634259,0.0382004,-0.0207109,-0.0548245,-0.0220798,-0.0725128,0.0616411,-0.0222480,-0.0096175,0.0858921,0.0160091,-0.0706893,0.0335577,0.0393181,-0.0826055,0.0650357,0.0032753,-0.0283925,0.0856848,-0.0069695,-0.0216064,0.0570338,-0.0471775,0.0603529,0.0020850,0.0194993,0.0155186,-0.0473794,-0.0194688,-0.0808348,0.0677563,-0.0429720,0.0442947,-0.0398837,-0.0108673,-0.0647143,-0.0254674,-0.0361554,-0.0000331,0.0518442,-0.0371924,-0.0709531,0.0680841,0.0832945,0.0552941,0.0724077,0.0614010,-0.0283597,-0.0429139,0.0601567,0.0515999,0.0224089,0.0302614,-0.0825067,-0.0041673,-0.0545827,0.0239217,-0.0755778,-0.0150330,-0.0824762,-0.0694835,-0.0342059,-0.0385190,0.0617403,0.0128395,0.0375428,0.0839552,0.0743012,-0.0855417,-0.0030070,0.0392163,-0.0358049,0.0129690,0.0203713,-0.0394396,-0.0186660,0.0058499,-0.0649677,0.0399034,0.0498651,0.0821181,0.0045743,-0.0146551,0.0254504,0.0089967,0.0681067,0.0577968,-0.0540107,0.0794580,-0.0441653,-0.0495577,-0.0769546,0.0085579,-0.0011477,0.0717149,-0.0655317,-0.0505340,0.0687410,-0.0781596,-0.0491466,-0.0211952,0.0479859,0.0019776,0.0787030,-0.0185720,0.0494671,-0.0268921,0.0742071,0.0714285,-0.0739178,0.0371431,0.0666175,0.0175856,-0.0644412,0.0051387,-0.0603468,-0.0832636,-0.0239936,-0.0274284,0.0831236,0.0187702,0.0099430,-0.0807602,-0.0596010,-0.0781338,0.0778839,-0.0382036,-0.0417387,0.0596957,-0.0294341,-0.0039561,-0.0484286,-0.0683773,0.0849506,-0.0566547,-0.0000202,0.0474886,0.0033823,-0.0127422,0.0319879,0.0163936,-0.0625283,0.0116763,-0.0529499,-0.0400403,-0.0701141,-0.0263676,-0.0363748,-0.0071786,0.0331331,-0.0401804,-0.0753375,-0.0438530,-0.0340114,-0.0480094,-0.0350577,-0.0430567,0.0007162,0.0101328,-0.0702901,0.0582112,-0.0807525,-0.0317896,0.0767630,-0.0827311,-0.0015152,-0.0101863,0.0516866,-0.0850620,0.0640006,-0.0032546,0.0182607,-0.0854568,-0.0785075,0.0522399,-0.0385680,-0.0616925,-0.0610568,0.0119864,0.0180581,0.0590055,0.0587351,0.0296497,-0.0717767,-0.0622054,0.0685694,-0.0199053,-0.0183329,-0.0176435,0.0771566,-0.0016939,-0.0463614,0.0833333,0.0534456,-0.0565275,-0.0863269,-0.0349987,0.0202153,0.0522888,-0.0331316,-0.0027132,-0.0378949,0.0720582,-0.0012408,-0.0294732,0.0373691,0.0471204,-0.0042365,0.0632414,-0.0278224,-0.0731076,0.0353177,-0.0560164,0.0434713,0.0504701,-0.0312926,0.0251116,-0.0563643,0.0373036,-0.0794611,-0.0661368,-0.0513195,-0.0388934,-0.0697326,-0.0848030,-0.0084918,-0.0691304,-0.0328725,-0.0752056,0.0700875,0.0209250,0.0090104,-0.0547365,0.0060541,-0.0791596,0.0027195,-0.0435060,0.0548899,0.0854121,-0.0671937,-0.0598616,-0.0746246,0.0550531,-0.0289489,0.0557758,0.0185941,0.0266876,-0.0060417,0.0491590,-0.0229380,0.0014263,0.0699513,0.0126717,0.0494620,-0.0867105,0.0147979,-0.0459589,-0.0689118,0.0688545,-0.0342354,-0.0857533,0.0028503,0.0617041,-0.0535607,-0.0780247,0.0694737,0.0360879,-0.0346015,0.0374345,0.0345709,-0.0148661,0.0645020,0.0468754,-0.0467421,-0.0513761,0.0157221,0.0587812,0.0622407,-0.0772488,0.0210110,-0.0476265,0.0111066,0.0040332,0.0519744,-0.0263605,0.0042519,-0.0201569,0.0146097,0.0222693,-0.0382315,0.0673034,0.0234450,0.0515480,0.0420784,0.0568135,0.0604524,0.0246229,0.0059723,-0.0610782,-0.0248718,-0.0463859,0.0109848,-0.0472989,-0.0864396,0.0511719,-0.0117459,0.0162116,0.0230239,-0.0364343,0.0258920,-0.0428942,0.0028683,-0.0499305,0.0480681,-0.0320864,0.0106381,-0.0346092,0.0346859,-0.0616813,0.0745892,0.0833835,-0.0813070,0.0111051,0.0480023,0.0477005,-0.0190105,0.0215256,-0.0146057,0.0738910,0.0473765,0.0474517,-0.0594241,-0.0285677,-0.0867763,-0.0589346,-0.0643250,-0.0115931,0.0442062,0.0456281,0.0389017,-0.0168310,-0.0841953,-0.0451591,0.0201676,0.0508019,0.0096836,-0.0561235,-0.0707364,-0.0425596,-0.0308756,-0.0830763,-0.0461053,-0.0252535,0.0149580,-0.0850321,-0.0644821,0.0828766,0.0234227,0.0078414,0.0698385,-0.0161299,-0.0316360,-0.0765148,0.0422315,-0.0314832,-0.0485202,0.0648356,0.0438529,0.0826151,0.0235345,-0.0041746,-0.0211450,0.0262684,0.0375955,0.0859517,-0.0098588,-0.0396500,-0.0571009,0.0063339,0.0047195,-0.0010474,0.0101868,0.0455434,0.0606282,-0.0617844,0.0474404,0.0830753,-0.0658369,-0.0160661,0.0039876,-0.0829275,0.0547331,0.0592807,-0.0725132,0.0100355,-0.0591316,-0.0341042,-0.0120580,0.0716504,-0.0384182,-0.0754526,-0.0194533,0.0273659,0.0377449,-0.0687869,0.0263884,-0.0590431,-0.0215078,0.0562166,0.0342200,0.0701408,-0.0317599,-0.0425223,0.0287551,-0.0580608,-0.0173776,-0.0107337,-0.0619146,0.0037147,0.0601294,0.0290021,0.0077163,0.0279334,0.0013537,0.0221323,-0.0489602,0.0291512,0.0749572,0.0259109,0.0138725,-0.0503901,0.0373874,0.0813483,0.0639049,-0.0117969,-0.0743678,0.0033642,0.0160892,-0.0089465,-0.0273483,-0.0366199,-0.0257348,0.0278209,0.0077869,-0.0839088,0.0566893,0.0773385,-0.0077134,0.0817038,-0.0058760,-0.0345131,0.0237768,-0.0850888,0.0803495,-0.0617987,0.0239726,-0.0555399,0.0542817,0.0120007,0.0573001,-0.0187750,0.0485398,0.0077583,-0.0243559,0.0255155,0.0828906,-0.0117945,-0.0580494,0.0120506,0.0661881,0.0015314,0.0623598,-0.0464758,-0.0575768,-0.0167824,-0.0434555,0.0860416,-0.0263731,0.0357603,0.0808163,0.0546801,-0.0856819,0.0176639,0.0565205,0.0815967,0.0427944,-0.0064360,-0.0608723,0.0101469,-0.0813644,0.0833569,0.0783011,0.0541045,0.0041861,-0.0329839,-0.0073092,0.0001475,0.0421507,0.0215705,-0.0747310,0.0214097,-0.0638272,0.0745580,0.0618631,-0.0344749,-0.0291536,-0.0685215,-0.0353624,0.0314025,0.0541679,-0.0414753,-0.0008466,0.0554151,0.0631178,-0.0312552,0.0500827,0.0189830,0.0492379,0.0761395,-0.0577992,0.0548026,0.0725672,-0.0664273,0.0219779,-0.0101758,-0.0124821,-0.0722604,0.0769008,-0.0572605,0.0362393,-0.0847593,0.0510783,0.0593412,0.0767278,0.0260122,-0.0620628,-0.0393550,0.0444198,-0.0104960,0.0789767,0.0116586,0.0349578,-0.0087990,-0.0198554,0.0111465,0.0468749,-0.0567019,-0.0567997,0.0091836,-0.0674915,-0.0276697,-0.0229429,-0.0818534,-0.0071679,0.0859641,-0.0051001,0.0672792,-0.0732254,-0.0151284,-0.0769105,0.0499431,-0.0129586,0.0610969,0.0223552,-0.0231600,0.0001800,0.0472215,0.0244142,-0.0423294,-0.0502036,0.0164617,0.0562583,0.0716833,-0.0792665,-0.0505263,-0.0040993,0.0545375,-0.0202990,0.0260302,-0.0232080,-0.0008614,0.0852896,0.0407782,0.0042144,-0.0088074,0.0398132,0.0860434,-0.0284574,0.0535170,-0.0160142,-0.0184388,0.0165309,0.0579563,-0.0442711,-0.0480431,-0.0521328,0.0428380,0.0861076,0.0592104,-0.0864205,-0.0510252,-0.0112570,0.0567670,-0.0662710,-0.0035944,-0.0806884,0.0165589,-0.0359860,-0.0140583,-0.0443401,0.0277352,0.0720095,-0.0459797,-0.0184157,-0.0107053,0.0321420,-0.0655317,-0.0115910,-0.0832445,0.0749144,0.0593240,-0.0147542,0.0045162,0.0303511,0.0279039,0.0434022,0.0651474,-0.0161872,0.0425807,0.0374287,-0.0156786,0.0784847,-0.0607574,-0.0458408,-0.0747154,0.0225773,-0.0396000,0.0287726,0.0735205,0.0332708,0.0713616,0.0143265,0.0183512,-0.0615472,0.0828399,-0.0792833,0.0575240,-0.0696209,-0.0039451,0.0612086,-0.0816356,-0.0315503,-0.0404748,0.0098097,0.0857299,0.0743582,-0.0337172,0.0639482,-0.0287581,-0.0780656,0.0144478,0.0424924,-0.0865101,0.0406195,0.0835808,-0.0742964,-0.0237323,-0.0429484,0.0414053,-0.0371409,0.0772516,0.0258378,0.0641147,0.0086736,0.0512197,0.0600255,0.0163195,0.0218146,0.0773337,-0.0745548,-0.0039060,0.0826273,-0.0191760,0.0425484,0.0055079,-0.0203752,0.0299775,0.0587198,-0.0433561,-0.0857098,0.0675834,0.0580209,0.0437118,0.0680024,0.0117113,0.0403635,0.0806352,0.0749082,0.0843442,0.0351114,-0.0491619,0.0746667,-0.0259799,-0.0719763,-0.0035889,-0.0616893,0.0749783,-0.0741985,0.0470544,0.0653829,-0.0618242,-0.0437807,0.0610810,0.0059289,0.0856968,-0.0203402,0.0724829,0.0287452,-0.0485495,-0.0578023,0.0299646,-0.0678953,-0.0867106,-0.0132527,-0.0868220,0.0119299,-0.0598184,0.0807424,-0.0000911,-0.0624033,0.0289246,0.0376761,-0.0746657,-0.0839845,0.0526290,0.0086745,-0.0587447,0.0406782,0.0214051,0.0752389,0.0191319,0.0465101,-0.0554710,-0.0067162,-0.0344901,-0.0567033,0.0598727,-0.0489363,0.0589711,-0.0756060,-0.0198095,0.0020066,-0.0565721,-0.0195909,0.0756830,-0.0564650,0.0792681,-0.0710645,-0.0626517,-0.0077522,-0.0465386,0.0532020,-0.0570052,-0.0342752,0.0561467,0.0825529,0.0613284,0.0843312,0.0363019,-0.0041955,0.0726409,-0.0314953,-0.0446146,-0.0697592,0.0487177,0.0078244,-0.0395333,0.0216613,0.0458172,-0.0674913,0.0329845,-0.0609215,0.0214444,0.0633415,0.0064167,0.0101982,-0.0800526,-0.0012443,0.0260629,-0.0557752,0.0779326,0.0664533,0.0843560,-0.0660017,-0.0547510,0.0535735,-0.0703779,-0.0803517,0.0509756,0.0528531,0.0023819,0.0366873,-0.0655713,0.0446964,0.0538573,0.0700756,-0.0344083,-0.0726051,0.0048077,-0.0755202,-0.0531673,-0.0491370,-0.0495126,0.0552062,-0.0727246,0.0438333,-0.0215247,-0.0658481,-0.0443402,-0.0823910,-0.0346941,-0.0533367,0.0709915,-0.0372673,-0.0324093,-0.0706887,-0.0706229,-0.0158581,-0.0641113,0.0672818,-0.0499341,0.0251997,0.0170400,-0.0285762,-0.0170330,-0.0160319,-0.0454298,0.0354878,-0.0017079,0.0463070,0.0468967,0.0320539,0.0840992,0.0843133,0.0003310,-0.0755546,0.0412174,0.0657354,-0.0544735,0.0838064,0.0702735,-0.0022385,-0.0564595,0.0543358,0.0474233,-0.0019396,0.0705762,0.0637295,0.0691314,-0.0804642,0.0440821,-0.0677318,0.0316646,-0.0258070,-0.0093789,-0.0722975,0.0450902,0.0321204,0.0501194,-0.0435468,-0.0085018,0.0100870,0.0754363,-0.0113317,0.0074711,-0.0111619,0.0000429,-0.0382406,-0.0323556,0.0324985,-0.0413634,-0.0490113,-0.0566692,-0.0108937,-0.0816047,0.0776833,0.0740958,0.0759007,0.0544836,0.0562981,0.0823656,0.0116366,0.0754954,0.0271011,0.0727587,-0.0208127,0.0417327,0.0309198,-0.0756215,0.0049230,0.0743022,0.0028059,-0.0719191,0.0628093,0.0784033,0.0224811,-0.0352817,-0.0084829,0.0711696,0.0192918,-0.0629136,-0.0571229,0.0572097,-0.0326536,0.0189125,0.0625341,-0.0418995,0.0060791,0.0515057,-0.0743450,-0.0245520,0.0469422,0.0242207,-0.0359857,-0.0128858,0.0100503,0.0301307,-0.0580822,-0.0459591,0.0414383,0.0337699,-0.0585860,-0.0426849,0.0487799,-0.0827058,-0.0512107,-0.0156681,-0.0310584,0.0272355,-0.0314277,0.0751626,0.0512510,-0.0016215,0.0454431,-0.0683318,-0.0696382,0.0210482,-0.0233021,0.0233701,-0.0143753,-0.0107180,0.0857473,-0.0543622,-0.0734264,-0.0371676,0.0196810,0.0235530,0.0798922,0.0485279,0.0645231,0.0344013,-0.0046313,-0.0809921,0.0786455,-0.0427805,-0.0767688,-0.0594943,0.0284805,-0.0208980,0.0546703,0.0839820,-0.0326645,0.0189921,-0.0045687,-0.0741505,0.0375895,0.0127223,0.0338268,-0.0726418,-0.0508367,-0.0674776,0.0035693,-0.0520186,-0.0349107,0.0170721,-0.0022571,0.0716994,-0.0463041,-0.0092941,0.0332982,-0.0687101,-0.0618219,-0.0582622,-0.0627730,-0.0701054,-0.0141135,-0.0526127,-0.0426706,-0.0725621,0.0134184,-0.0749295,-0.0755093,0.0676830,0.0309918,0.0068511,0.0804617,-0.0183479,-0.0673557,0.0273593,-0.0040605,-0.0312633,0.0468108,0.0864379,0.0036472,-0.0750291,0.0165809,-0.0855390,0.0835995,0.0572060,-0.0079039,0.0299686,0.0754250,0.0172033,0.0586356,-0.0742772,0.0340270,-0.0424071,-0.0399607,0.0782856,-0.0280401,0.0603868,-0.0835731,-0.0166203,0.0411407,0.0343478,0.0771600,0.0346733,-0.0709292,-0.0771248,-0.0248965,0.0119394,-0.0214590,-0.0650149,0.0114482,0.0691173,-0.0531148,-0.0589001,0.0705075,-0.0564444,0.0852350,-0.0243256,0.0604533,0.0737309,0.0798069,0.0321598,0.0863828,0.0269048,0.0766818,-0.0405071,0.0182612,-0.0382874,-0.0670494,0.0216173,0.0320215,0.0610205,-0.0309641,0.0222524,0.0087646,-0.0149641,0.0320567,0.0707972,0.0839044,-0.0763315,-0.0811468,0.0084235,0.0797150,-0.0473324,0.0364525,0.0632933,-0.0168477,0.0347584,-0.0479614,-0.0433235,0.0215602,-0.0550837,0.0757654,0.0210139,0.0587502,0.0655181,0.0674360,-0.0099177,-0.0596984,-0.0865425,-0.0752296,0.0592522,0.0614071,-0.0192645,-0.0054245,-0.0167574,0.0527005,-0.0602970,-0.0328893,0.0496758,-0.0496993,-0.0271069,-0.0288299,-0.0569134,0.0124898,-0.0793065,-0.0805492,0.0825712,0.0423811,-0.0415815,-0.0476814,-0.0229879,-0.0097360,-0.0588452,0.0849551,-0.0379149,-0.0802562,0.0654619,0.0390965,-0.0530255,0.0658485,0.0507960,-0.0807024,0.0403265,-0.0553977,0.0008022,-0.0633601,0.0842320,0.0274344,-0.0093202,0.0469786,0.0646643,0.0505020,-0.0687805,-0.0791783,-0.0239373,-0.0611578,-0.0727983,-0.0282952,0.0681523,-0.0274507,0.0109525,-0.0417647,0.0497424,0.0390365,-0.0437387,-0.0751016,0.0457094,-0.0652059,0.0509240,0.0796131,-0.0862865,0.0147908,0.0858399,0.0409691,0.0463223,-0.0002870,0.0645382,0.0436251,-0.0597817,-0.0317111,0.0036746,-0.0820466,-0.0681382,0.0218232,-0.0742958,-0.0051464,0.0475945,-0.0601650,0.0534876,0.0288177,-0.0006865,-0.0224890,0.0739822,-0.0378732,-0.0703817,-0.0566857,-0.0260457,0.0622569,-0.0349624,-0.0620509,0.0549409,-0.0343198,0.0396691,0.0538516,-0.0802798,-0.0009377,-0.0333646,0.0711875,-0.0442418,-0.0062172,-0.0474527,0.0463619,-0.0013347,-0.0286618,-0.0187440,0.0112987,0.0531209,-0.0580786,0.0380629,0.0196793,0.0576683,-0.0495528,0.0841194,0.0447213,-0.0004969,-0.0731914,0.0749648,0.0603865,0.0759947,-0.0469267,0.0852648,0.0440064,0.0056826,0.0380047,0.0109289,0.0123319,-0.0498622,0.0644935,-0.0034097,-0.0071748,-0.0286529,0.0360667,-0.0477420,0.0569416,-0.0795242,0.0204432,-0.0186888,0.0605258,0.0492937,-0.0675551,-0.0067240,0.0200328,-0.0301788,-0.0095337,-0.0221750,0.0562535,0.0042041,-0.0341393,0.0297108,-0.0067304,0.0058631,0.0280465,-0.0496531,-0.0753834,-0.0208779,0.0482050,0.0238776,0.0161890,0.0257693,-0.0664612,-0.0779149,0.0840456,0.0565347,-0.0387277,0.0540581,0.0639396,0.0686446,-0.0515599,0.0375363,0.0310091,-0.0321859,-0.0561168,-0.0358872,0.0245645,0.0212786,0.0288670,-0.0061112,-0.0614464,0.0816568,-0.0633295,0.0187524,0.0005908,0.0516461,0.0560284,0.0121365,-0.0561609,0.0173043,-0.0509151,0.0469573,-0.0438555,-0.0304471,0.0559715,-0.0467391,-0.0608415,-0.0696854,-0.0796102,-0.0838310,0.0858883,-0.0442409,0.0406344,0.0299683,0.0105023,0.0714468,0.0810103,-0.0518623,0.0057963,0.0229481,0.0289556,0.0312790,0.0176758,0.0525553,-0.0368978,-0.0686625,0.0172723,-0.0677985,0.0304030,0.0480405,0.0364350,0.0664171,0.0080686,0.0795086,-0.0509591,-0.0228890,-0.0541597,-0.0248715,-0.0056452,-0.0468407,-0.0217734,-0.0066860,-0.0041525,-0.0680681,-0.0636468,-0.0805793,-0.0835504,-0.0695657,-0.0455125,0.0091750,0.0403116,0.0703722,-0.0464752,-0.0289417,0.0359984,0.0035562,-0.0106751,-0.0336585,0.0226869,-0.0672012,-0.0725472,-0.0278073,0.0861451,0.0224506,-0.0352278,-0.0517432,0.0864907,-0.0024584,0.0103145,-0.0060836,0.0376301,0.0754703,0.0741595,-0.0534516,-0.0795269,-0.0764165,-0.0471018,-0.0761482,-0.0590530,-0.0056852,0.0199559,0.0681877,-0.0222421,0.0604099,-0.0476831,-0.0731729,-0.0229630,0.0285709,-0.0199022,0.0866530,0.0482989,-0.0055203,-0.0280834,0.0475148,-0.0699988,0.0236179,0.0827008,-0.0704372,-0.0657696,0.0060861,0.0104083,0.0587896,-0.0053727,-0.0023614,-0.0815911,0.0020295,0.0081513,-0.0417638,0.0128104,0.0360274,0.0394802,-0.0541629,0.0172860,-0.0696911,-0.0806822,0.0565320,-0.0559348,-0.0167161,-0.0018262,0.0110921,-0.0169922,-0.0404564,-0.0813573,0.0418535,-0.0798707,-0.0644270,-0.0214577,-0.0840991,-0.0479351,-0.0002982,0.0089162,0.0494023,-0.0284378,-0.0833857,-0.0398882,-0.0230998,0.0055729,0.0551922,0.0220656,-0.0685459,0.0042905,-0.0253834,-0.0357796,-0.0653527,-0.0081454,-0.0295327,0.0781085,0.0228490,0.0406804,-0.0106469,-0.0529881,-0.0632409,0.0358259,-0.0474163,0.0655417,0.0428843,-0.0249142,-0.0428452,0.0457143,0.0140799,0.0437858,-0.0322986,-0.0234469,-0.0715811,-0.0287551,0.0235940,-0.0077518,0.0637469,-0.0081429,-0.0726154,0.0821302,0.0830767,-0.0110697,-0.0405786,-0.0692052,0.0677141,0.0168179,-0.0780258,0.0036339,-0.0294308,-0.0017435,0.0375750,-0.0057426,-0.0528468,0.0770878,-0.0271301,0.0769666,-0.0347555,0.0169539,0.0357518,0.0662535,-0.0261895,-0.0834760,-0.0441225,-0.0108415,-0.0253020,0.0664006,0.0683358,-0.0484842,-0.0286714,0.0826496,-0.0532832,-0.0325239,-0.0153492,-0.0069326,-0.0147999,-0.0345642,-0.0770439,-0.0058966,0.0559988,-0.0195456,0.0792890,0.0066447,0.0616409,-0.0604870,-0.0031967,-0.0524183,-0.0704495,0.0489770,0.0514647,0.0522314,0.0283014,-0.0616539,0.0556846,0.0711080,0.0144337,-0.0565465,0.0505795,-0.0041596,-0.0181016,-0.0650211,-0.0084392,0.0155444,-0.0106159,0.0631407,-0.0783174,0.0615134,-0.0583527,-0.0684322,-0.0313124,0.0845753,-0.0010486,-0.0389525,0.0042908,-0.0263369,-0.0125104,-0.0858350,0.0081739,0.0039692,0.0500712,-0.0272905,-0.0307285,-0.0085566,-0.0020153,-0.0619731,-0.0243777,-0.0745108,-0.0315905,-0.0607274,0.0082587,0.0372371,-0.0388193,0.0867487,-0.0341477,0.0374940,0.0629603,-0.0255360,0.0120782,-0.0823215,-0.0070390,0.0676950,-0.0846753,0.0788415,-0.0581867,0.0065446,-0.0344245,0.0162320,0.0076388,0.0606786,-0.0667279,-0.0292192,-0.0535411,-0.0105272,0.0491533,0.0313728,0.0144288,-0.0621535,0.0437911,0.0697675,-0.0359517,-0.0348793,0.0200754,0.0121581,-0.0350597,0.0728568,-0.0372771,-0.0590286,-0.0396083,0.0617302,-0.0544209,0.0402819,0.0424961,-0.0521671,0.0321942,0.0712385,0.0413066,0.0846989,0.0005414,-0.0379838,0.0584483,0.0207427,0.0197261,-0.0820219,-0.0767137,-0.0180497,0.0362800,0.0246443,0.0067259,-0.0068580,0.0074826,0.0577033,0.0451919,-0.0593711,-0.0170677,-0.0767969,-0.0734434,0.0325843,-0.0488963,-0.0261226,0.0073854,-0.0163881,-0.0727698,-0.0370477,0.0183739,0.0463535,-0.0527383,-0.0272487,0.0441233,0.0347322,0.0216967,0.0156425,-0.0314543,-0.0455064,0.0205497,-0.0212389,0.0233731,-0.0300994,-0.0835238,-0.0568301,0.0499718,0.0108880,-0.0860559,0.0082346,0.0384460,-0.0161946,0.0183668,0.0519317,-0.0705394,0.0563996,-0.0611200,0.0237751,-0.0469176,-0.0469607,0.0736566,0.0583853,0.0863220,-0.0660109,-0.0557925,0.0435161,0.0556504,0.0528333,-0.0277705,-0.0627330,-0.0796022,0.0797083,0.0029572,0.0307000,-0.0373202,0.0063626,0.0607991,-0.0742775,-0.0696785,0.0616722,0.0208862,0.0556966,-0.0414514,-0.0476761,0.0206992,-0.0250617,-0.0782056,0.0465083,0.0856425,-0.0381941,0.0864767,0.0723700,-0.0667379,0.0858696,-0.0805701,-0.0356012,0.0424566,0.0620094,-0.0696971,-0.0722431,0.0862055,-0.0623701,-0.0794639,0.0022336,0.0552591,-0.0298549,-0.0783329,0.0291290,-0.0172033,-0.0610823,0.0038721,-0.0832462,0.0815434,0.0493498,-0.0439931,0.0153134,-0.0626411,-0.0352696,-0.0251074,-0.0639277,0.0134655,-0.0255598,-0.0784868,0.0336567,-0.0266193,-0.0721278,0.0849846,-0.0710919,0.0768108,-0.0716416,-0.0564058,0.0760872,-0.0470825,-0.0489406,-0.0086083,-0.0787526,0.0081337,-0.0000121,0.0373055,0.0778595,0.0258347,-0.0457515,0.0815425,0.0204490,-0.0833309,-0.0493797,-0.0511667,-0.0590428,0.0022798,0.0106550,-0.0360414,-0.0711838,0.0720243,-0.0275990,0.0494020,-0.0415242,-0.0127977,0.0474575,-0.0256869,-0.0229160,0.0627451,0.0048364,-0.0337579,-0.0712666,0.0428250,0.0445629,-0.0630900,-0.0359705,-0.0423784,0.0611446,-0.0450401,0.0703855,-0.0715361,-0.0504267,0.0039053,-0.0679378,-0.0128773,0.0396678,-0.0400515,0.0763316,-0.0366064,0.0108362,-0.0817813,-0.0515112,0.0701663,0.0545499,-0.0061062,-0.0295605,0.0150783,0.0551360,0.0344527,-0.0091058,-0.0269567,-0.0862344,0.0065568,-0.0710609,0.0452576,0.0303959,-0.0201022,-0.0840499,0.0046114,0.0217868,0.0732647,0.0200044,0.0582892,-0.0097591,0.0389957,-0.0415173,-0.0570205,0.0858733,-0.0521148,-0.0066977,0.0097804,-0.0469670,0.0287202,-0.0069824,-0.0793462,-0.0643151,0.0503863,0.0226612,0.0777501,-0.0020902,-0.0733737,-0.0361358,-0.0013954,0.0201122,-0.0202675,-0.0430670,-0.0364210,0.0465594,-0.0401878,0.0551195,-0.0185830,-0.0538522,-0.0118052,-0.0472229,0.0233178,-0.0597386,-0.0018111,0.0532265,-0.0607944,0.0330033,-0.0404004,0.0359152,0.0729654,0.0752490,-0.0579963,0.0805483,-0.0759953,0.0793191,0.0162804,-0.0851744,-0.0097002,0.0298358,-0.0343810,0.0758335,-0.0369811,0.0322806,-0.0541626,0.0135270,-0.0080891,-0.0074212,-0.0182826,0.0602571,0.0256557,0.0568414,-0.0738950,-0.0379556,0.0840320,0.0112231,-0.0716583,-0.0636915,-0.0427028,-0.0251295,0.0591528,-0.0566665,-0.0368097,-0.0857726,-0.0630473,-0.0258759,0.0804757,0.0401622,-0.0241211,-0.0161536,-0.0169311,0.0284270,-0.0272492,0.0330169,-0.0262215,0.0055173,-0.0403852,0.0526185,0.0850253,0.0282614,0.0259464,0.0237518,-0.0018263,0.0389806,0.0727254,-0.0047234,-0.0367254,-0.0858620,0.0185142,0.0075009,-0.0240624,-0.0092621,0.0377636,0.0260570,-0.0081055,0.0616455,-0.0867480,-0.0145590,0.0148786,-0.0239400,0.0562165,0.0848766,-0.0824421,-0.0579619,0.0309644,-0.0217344,0.0344846,0.0775083,-0.0560451,0.0325807,0.0188406,0.0568305,-0.0305966,-0.0699149,0.0088820,-0.0448004,0.0122908,0.0590857,-0.0437333,-0.0561241,-0.0203425,0.0191334,0.0215429,-0.0695081,-0.0417387,-0.0734918,0.0790665,-0.0415576,-0.0011216,0.0070160,0.0214315,-0.0318343,0.0049635,0.0259186,-0.0028670,-0.0510013,-0.0827450,-0.0553115,-0.0604221,-0.0518609,0.0641983,0.0453477,-0.0819596,-0.0533274,0.0623619,0.0138516,-0.0111986,-0.0122764,-0.0139919,0.0319973,0.0185287,0.0525947,-0.0357984,-0.0468575,0.0700158,0.0093920,-0.0334202,0.0621532,0.0547635,0.0523873,-0.0177600,-0.0107341,-0.0663761,0.0741326,-0.0717447,0.0176861,-0.0637978,-0.0675606,0.0493037,-0.0372907,-0.0324924,0.0265729,-0.0788722,-0.0275228,0.0601746,0.0704189,0.0732579,-0.0379531,-0.0287866,-0.0276632,0.0809733,0.0766712,-0.0619976,-0.0417543,-0.0571155,-0.0789110,0.0545668,-0.0036065,0.0701713,0.0224011,-0.0381483,-0.0345178,-0.0752622,-0.0175953,-0.0473143,-0.0600778,-0.0868383,-0.0241829,-0.0407092,0.0493945,0.0254555,0.0137275,-0.0109617,0.0335124,0.0731338,-0.0377163,0.0170022,0.0594625,0.0112597,0.0751447,-0.0551298,0.0053039,0.0648868,-0.0301983,0.0504787,-0.0791579,-0.0221801,0.0181163,0.0041647,-0.0389379,-0.0464117,0.0529455,0.0134735,-0.0347448,-0.0515789,0.0530883,-0.0078934,-0.0514880,-0.0580237,0.0383265,0.0848356,0.0543609,-0.0348752,-0.0130553,0.0009442,-0.0486706,0.0361576,-0.0689828,-0.0761372,-0.0395118,-0.0807672,-0.0443379,0.0527212,0.0710487,0.0123930,0.0162707,0.0788200,0.0771420,-0.0525421,-0.0039445,-0.0487250,-0.0120247,-0.0379281,0.0516776,0.0401596,-0.0025778,0.0178368,-0.0546629,0.0328633,0.0467422,0.0705927,0.0307698,0.0141739,-0.0512116,-0.0692146,-0.0718110,-0.0129530,0.0538722,-0.0538647,-0.0021611,-0.0725688,-0.0477027,0.0404302,0.0670816,-0.0635832,-0.0341060,-0.0035768,-0.0716923,-0.0438931,0.0308102,0.0112923,-0.0056889,-0.0681437,0.0602934,-0.0409405,0.0589451,-0.0292135,0.0638255,-0.0826470,-0.0832793,0.0236386,0.0748749,0.0344196,-0.0491166,-0.0632658,0.0521341,-0.0339985,0.0107103,0.0190772,-0.0009341,-0.0783799,0.0334376,0.0382923,0.0489794,0.0135900,0.0616383,-0.0720558,-0.0769160,0.0768751,-0.0290197,0.0408233,0.0012383,0.0522205,0.0596088,-0.0253974,-0.0756491,0.0316247,0.0323182,0.0751055,0.0359069,0.0359679,0.0118149,0.0238527,-0.0165416,0.0496274,0.0475160,-0.0513366,-0.0713002,-0.0287029,0.0546697,0.0146949,-0.0201537,0.0011781,-0.0339419,-0.0581035,-0.0721610,-0.0592328,-0.0432301,-0.0621479,-0.0692868,0.0146793,0.0656046,0.0188806,-0.0200294,0.0382842,0.0804123,-0.0087494,-0.0170202,0.0258014,-0.0205730,-0.0680424,-0.0251598,0.0781711,0.0427394,0.0452277,0.0408694,0.0033262,0.0808202,0.0564983,0.0615525,0.0485608,-0.0157360,-0.0455304,-0.0371902,0.0372512,-0.0167047,-0.0224221,0.0649476,0.0269943,0.0023592,0.0825899,-0.0452556,-0.0189653,0.0145414,0.0216442,-0.0676102,0.0080246,-0.0740343,0.0022987,-0.0531031,-0.0076782,0.0211855,0.0086662,-0.0164363,-0.0230043,-0.0330353,-0.0624961,0.0672511,-0.0391441,0.0809313,0.0418744,-0.0775124,-0.0217338,0.0832732,-0.0277735,-0.0714117,-0.0203607,0.0367336,0.0804650,-0.0802956,-0.0478363,0.0761258,-0.0386220,0.0201275,0.0037381,0.0699513,0.0394464,-0.0751664,0.0828461,-0.0451840,-0.0413404,-0.0117612,0.0629306,0.0542550,0.0587316,-0.0470028,-0.0657094,0.0831646,-0.0666808,-0.0179244,0.0771668,0.0621227,-0.0085077,-0.0314961,0.0584668,0.0506479,-0.0159787,-0.0488231,0.0004524,-0.0224428,-0.0421895,0.0395452,-0.0332462,0.0061177,-0.0272565,0.0574211,-0.0108602,-0.0747393,0.0691838,-0.0149432,-0.0329942,-0.0590856,0.0602247,-0.0569927,0.0820984,0.0320271,-0.0170664,-0.0705401,0.0282626,0.0031819,-0.0015354,0.0185003,-0.0216246,0.0768860,0.0739333,-0.0500869,0.0406047,-0.0289745,-0.0119809,-0.0458721,0.0355118,0.0327588,0.0806022,-0.0846636,-0.0480527,-0.0335834,0.0596867,0.0280163,-0.0213936,0.0419414,-0.0738561,0.0325414,0.0697849,0.0732978,0.0624778,0.0649542,0.0183958,-0.0415178,0.0813432,-0.0402707,0.0485932,-0.0071214,0.0651587,-0.0599605,-0.0171646,0.0521629,-0.0231183,-0.0634890,-0.0637408,0.0518300,-0.0224319,0.0587001,-0.0023404,-0.0287589,0.0609657,0.0365360,0.0245868,0.0337232,-0.0223769,-0.0837359,-0.0112645,-0.0093038,0.0357346,-0.0284088,-0.0229352,0.0112832,-0.0503838,0.0823897,0.0566946,-0.0559697,-0.0448101,0.0183587,0.0238380,-0.0665806,0.0453273,-0.0802557,0.0725115,-0.0647201,-0.0568156,-0.0781584,0.0740390,0.0076816,0.0674708,-0.0152306,0.0658518,0.0415074,-0.0656237,0.0035095,-0.0116985,-0.0010714,0.0067028,0.0639661,0.0765539,-0.0444918,-0.0513718,-0.0333104,0.0537206,-0.0148265,-0.0378498,0.0234861,0.0161329,0.0042692,-0.0450844,-0.0469582,0.0246178,-0.0866862,-0.0402848,0.0102002,-0.0644772,-0.0101713,0.0189709,-0.0773673,0.0844394,-0.0004874,-0.0056687,0.0633621,-0.0459092,0.0156367,-0.0200575,0.0293215,-0.0723638,0.0735744,0.0063584,-0.0827390,-0.0578465,0.0419157,-0.0291203,0.0828033,-0.0598399,0.0199591,0.0193602,0.0432221,-0.0627008,0.0612050,0.0831930,0.0488461,0.0614479,-0.0440210,-0.0278828,0.0838999,0.0327368,0.0780171,-0.0803966,0.0302471,-0.0093994,0.0008638,0.0066800,0.0316205,-0.0704286,0.0735517,-0.0259872,-0.0558633,0.0601969,0.0673004,-0.0516732,-0.0845787,0.0222870,0.0061356,0.0851537,0.0493762,-0.0608344,0.0175848,0.0056692,-0.0366061,-0.0081394,0.0019331,-0.0746891,-0.0336206,0.0448412,-0.0156428,-0.0366499,-0.0093510,-0.0245548,-0.0301173,-0.0660331,0.0529749,0.0576756,0.0275761,-0.0023337,0.0741761,0.0141986,0.0586083,-0.0686164,-0.0125336,0.0389796,-0.0333604,-0.0101832,-0.0256626,0.0597043,-0.0119587,-0.0632155,0.0857991,-0.0813030,0.0293828,-0.0377362,-0.0025133,-0.0556133,-0.0254961,0.0507952,0.0761571,0.0457903,-0.0727838,-0.0201230,-0.0656936,-0.0159720,0.0007730,0.0742104,-0.0452255,-0.0585800,-0.0150524,-0.0579786,0.0425477,-0.0433732,-0.0396658,-0.0569150,0.0825355,0.0139029,0.0198309,-0.0300563,-0.0133219,-0.0790569,-0.0063427,-0.0144520,-0.0734308,-0.0638890,0.0347410,0.0109850,-0.0325731,-0.0776842,-0.0251489,-0.0433451,0.0550352,-0.0110036,0.0234610,0.0762707,0.0599536,-0.0626952,0.0635520,-0.0722011,-0.0343461,-0.0384295,-0.0432505,-0.0787275,0.0051264,0.0040128,-0.0487134,0.0007327,-0.0690134,0.0580466,0.0576055,0.0045938,0.0659188,-0.0356663,0.0770710,0.0794172,-0.0126261,0.0248828,0.0034731,0.0417299,0.0341277,0.0652533,0.0853139,0.0022338,-0.0326794,0.0218457,-0.0084247,-0.0596550,0.0460796,-0.0318018,-0.0449269,-0.0751956,0.0166978,-0.0012484,-0.0669940,-0.0651050,-0.0841647,-0.0287783,0.0225568,-0.0662490,-0.0576608,-0.0067668,0.0252739,-0.0786711,0.0444961,0.0154158,-0.0861830,-0.0550592,-0.0466306,0.0042192,0.0735998,0.0744263,-0.0174567,0.0719845,-0.0102691,0.0367930,0.0069011,0.0682354,0.0640672,-0.0339484,-0.0504956,-0.0677889,-0.0222149,0.0531313,0.0178919,-0.0022797,0.0749554,0.0206564,0.0558712,0.0105831,0.0413365,0.0851395,-0.0831128,-0.0203187,-0.0804607,0.0483124,0.0820262,-0.0797146,0.0801823,-0.0515335,0.0114337,0.0668530,-0.0640363,0.0809061,0.0519083,0.0126238,0.0307701,-0.0281197,-0.0060700,0.0079081,0.0248610,0.0303636,0.0270484,-0.0842831,-0.0034342,-0.0419888,0.0003663,-0.0154079,0.0655967,-0.0306916,0.0821043,0.0200041,-0.0324813,0.0859206,0.0866145,-0.0260128,0.0473039,0.0817116,-0.0187983,0.0405571,-0.0567510,0.0795645,0.0204809,-0.0338581,0.0735415,-0.0145399,0.0656948,0.0173824,0.0442695,-0.0273043,-0.0616386,-0.0177987,-0.0838699,0.0523390,-0.0151526,-0.0003750,-0.0765790,0.0721429,0.0711462,0.0759469,-0.0454779,0.0663214,0.0090218,0.0089700,0.0653129,0.0087072,0.0698863,0.0256877,0.0034897,-0.0358411,-0.0206844,0.0336679,-0.0432057,0.0867257,0.0867389,-0.0565933,-0.0147434,0.0655045,0.0477183,-0.0574030,-0.0487289,0.0730088,0.0117275,-0.0456697,0.0384187,0.0835041,0.0408845,0.0487689,0.0687178,0.0251016,0.0377866,-0.0636892,0.0044939,-0.0401207,0.0322099,-0.0171223,0.0555157,0.0151671,-0.0783638,-0.0279237,0.0662551,-0.0121191,-0.0811850,-0.0638798,-0.0123226,-0.0813752,-0.0335440,0.0598632,0.0710585,-0.0727549,-0.0844689,-0.0645996,-0.0866752,0.0141878,-0.0233401,0.0386726,0.0107627,-0.0693847,0.0005124,-0.0074486,0.0426460,-0.0486302,0.0157913,-0.0397892,-0.0018218,-0.0389280,0.0300176,-0.0332352,0.0631683,0.0385829,0.0257702,0.0424942,-0.0604653,0.0315143,0.0655435,0.0141413,0.0370683,-0.0549296,-0.0129246,0.0211976,-0.0407553,-0.0104644,0.0435272,-0.0405013,-0.0832057,-0.0667420,0.0851005,0.0144861,-0.0491976,-0.0013163,-0.0798916,0.0803775,0.0369826,0.0228288,-0.0463408,-0.0517683,0.0708300,0.0706059,0.0019256,0.0470691,0.0222597,-0.0592333,0.0026341,0.0487235,0.0592101,-0.0187515,-0.0240643,0.0093493,0.0132481,0.0499402,-0.0563823,0.0594220,-0.0474533,0.0740741,-0.0680085,-0.0437299,-0.0795971,-0.0698372,0.0576854,-0.0418656,0.0157756,0.0647229,-0.0484171,-0.0341709,0.0006225,-0.0078288,0.0009900,-0.0154767,-0.0241520,-0.0840135,-0.0553367,0.0850368,-0.0563177,0.0342265,0.0468312,-0.0840367,-0.0714541,-0.0641623,0.0122417,0.0287232,0.0727070,0.0427886,0.0012160,-0.0616754,0.0299335,0.0201366,-0.0184762,0.0372656,0.0372286,-0.0477200,0.0823291,-0.0339249,-0.0699262,-0.0530171,0.0188334,0.0176254,0.0260832,-0.0671057,-0.0847804,-0.0849980,-0.0641901,-0.0531880,-0.0868903,-0.0335786,0.0679677,0.0468700,-0.0306862,0.0834428,0.0696368,0.0684846,0.0252368,0.0554147,0.0243440,-0.0604763,0.0806684,-0.0326516,0.0465894,-0.0247369,-0.0823152,-0.0031111,0.0144723,-0.0869152,0.0498931,0.0314752,-0.0530032,-0.0182026,-0.0378286,0.0600091,0.0016208,-0.0356798,0.0619403,0.0243598,-0.0019387,0.0619791,0.0777104,-0.0209001,0.0219199,-0.0399050,-0.0243865,0.0046276,-0.0583495,-0.0860788,-0.0268868,0.0529237,-0.0596260,-0.0331475,-0.0666570,0.0738925,0.0290448,-0.0620430,-0.0161477,-0.0434121,-0.0620291,-0.0531837,0.0749923,-0.0281031,0.0155428,-0.0497654,-0.0550231,-0.0697655,0.0014839,-0.0800119,0.0415234,0.0864743,0.0688963,0.0323047,-0.0213549,0.0038871,0.0793288,0.0411877,-0.0784144,-0.0659498,0.0420380,-0.0183720,0.0739030,0.0693411,0.0354097,-0.0796831,0.0563045,-0.0224747,-0.0547970,-0.0467724,0.0210424,-0.0298969,-0.0130269,0.0091055,0.0289291,-0.0844132,0.0462692,0.0608351,-0.0672497,-0.0391761,0.0677523,0.0612029,-0.0396309,0.0497195,0.0065784,0.0259433,-0.0333226,-0.0010219,-0.0197981,-0.0248078,0.0199575,-0.0646893,0.0437493,0.0069314,-0.0822774,-0.0077702,0.0141774,0.0609562,0.0566842,0.0463096,-0.0727453,-0.0092025,-0.0705165,0.0011569,0.0868321,0.0453417,0.0036728,0.0461722,0.0192477,0.0233523,-0.0799330,0.0000709,-0.0023739,-0.0326348,-0.0371388,-0.0827246,0.0802377,0.0164678,0.0031827,-0.0264896,0.0785891,-0.0637890,-0.0042498,0.0354093,0.0300715,0.0004020,-0.0592901,-0.0426802,-0.0255709,0.0843233,-0.0832997,-0.0113871,-0.0118084,-0.0668871,0.0766990,-0.0119054,0.0653837,-0.0065573,-0.0526623,-0.0022977,-0.0701341,-0.0456662,0.0847023,0.0144211,0.0086281,-0.0393655,0.0186256,0.0019367,0.0640314,-0.0651208,0.0623763,0.0556914,-0.0419807,-0.0288026,0.0041715,0.0750200,0.0585285,0.0318105,-0.0545893,-0.0539716,0.0292047,-0.0509599,0.0215705,-0.0695328,-0.0309179,0.0113404,0.0054910,-0.0524633,-0.0821460,0.0397578,0.0321681,-0.0653510,0.0810207,0.0299413,0.0359992,0.0027197,0.0775049,-0.0323042,-0.0822728,0.0546072,-0.0104959,0.0670326,0.0233694,0.0344525,-0.0486991,-0.0593882,0.0225434,-0.0770998,0.0593514,0.0548832,-0.0441422,0.0016270,-0.0830058,0.0643575,0.0190234,-0.0269946,-0.0112312,-0.0624148,0.0074713,-0.0064481,0.0642722,-0.0472898,0.0151300,0.0583637,0.0695807,-0.0357999,-0.0258458,0.0601565,0.0188250,-0.0211894,0.0278345,-0.0786001,-0.0410859,-0.0357252,0.0427816,-0.0028559,-0.0081843,-0.0216041,0.0069735,-0.0357620,-0.0536500,0.0497604,0.0527942,-0.0497267,0.0271888,-0.0151116,0.0102079,-0.0709716,0.0094028,-0.0692500,0.0095094,-0.0132542,-0.0296106,-0.0622897,-0.0418196,-0.0469590,-0.0111605,0.0192637,-0.0737317,-0.0792646,0.0850035,0.0410320,-0.0709355,-0.0430116,-0.0816223,0.0587752,0.0410616,-0.0028775,-0.0497580,-0.0388940,0.0482897,-0.0164789,-0.0760627,0.0141547,0.0207236,0.0380552,0.0859723,-0.0559977,0.0540128,0.0084460,-0.0383185,-0.0234069,0.0821210,0.0190000,0.0012325,-0.0466278,0.0589701,0.0770012,0.0595651,0.0721675,0.0846657,0.0576395,0.0262704,-0.0731989,-0.0723013,0.0315772,0.0725055,0.0556895,-0.0582294,-0.0641817,-0.0701336,0.0769894,0.0062685,-0.0592672,0.0042150,-0.0599370,0.0657172,0.0032581,-0.0290056,0.0328008,-0.0752250,0.0196050,-0.0775353,-0.0800332,-0.0483241,0.0106264,-0.0397318,-0.0762832,0.0006984,-0.0670958,0.0828135,-0.0015650,0.0774728,0.0221548,0.0121652,-0.0817576,-0.0331971,-0.0022585,0.0608611,-0.0044974,0.0204889,0.0776566,-0.0144372,-0.0601717,-0.0685397,0.0767069,-0.0331796,0.0841066,-0.0069641,0.0247440,0.0299782,0.0047401,-0.0425801,0.0393721,0.0116360,-0.0039751,-0.0369307,0.0588334,0.0066709,0.0506968,0.0786667,0.0025553,-0.0377973,0.0692104,-0.0622191,0.0612970,0.0743820,-0.0084871,-0.0278907,0.0483139,0.0739446,0.0795274,0.0390414,-0.0274217,-0.0675735,0.0574308,-0.0376440,-0.0138239,0.0546082,0.0423211,-0.0760091,-0.0023427,-0.0398680,-0.0316600,-0.0498997,0.0586972,0.0512940,0.0000988,0.0306015,-0.0289643,-0.0361335,0.0223391,0.0605201,0.0129983,0.0046204,0.0852301,-0.0126339,-0.0079268,-0.0101861,0.0464046,-0.0465421,-0.0231706,0.0390028,0.0794284,0.0363368,0.0583585,0.0499301,0.0856219,-0.0423945,0.0176091,0.0410139,-0.0314745,-0.0716627,-0.0857832,0.0237946,-0.0346333,0.0598432,-0.0118405,0.0523946,0.0035156,0.0461243,-0.0706680,-0.0610745,0.0197153,0.0292594,0.0304750,0.0180163,-0.0703037,-0.0643809,-0.0790989,0.0630300,-0.0239938,-0.0153404,0.0151037,-0.0314945,-0.0659328,-0.0134670,-0.0684936,-0.0672400,0.0310676