1.489594131708145142e-01
-4.635032638907432556e-02
1.240049153566360474e-01
1.306682825088500977e-01
1.803115159273147583e-01
-1.325536966323852539e-01
-7.217640429735183716e-02
1.175721734762191772e-01
-9.739901870489120483e-02
2.363569289445877075e-02
-9.851694107055664062e-03
5.650240182876586914e-02
-5.923473834991455078e-02
5.963638424873352051e-03
1.982197314500808716e-01
1.824118942022323608e-01
5.952062085270881653e-02
9.536147117614746094e-02
-1.568318754434585571e-01
4.699110239744186401e-02
-2.118967622518539429e-01
-1.125908270478248596e-01
-1.588314473628997803e-01
1.334216594696044922e-01
-1.504087895154953003e-01
-4.341154918074607849e-02
-1.622571051120758057e-01
-1.713335067033767700e-01
2.187442630529403687e-01
-1.233347952365875244e-01
5.571146495640277863e-03
1.485206484794616699e-01
4.943846166133880615e-02
-8.921807259321212769e-02
6.044083088636398315e-02
1.071960013359785080e-02
-2.676106523722410202e-03
2.072881013154983521e-01
-9.067015349864959717e-02
1.191585436463356018e-01
1.190609019249677658e-02
1.183813810348510742e-01
-4.363872110843658447e-02
1.717206686735153198e-01
-9.479776024818420410e-02
-6.457395851612091064e-02
1.348004639148712158e-01
1.834997981786727905e-01
-1.886459439992904663e-01
1.968084871768951416e-01
1.148545555770397186e-02
-1.812944114208221436e-01
-1.347385495901107788e-01
7.175875455141067505e-02
1.712480336427688599e-01
-6.611075252294540405e-02
-1.908919364213943481e-01
-2.101296484470367432e-01
-1.831041090190410614e-02
-1.913268566131591797e-01
-1.146499142050743103e-01
2.062140256166458130e-01
1.762908548116683960e-01
1.538223326206207275e-01
-1.023117005825042725e-01
1.736959442496299744e-02
-5.465994402766227722e-02
1.140403896570205688e-01
5.494013894349336624e-03
7.341594249010086060e-02
1.376795303076505661e-02
-2.018984556198120117e-01
-2.733840234577655792e-02
1.891987025737762451e-01
1.886146217584609985e-01
9.698332846164703369e-02
-9.432669728994369507e-02
1.048035919666290283e-01
6.153197214007377625e-02
-6.387808173894882202e-02
8.228931576013565063e-02
-1.462365835905075073e-01
-2.597568742930889130e-02
1.666279882192611694e-01
1.442295759916305542e-01
-7.447192817926406860e-02
-1.187767013907432556e-01
1.724171191453933716e-01
-6.560947746038436890e-02
8.173956722021102905e-02
1.997459232807159424e-01
3.866155818104743958e-02
6.887080520391464233e-02
1.571558713912963867e-01
-2.654616348445415497e-02
1.854152828454971313e-01
-4.466585069894790649e-02
1.379242241382598877e-01
8.078052848577499390e-02
1.800870895385742188e-01
