5.945369228720664978e-02
-1.805310696363449097e-02
4.952839389443397522e-02
5.219559371471405029e-02
7.187759131193161011e-02
-5.227390676736831665e-02
-2.833860740065574646e-02
4.694319143891334534e-02
-3.832640871405601501e-02
9.692392311990261078e-03
-3.620408009737730026e-03
2.271459251642227173e-02
-2.319900691509246826e-02
2.639191690832376480e-03
7.893318682909011841e-02
7.266829162836074829e-02
2.390389144420623779e-02
3.808819130063056946e-02
-6.200110912322998047e-02
1.890669204294681549e-02
-8.378580957651138306e-02
-4.441054537892341614e-02
-6.278835982084274292e-02
5.314276367425918579e-02
-5.939853191375732422e-02
-1.691230759024620056e-02
-6.405471265316009521e-02
-6.770250946283340454e-02
8.705148845911026001e-02
-4.867275804281234741e-02
2.557368017733097076e-03
5.927317589521408081e-02
1.989747770130634308e-02
-3.514205291867256165e-02
2.424416318535804749e-02
4.502310417592525482e-03
-8.135830285027623177e-04
8.245595544576644897e-02
-3.579811379313468933e-02
4.746800661087036133e-02
4.946957807987928391e-03
4.723609238862991333e-02
-1.703680865466594696e-02
6.837677210569381714e-02
-3.735997527837753296e-02
-2.535481564700603485e-02
5.380011349916458130e-02
7.312865555286407471e-02
-7.448524236679077148e-02
7.853685319423675537e-02
4.957890603691339493e-03
-7.165703177452087402e-02
-5.323956161737442017e-02
2.866646647453308105e-02
6.815034896135330200e-02
-2.596190758049488068e-02
-7.546310871839523315e-02
-8.315720409154891968e-02
-7.048793137073516846e-03
-7.568285614252090454e-02
-4.520878568291664124e-02
8.211967349052429199e-02
7.031131535768508911e-02
6.143646687269210815e-02
-4.010096192359924316e-02
7.318176329135894775e-03
-2.141718380153179169e-02
4.549642652273178101e-02
2.479541813954710960e-03
2.946949191391468048e-02
5.801402032375335693e-03
-7.981447875499725342e-02
-1.053971145302057266e-02
7.536575943231582642e-02
7.519642263650894165e-02
3.882108256220817566e-02
-3.704524412751197815e-02
4.196602106094360352e-02
2.473863214254379272e-02
-2.495679259300231934e-02
3.301842138171195984e-02
-5.779027193784713745e-02
-1.010400801897048950e-02
6.638848781585693359e-02
5.752924084663391113e-02
-2.921267412602901459e-02
-4.682064056396484375e-02
6.874112039804458618e-02
-2.564385160803794861e-02
3.284962475299835205e-02
7.973855733871459961e-02
1.577708870172500610e-02
2.764549851417541504e-02
6.275451183319091797e-02
-1.008590683341026306e-02
7.400587946176528931e-02
-1.734676398336887360e-02
5.503409355878829956e-02
3.231292590498924255e-02
7.172169536352157593e-02
-2.712584799155592918e-03
-4.902949184179306030e-02
7.862579077482223511e-02
7.332208752632141113e-02
-6.098078563809394836e-02
6.649351865053176880e-02
2.480028010904788971e-02
-1.141639519482851028e-02
2.122636698186397552e-02
-3.772727400064468384e-02
5.006625130772590637e-02
-3.316570818424224854e-02
-8.910481818020343781e-03
-4.734415933489799500e-02
-5.395573005080223083e-02
-3.852236270904541016e-02
1.011203601956367493e-02
-1.422932092100381851e-02
-5.718896538019180298e-02
7.096229493618011475e-02
-6.874053180217742920e-02
-6.462136656045913696e-02
-3.424082824494689703e-04
4.567746073007583618e-02
8.461377769708633423e-02
7.593829184770584106e-02
3.237659111618995667e-02
-2.001569978892803192e-02
4.380781948566436768e-02
-2.245977707207202911e-02
-3.548755869269371033e-02
-4.630017653107643127e-02
1.496156584471464157e-02
-4.416907206177711487e-02
-6.011198088526725769e-02
4.077784344553947449e-02
-6.474060565233230591e-02
5.136741697788238525e-02
-5.808710306882858276e-02
4.291699081659317017e-02
-7.366221398115158081e-02
7.856358587741851807e-02
-7.735130190849304199e-02
4.176428541541099548e-03
-5.591209977865219116e-02
-4.486840963363647461e-02
5.209685862064361572e-02
4.083735868334770203e-02
2.761516906321048737e-02
8.161173760890960693e-02
2.458257600665092468e-02
4.546619206666946411e-02
-7.036751508712768555e-02
-6.316591054201126099e-02
3.822991857305169106e-03
-7.302695512771606445e-02
-7.436208426952362061e-02
-5.088309198617935181e-02
-6.267758086323738098e-03
5.600493773818016052e-02
1.319143455475568771e-02
4.480357840657234192e-02
-7.758423686027526855e-02
-5.918259918689727783e-02
8.722688257694244385e-02
-5.109560862183570862e-02
6.810628622770309448e-02
-6.480611115694046021e-02
8.685579150915145874e-02
-7.723829895257949829e-02
6.475042551755905151e-02
-7.395120710134506226e-02
-8.576871454715728760e-02
7.397009432315826416e-02
1.670908927917480469e-02
-5.525725707411766052e-02
-5.827089399099349976e-02
-1.853898540139198303e-02
7.211652398109436035e-02
5.589089170098304749e-02
-2.418810687959194183e-02
9.434292092919349670e-03
1.411889214068651199e-02
-7.957212626934051514e-03
3.285345435142517090e-02
-6.933376938104629517e-02
5.634036846458911896e-03
4.502716287970542908e-02
-3.372203186154365540e-02
8.588133752346038818e-02
1.366653759032487869e-02
6.594444066286087036e-02
4.338241368532180786e-02
2.272139303386211395e-02
-8.046161383390426636e-02
4.339189082384109497e-02
5.824559181928634644e-02
7.426448911428451538e-02
6.520558893680572510e-02
5.786289274692535400e-02
8.366288989782333374e-02
4.269789159297943115e-02
7.043788582086563110e-02
8.438638597726821899e-02
2.932279184460639954e-02
-1.673081715125590563e-04
-5.811260640621185303e-02
5.768459290266036987e-02
6.793128699064254761e-02
-7.323370873928070068e-02
2.633709274232387543e-02
-4.349530860781669617e-02
2.282039262354373932e-02
-4.678250849246978760e-02
3.518869355320930481e-02
-3.153091669082641602e-02
-2.941805683076381683e-02
-4.632484167814254761e-02
-7.360432296991348267e-02
2.351333573460578918e-02
-4.773584008216857910e-02
2.655792422592639923e-02
2.166699618101119995e-03
8.227749168872833252e-02
-3.793220594525337219e-02
8.318884298205375671e-03
3.841032832860946655e-02
-6.694518029689788818e-02
-4.673208110034465790e-03
1.640969887375831604e-02
7.763939350843429565e-02
-8.071320131421089172e-03
-2.792507410049438477e-02
6.090686470270156860e-02
-1.102822180837392807e-02
-8.610320836305618286e-02
-2.665333449840545654e-02
1.743109151721000671e-02
5.824639275670051575e-02
-4.597006738185882568e-02
3.077360428869724274e-02
-2.685307990759611130e-03
-2.846804913133382797e-03
-3.353872522711753845e-02
3.727974370121955872e-02
-5.468762665987014771e-02
2.165295742452144623e-02
-7.944460213184356689e-02
-1.457317266613245010e-02
3.437092527747154236e-02
3.054154105484485626e-02
2.423919178545475006e-02
-2.627753093838691711e-02
-5.453700944781303406e-02
1.923762075603008270e-02
2.242234349250793457e-02
4.048668220639228821e-02
-2.941722236573696136e-02
4.228898882865905762e-02
-5.133336782455444336e-02
7.357606291770935059e-02
3.252528607845306396e-02
2.707955427467823029e-02
-4.179430752992630005e-02
5.949391983449459076e-03
-7.138231396675109863e-02
-4.134173318743705750e-02
6.590022146701812744e-02
3.264074400067329407e-02
-7.028409093618392944e-02
-6.711627542972564697e-02
-2.358277700841426849e-02
1.369167864322662354e-02
1.650069095194339752e-02
2.921228483319282532e-02
-3.639475628733634949e-02
4.833829775452613831e-02
-3.633461892604827881e-02
-2.930880710482597351e-02
-5.363010615110397339e-02
8.450719714164733887e-02
-8.602503687143325806e-02
5.722977593541145325e-02
-2.893215045332908630e-02
-5.374097824096679688e-02
-1.065139099955558777e-02
7.998158782720565796e-02
7.307943701744079590e-02
4.628047347068786621e-02
3.490094467997550964e-02
-6.542928516864776611e-02
3.274770453572273254e-02
-1.988750696182250977e-02
4.799399152398109436e-02
7.733471691608428955e-02
7.266460359096527100e-02
6.326961517333984375e-02
-5.112587288022041321e-02
5.152818188071250916e-02
8.595205843448638916e-03
-3.497469425201416016e-02
7.064428180456161499e-02
7.148242741823196411e-02
6.533177942037582397e-02
1.215635275002568960e-04
1.361258327960968018e-02
-5.832320824265480042e-02
-3.899810835719108582e-02
6.369438767433166504e-02
-1.021518604829907417e-03
-5.964218173176050186e-03
6.108736246824264526e-02
-2.542209113016724586e-04
-3.604897111654281616e-02
-5.523748695850372314e-02
3.232577070593833923e-02
3.993573784828186035e-02
-6.236660853028297424e-02
1.829671300947666168e-02
-1.029822160489857197e-03
5.909659340977668762e-02
3.929739072918891907e-02
-5.563700944185256958e-02
-4.803074151277542114e-02
1.064569805748760700e-04
-6.538491696119308472e-02
-6.244233623147010803e-02
-2.388801798224449158e-02
-3.008160553872585297e-02
7.547669112682342529e-02
7.139432430267333984e-02
2.156227268278598785e-02
5.888750404119491577e-02
5.561428517103195190e-02
-3.732081968337297440e-04
-2.838220819830894470e-02
-1.806280761957168579e-02
2.791542746126651764e-02
1.928212307393550873e-02
-4.149905592203140259e-02
-6.017179042100906372e-02
-7.384072989225387573e-02
-6.773335486650466919e-02
2.601031586527824402e-02
-2.335267327725887299e-02
-3.649920225143432617e-02
-2.901086583733558655e-02
-7.077290862798690796e-02
-1.232540793716907501e-02
7.584978640079498291e-02
1.483869180083274841e-02
-4.047451540827751160e-02
2.789321541786193848e-02
4.583105444908142090e-02
-1.852207235060632229e-03
-5.917532742023468018e-02
6.701838970184326172e-02
2.220345102250576019e-02
3.347630379721522331e-03
-5.051612481474876404e-02
1.030949410051107407e-02
-1.252150814980268478e-02
5.767189338803291321e-02
-1.805220730602741241e-02
-4.414160922169685364e-02
-2.994756214320659637e-02
4.016726091504096985e-02
2.440138719975948334e-02
8.458337932825088501e-02
-2.784780226647853851e-02
6.940937787294387817e-02
-6.296427547931671143e-02
-1.521040219813585281e-02
-8.568808436393737793e-02
4.956161975860595703e-02
4.801359400153160095e-02
-3.556150943040847778e-02
-6.668391078710556030e-02
6.386049091815948486e-02
3.873299062252044678e-02
-7.807276397943496704e-02
-8.539208211004734039e-03
8.488558977842330933e-02
3.645599260926246643e-02
-4.995610937476158142e-02
-4.229408223181962967e-03
6.379215419292449951e-02
-7.029121369123458862e-02
-6.931061297655105591e-02
-2.005020715296268463e-02
-3.415580838918685913e-02
2.762589231133460999e-02
5.404809117317199707e-02
-6.372231245040893555e-02
-7.766471058130264282e-02
-7.733190804719924927e-02
-7.042208220809698105e-03
4.914059117436408997e-02
3.370339050889015198e-02
-9.677107445895671844e-03
-6.591141223907470703e-02
1.589339226484298706e-02
1.398059260100126266e-02
5.507491528987884521e-03
1.683369278907775879e-02
-2.369760721921920776e-02
-3.371730819344520569e-02
6.789208948612213135e-02
-3.761708270758390427e-03
-5.709520727396011353e-02
1.938659138977527618e-02
4.784246440976858139e-03
2.105738967657089233e-02
1.715108379721641541e-02
-4.592540115118026733e-02
5.761179700493812561e-02
-7.447510212659835815e-02
-6.943611055612564087e-02
7.397710531949996948e-02
-5.712490901350975037e-02
-2.866508206352591515e-03
-4.743726551532745361e-02
5.710576102137565613e-02
-3.608978912234306335e-02
-2.454661391675472260e-02
6.612525135278701782e-02
-2.666904404759407043e-02
5.514983087778091431e-02
2.815725654363632202e-02
-8.022652566432952881e-02
-4.194262623786926270e-02
4.865488037467002869e-02
2.220772020518779755e-02
5.874369293451309204e-02
-3.304430842399597168e-02
-4.822492972016334534e-02
-5.222315713763237000e-02
1.982132904231548309e-02
-6.750459969043731689e-02
3.076092898845672607e-02
4.944751411676406860e-02
3.856145218014717102e-02
-5.183988064527511597e-02
-1.686585322022438049e-02
-3.172902390360832214e-02
-1.113259140402078629e-02
-4.645835980772972107e-02
-1.955430768430233002e-02
6.010842043906450272e-03
-5.975813046097755432e-02
9.914131835103034973e-03
-8.402171730995178223e-02
-2.041105367243289948e-02
-2.007073163986206055e-02
-3.340575844049453735e-02
4.160223156213760376e-02
-4.139361530542373657e-02
2.631768584251403809e-02
9.427495300769805908e-03
7.323069870471954346e-02
3.264825791120529175e-02
5.416799336671829224e-02
3.469506651163101196e-02
-3.242876380681991577e-02
2.568094991147518158e-02
-8.545842021703720093e-02
6.140572018921375275e-03
6.015035510063171387e-02
2.082548290491104126e-02
2.506303228437900543e-02
3.419247455894947052e-03
-1.685433834791183472e-02
-2.352725714445114136e-02
3.828504681587219238e-02
5.279649049043655396e-02
3.122349269688129425e-02
-6.004586443305015564e-02
-8.094923943281173706e-02
-7.549043744802474976e-02
3.269555047154426575e-02
-5.396300554275512695e-02
2.088527940213680267e-02
3.501133620738983154e-02
1.203245949000120163e-02
-8.650541305541992188e-02
-8.550182729959487915e-02
-3.339521959424018860e-02
-4.125273600220680237e-02
2.732129208743572235e-02
6.247319281101226807e-02
-5.512350797653198242e-02
-2.731190994381904602e-02
2.945207618176937103e-02
6.635001301765441895e-02
2.697819657623767853e-02
-3.223153948783874512e-02
6.722304970026016235e-02
-5.429874360561370850e-02
-5.928064882755279541e-02
1.035450259223580360e-03
5.756008997559547424e-02
3.074728883802890778e-02
7.057759165763854980e-02
-5.339350923895835876e-02
-1.803782582283020020e-02
3.612496703863143921e-02
6.456131488084793091e-02
8.736318908631801605e-03
4.173072054982185364e-02
7.551112771034240723e-02
-4.608719423413276672e-02
7.457346469163894653e-02
9.324407204985618591e-03
7.575105875730514526e-02
-6.306149880401790142e-04
9.388152509927749634e-03
7.665664702653884888e-02
5.240519344806671143e-02
5.492489039897918701e-02
1.672507449984550476e-02
2.771968394517898560e-02
8.660099655389785767e-02
7.602663338184356689e-02
-3.014534525573253632e-02
6.545524299144744873e-02
1.584631204605102539e-02
2.426873706281185150e-02
4.549843072891235352e-02
4.813465848565101624e-02
5.158273503184318542e-02
-4.093243181705474854e-02
1.845639199018478394e-02
-4.808408208191394806e-03
-5.760791897773742676e-02
5.171554163098335266e-02
6.389057636260986328e-02
6.519462168216705322e-02
2.895866334438323975e-02
-1.482755318284034729e-02
1.981680095195770264e-02
1.718647405505180359e-02
2.560875378549098969e-02
7.018009666353464127e-03
-6.082941591739654541e-02
1.404779218137264252e-02
-8.088891208171844482e-02
3.523919358849525452e-02
3.435847349464893341e-03
5.810991302132606506e-02
2.896025776863098145e-03
-6.717204302549362183e-02
-1.504969783127307892e-03
2.088910900056362152e-03
-7.829490303993225098e-02
5.490085110068321228e-02
-1.973565667867660522e-02
2.424871921539306641e-02
-8.014608174562454224e-03
-6.158740818500518799e-02
-1.480280794203281403e-02
-4.367120936512947083e-02
-1.589446701109409332e-02
-8.355039358139038086e-02
3.820025175809860229e-02
1.321088243275880814e-02
5.470519140362739563e-02
1.465670578181743622e-02
-8.953126147389411926e-03
-3.626330988481640816e-03
8.641651272773742676e-02
-7.640741765499114990e-02
-7.370901107788085938e-02
2.478269301354885101e-02
1.722219213843345642e-02
-4.791860654950141907e-02
-4.842581972479820251e-02
2.293853461742401123e-02
7.394048571586608887e-02
4.167689383029937744e-02
-6.149108055979013443e-03
-1.037226989865303040e-02
6.125604361295700073e-02
7.899113744497299194e-02
7.835619151592254639e-02
6.969309598207473755e-02
4.673179239034652710e-02
-2.862610854208469391e-02
6.697291973978281021e-03
-4.852120950818061829e-02
-3.593608271330595016e-03
7.851428538560867310e-02
-5.572608206421136856e-03
6.712608784437179565e-02
8.154928684234619141e-02
-5.467070639133453369e-02
-6.986008025705814362e-03
4.902849346399307251e-02
4.663339257240295410e-02
7.068388909101486206e-02
-4.183650761842727661e-02
4.579279199242591858e-02
8.089338988065719604e-02
-2.892570756375789642e-02
-1.666300743818283081e-02
1.087719202041625977e-02
9.775592014193534851e-03
2.154899202287197113e-02
-5.340928956866264343e-02
-3.466418245807290077e-03
-2.387624792754650116e-02
2.727387472987174988e-02
7.286995649337768555e-02
-4.995144158601760864e-02
1.879675686359405518e-02
6.382677704095840454e-02
-6.753411144018173218e-02
-2.167410776019096375e-02
-5.203777551651000977e-02
2.576368860900402069e-02
1.638328470289707184e-02
3.096905909478664398e-02
1.705848798155784607e-02
-7.626809924840927124e-02
1.115540321916341782e-02
1.161661744117736816e-02
-4.428277909755706787e-02
-8.330804109573364258e-02
-2.684797346591949463e-02
-8.507695049047470093e-02
7.397168874740600586e-02
1.794319227337837219e-02
4.733479395508766174e-02
6.758905947208404541e-02
7.558386027812957764e-02
-5.653474479913711548e-02
-8.614533580839633942e-03
-1.564438687637448311e-03
5.192018300294876099e-02
2.471283823251724243e-02
8.145289123058319092e-02
-5.955835804343223572e-02
-3.561093658208847046e-02
6.674987077713012695e-02
-2.298290841281414032e-02
6.974668055772781372e-02
4.330987855792045593e-02
-3.953088074922561646e-03
-3.917729854583740234e-02
7.811306416988372803e-02
-6.511755287647247314e-02
6.412494182586669922e-02
2.193322964012622833e-02
3.846147283911705017e-02
7.432732731103897095e-02
-5.446518212556838989e-02
-3.744033724069595337e-02
-5.751235783100128174e-02
-5.133060738444328308e-02
2.222315967082977295e-02
-5.604057013988494873e-02
-6.463943421840667725e-02
-4.695117101073265076e-02
7.822491973638534546e-02
-8.399394899606704712e-02
-5.851196125149726868e-02
-6.568646430969238281e-02
-6.292918231338262558e-03
2.631677128374576569e-02
7.276398688554763794e-02
-6.897308677434921265e-02
2.025461196899414062e-02
-7.435291260480880737e-02
-1.818156801164150238e-02
-3.830473287962377071e-04
-1.070303283631801605e-02
-3.546709567308425903e-02
-4.399588704109191895e-02
7.211222499608993530e-02
1.176526583731174469e-02
-5.352777242660522461e-02
-8.070902526378631592e-02
-1.143524982035160065e-02
5.517905205488204956e-02
4.448939114809036255e-02
-2.455205284059047699e-02
8.688548952341079712e-02
-8.042751997709274292e-02
4.345335066318511963e-03
-5.160357430577278137e-02
2.863397076725959778e-02
3.518356010317802429e-02
-2.965367957949638367e-02
6.794823706150054932e-02
2.573641948401927948e-02
-2.728505060076713562e-02
-7.776493579149246216e-02
4.690445959568023682e-02
5.315545573830604553e-02
3.492427244782447815e-02
3.193789348006248474e-02
7.057664543390274048e-02
-3.224860504269599915e-02
4.432142153382301331e-02
-3.458679094910621643e-02
5.416759848594665527e-02
-5.366753786802291870e-02
1.613900810480117798e-02
-7.732077687978744507e-02
-6.897424906492233276e-02
-5.915324017405509949e-02
-4.397085309028625488e-02
-6.292722374200820923e-02
1.584228314459323883e-02
-7.652701437473297119e-02
6.803628802299499512e-02
7.776338607072830200e-02
-7.673976570367813110e-02
7.448089867830276489e-02
-4.901876673102378845e-03
-4.174381494522094727e-02
1.557456981390714645e-02
-5.710211396217346191e-02
1.513424608856439590e-02
-3.669936442747712135e-03
5.515244603157043457e-02
7.441181689500808716e-02
4.921990446746349335e-03
1.460919249802827835e-02
4.019199311733245850e-02
-4.747280478477478027e-02
-4.059242457151412964e-02
2.374670840799808502e-02
7.119303103536367416e-03
-8.351763337850570679e-02
7.552731037139892578e-02
-2.601055428385734558e-02
-5.081658437848091125e-02
4.217959940433502197e-03
-1.692367717623710632e-02
-3.321617469191551208e-02
3.158709406852722168e-02
2.554199285805225372e-02
-9.541708044707775116e-03
-3.986857831478118896e-02
3.565388917922973633e-02
-2.865451946854591370e-02
-4.924546554684638977e-02
4.550490900874137878e-02
-4.162590950727462769e-02
3.226489201188087463e-02
-8.384626358747482300e-02
6.029786169528961182e-02
6.155503541231155396e-02
1.782769151031970978e-02
-3.072830848395824432e-02
2.951059304177761078e-02
4.973891656845808029e-03
6.079457327723503113e-02
-4.314767569303512573e-02
-4.199681431055068970e-02
-7.380089908838272095e-02
2.864433452486991882e-03
6.811562925577163696e-02
1.969395764172077179e-02
5.687718745321035385e-03
5.616280063986778259e-02
8.009336888790130615e-02
4.146969318389892578e-02
-2.681960724294185638e-02
-2.404090762138366699e-02
-7.898481190204620361e-02
-8.247101306915283203e-02
-8.574189990758895874e-02
-1.917344983667135239e-03
-3.570799902081489563e-02
3.650974854826927185e-02
5.596556887030601501e-02
1.597491791471838951e-03
-5.351652856916189194e-03
-7.302334159612655640e-02
-5.342090502381324768e-02
-2.533608349040150642e-03
7.391748577356338501e-02
-7.907531410455703735e-02
-7.239674031734466553e-02
-4.450163990259170532e-02
3.660266101360321045e-02
1.919705793261528015e-02
-7.092803716659545898e-02
8.010376244783401489e-02
6.374435871839523315e-02
-5.819544196128845215e-02
-4.324941895902156830e-03
4.458745941519737244e-02
4.810335859656333923e-02
-8.585873991250991821e-02
1.352425850927829742e-02
4.096775874495506287e-02
4.223085939884185791e-02
7.332445681095123291e-02
-7.031164318323135376e-02
4.986586049199104309e-02
7.747335731983184814e-02
-6.942903995513916016e-02
-3.927924111485481262e-02
-4.546301066875457764e-02
5.371012166142463684e-02
-7.054474204778671265e-02
4.275253415107727051e-02
-3.887644037604331970e-02
-5.694254115223884583e-02
7.595705986022949219e-02
4.520985856652259827e-02
-7.026305794715881348e-02
8.350147306919097900e-02
5.988726392388343811e-02
-2.769146673381328583e-02
3.332099318504333496e-02
-7.696974091231822968e-03
-1.154166832566261292e-02
2.663863264024257660e-02
-3.074824623763561249e-02
1.732695661485195160e-02
-6.447938829660415649e-02
-7.294687628746032715e-02
-2.135434187948703766e-02
-6.326133757829666138e-02
2.765197306871414185e-02
-6.717166304588317871e-02
6.603837758302688599e-02
1.418887823820114136e-02
-5.041399970650672913e-02
2.911871485412120819e-02
4.866618663072586060e-03
-3.278780728578567505e-02
7.689955085515975952e-02
4.647823050618171692e-02
-6.584913283586502075e-02
-8.042075484991073608e-02
2.453558379784226418e-03
-1.765064150094985962e-02
-5.029508844017982483e-02
-8.376474492251873016e-03
-5.923555046319961548e-02
-3.349481150507926941e-02
-1.167232356965541840e-02
-8.614646643400192261e-02
2.587207965552806854e-02
-6.515234708786010742e-02
-6.784815341234207153e-03
-7.244900614023208618e-02
4.857811331748962402e-02
4.956608265638351440e-02
3.196445852518081665e-02
7.117734104394912720e-02
6.369038671255111694e-02
-7.617785781621932983e-02
-7.887723296880722046e-02
4.548721015453338623e-03
-5.629888176918029785e-02
7.422308623790740967e-02
-6.805194169282913208e-02
-1.963431388139724731e-02
1.656497828662395477e-02
2.391522936522960663e-02
3.468767181038856506e-02
6.709157954901456833e-03
-1.637884229421615601e-02
5.590918660163879395e-02
1.335486210882663727e-02
7.314445823431015015e-02
-4.852527379989624023e-02
5.013584718108177185e-02
-2.203226275742053986e-02
-2.068484388291835785e-02
-7.012655586004257202e-02
5.338725820183753967e-02
-1.975055597722530365e-02
4.283748939633369446e-02
7.534226030111312866e-02
6.058054789900779724e-02
5.748425796627998352e-02
3.713067620992660522e-02
2.335224114358425140e-02
2.652466529980301857e-03
2.151420898735523224e-02
2.599035506136715412e-04
1.354078017175197601e-02
2.971028536558151245e-02
-8.196768164634704590e-02
4.434511438012123108e-02
1.717927120625972748e-02
-6.291250139474868774e-02
-6.205117702484130859e-02
-5.301622301340103149e-02
4.808695986866950989e-02
5.970981717109680176e-02
4.075777158141136169e-02
-5.509475246071815491e-02
2.882348932325839996e-02
-3.266862779855728149e-02
-6.872915476560592651e-02
6.737349927425384521e-02
-6.931497156620025635e-02
-3.672824939712882042e-03
-4.008485376834869385e-02
-5.236031487584114075e-02
-3.705487772822380066e-02
2.726246416568756104e-02
7.757166028022766113e-02
-4.849004000425338745e-02
1.054437016136944294e-03
4.825586453080177307e-02
7.570359110832214355e-02
-6.237243488430976868e-02
-3.585136309266090393e-02
1.046975143253803253e-02
2.497459761798381805e-02
6.475183367729187012e-02
-4.661045968532562256e-02
3.009792044758796692e-02
2.234341949224472046e-02
5.767409130930900574e-02
5.427395924925804138e-02
4.737246036529541016e-02
-8.212553709745407104e-02
1.556540746241807938e-02
2.029234357178211212e-02
4.571327939629554749e-02
4.756515473127365112e-02
-3.765947371721267700e-02
-7.375334203243255615e-02
6.589472293853759766e-02
-5.705437809228897095e-02
-5.595786124467849731e-02
-2.452056854963302612e-02
-1.004564110189676285e-02
-2.123034186661243439e-02
2.550485730171203613e-02
-6.956949084997177124e-02
-3.045793808996677399e-02
6.406187266111373901e-02
1.853718981146812439e-02
-6.898596137762069702e-02
5.299672856926918030e-02
4.324588179588317871e-02
-1.776174083352088928e-02
-2.331146039068698883e-02
-1.853735372424125671e-02
-3.974993899464607239e-02
1.718085817992687225e-02
-7.520904392004013062e-02
6.966946274042129517e-02
-1.193531695753335953e-02
6.612493097782135010e-02
3.023848496377468109e-02
-7.004108279943466187e-03
-5.092388484627008438e-03
-3.624298796057701111e-02
-4.806537553668022156e-02
-4.430420324206352234e-02
1.319041661918163300e-02
-3.471178933978080750e-02
-6.515224277973175049e-02
4.322465881705284119e-02
-3.593241795897483826e-03
-2.600541803985834122e-03
-5.361274629831314087e-02
6.223939731717109680e-02
-6.389155238866806030e-02
-3.611032664775848389e-02
-5.498589575290679932e-02
-8.658235520124435425e-02
6.953267008066177368e-02
-3.687749430537223816e-02
5.350787565112113953e-02
2.601795829832553864e-02
3.245995938777923584e-02
-5.657523870468139648e-02
-7.929564267396926880e-02
7.978235930204391479e-02
4.767785966396331787e-02
-6.743253767490386963e-02
6.266576051712036133e-02
-5.103893950581550598e-02
8.577696233987808228e-02
6.135657895356416702e-03
2.904915809631347656e-02
-6.083041895180940628e-03
5.697735771536827087e-02
6.806556135416030884e-02
3.669846057891845703e-02
-1.661324314773082733e-02
-5.343193933367729187e-02
5.861845985054969788e-02
-6.017453968524932861e-02
3.004705719649791718e-02
-3.076794184744358063e-02
-2.670934237539768219e-02
5.509488750249147415e-03
-7.580740842968225479e-03
2.425360120832920074e-02
3.758748993277549744e-02
-7.102685049176216125e-03
6.998732220381498337e-03
-8.606373518705368042e-02
-4.035944491624832153e-02
-5.375574156641960144e-02
3.347586095333099365e-02
-9.864087216556072235e-03
-4.598494991660118103e-02
2.646676450967788696e-02
-4.897778853774070740e-02
-2.634920924901962280e-02
2.334767952561378479e-03
-1.296203676611185074e-02
-2.737781777977943420e-02
-7.832706719636917114e-02
-7.070213556289672852e-02
5.362774431705474854e-02
6.575009971857070923e-02
8.446385711431503296e-02
3.553258255124092102e-03
-3.765188530087471008e-02
-5.576640740036964417e-02
-2.462259680032730103e-02
-1.076785009354352951e-02
6.134234368801116943e-02
3.166294470429420471e-02
4.957904294133186340e-02
-1.994488947093486786e-02
-6.270130723714828491e-02
-1.294191461056470871e-02
-6.911476701498031616e-02
1.731100678443908691e-02
8.116935938596725464e-02
-6.808301806449890137e-02
6.402181833982467651e-02
-5.938394740223884583e-02
5.245925113558769226e-02
-3.264020755887031555e-02
-1.830428838729858398e-02
-7.878252305090427399e-03
5.464610643684864044e-03
4.243827983736991882e-02
8.156628161668777466e-02
7.958860695362091064e-02
-7.168745994567871094e-02
-8.350674062967300415e-02
-7.784503698348999023e-02
6.902892142534255981e-02
6.931107491254806519e-02
-8.017990738153457642e-02
-1.420706138014793396e-02
-5.512892827391624451e-02
-4.886462911963462830e-02
4.824495688080787659e-02
2.119696699082851410e-02
-7.427988201379776001e-02
-6.853901315480470657e-03
-1.599137112498283386e-02
-7.118614390492439270e-03
1.756025850772857666e-02
5.819195881485939026e-02
1.086318586021661758e-02
-5.192029103636741638e-02
5.255983397364616394e-02
2.984731644392013550e-02
-7.469116151332855225e-02
8.025698363780975342e-02
-4.473170731216669083e-03
-2.024075202643871307e-02
-2.481187321245670319e-02
7.473857700824737549e-02
7.231089472770690918e-02
-6.913230568170547485e-02
6.955596059560775757e-02
6.515876203775405884e-02
-5.373189970850944519e-02
7.311668246984481812e-02
7.437331974506378174e-02
-7.150295376777648926e-02
5.562948808073997498e-02
8.128096908330917358e-02
1.375243533402681351e-03
-8.626926690340042114e-02
-5.436788499355316162e-02
-3.717641159892082214e-02
2.200865186750888824e-02
-4.154521971940994263e-02
4.309165850281715393e-02
-8.072713762521743774e-02
3.842255845665931702e-02
-2.613668143749237061e-02
6.453111022710800171e-02
-3.751357272267341614e-02
9.007168002426624298e-03
3.031990863382816315e-02
7.942751049995422363e-02
2.141453698277473450e-02
2.379251085221767426e-02
-1.185180526226758957e-02
-8.559396117925643921e-02
8.609922975301742554e-02
-2.383524179458618164e-02
7.381956279277801514e-02
-6.981074064970016479e-02
-4.106564819812774658e-02
5.218851193785667419e-02
-3.648163378238677979e-02
-5.474355816841125488e-02
3.977641835808753967e-02
-2.090234681963920593e-02
-8.588883280754089355e-02
3.426623344421386719e-02
6.754803657531738281e-02
-8.504413813352584839e-02
6.702630221843719482e-02
-5.635144189000129700e-02
2.405765838921070099e-02
-6.130123883485794067e-02
7.381033897399902344e-02
3.039590641856193542e-02
6.417649239301681519e-02
-3.913330286741256714e-02
8.126116357743740082e-03
-6.011729687452316284e-02
5.696205794811248779e-02
-4.832715541124343872e-02
-6.745366752147674561e-02
-8.371450006961822510e-03
6.258215755224227905e-02
7.816858589649200439e-03
-6.880141794681549072e-03
6.189395859837532043e-02
7.105191051959991455e-02
-1.985679194331169128e-02
7.913959026336669922e-02
-5.681640282273292542e-02
-5.446369200944900513e-02
-4.411731660366058350e-02
-2.445835620164871216e-02
7.242202758789062500e-02
2.208089083433151245e-02
-2.324778400361537933e-02
1.993595808744430542e-02
2.880358370020985603e-03
-2.121494151651859283e-02
1.759581937221810222e-04
3.359906747937202454e-02
-8.394807577133178711e-02
2.593749202787876129e-02
2.062322758138179779e-02
3.353482112288475037e-02
3.357990179210901260e-03
6.859248131513595581e-02
-4.510300606489181519e-02
3.033532574772834778e-02
3.879726305603981018e-02
-6.333741825073957443e-03
4.996826127171516418e-02
-5.635914206504821777e-02
-3.053754195570945740e-02
-2.900084294378757477e-02
2.383288927376270294e-02
-5.542954057455062866e-02
-4.473293945193290710e-02
-8.279964327812194824e-02
-6.306003779172897339e-02
-1.445804163813591003e-02
-5.016960948705673218e-02
-2.008784189820289612e-02
4.815945774316787720e-02
-6.452924013137817383e-02
-8.478403836488723755e-02
-6.187213957309722900e-02
4.247896000742912292e-02
5.168658215552568436e-03
3.985158167779445648e-03
-4.413104057312011719e-02
-4.801614210009574890e-02
7.114258129149675369e-03
6.888826191425323486e-02
5.968375876545906067e-02
-4.613994061946868896e-02
-1.454324182122945786e-02
4.149015992879867554e-02
-4.167941864579916000e-03
-7.099144160747528076e-02
-6.499041803181171417e-03
7.657056301832199097e-02
6.604906171560287476e-02
2.421415783464908600e-02
-4.075293987989425659e-02
-4.973784089088439941e-02
-3.873920068144798279e-02
-9.116177447140216827e-03
-7.412191946059465408e-03
-3.447731211781501770e-02
1.489256788045167923e-02
6.520272791385650635e-02
2.438458381220698357e-03
8.188614249229431152e-02
2.658925764262676239e-02
2.498145774006843567e-02
8.416864275932312012e-02
5.178511887788772583e-02
-1.933433115482330322e-02
2.548947697505354881e-03
-3.102322854101657867e-02
2.359846606850624084e-02
4.159643873572349548e-02
6.315258145332336426e-02
5.696087144315242767e-03
1.449182257056236267e-02
-6.976009160280227661e-02
7.824655622243881226e-02
-3.078484162688255310e-02
1.315345894545316696e-02
-7.953878492116928101e-02
4.977964982390403748e-02
2.928228350356221199e-03
7.357235997915267944e-02
-1.280380971729755402e-02
4.923813790082931519e-02
-6.295493990182876587e-02
3.554372116923332214e-02
-4.664806276559829712e-02
1.673450693488121033e-02
-8.569534122943878174e-02
5.533560737967491150e-02
-4.829442128539085388e-03
3.805919550359249115e-03
5.042478814721107483e-02
-6.503364443778991699e-02
-5.799724161624908447e-02
4.781325906515121460e-02
7.382386922836303711e-02
9.746922180056571960e-03
-3.639295697212219238e-02
-4.395700991153717041e-02
-5.342986434698104858e-02
-8.157941699028015137e-02
-6.756671518087387085e-02
3.937025740742683411e-02
2.000605687499046326e-02
-5.025486648082733154e-02
3.081916272640228271e-02
7.629057765007019043e-02
4.996513575315475464e-02
3.836411610245704651e-02
3.928520902991294861e-02
-3.387667983770370483e-02
2.517876215279102325e-02
-6.027306616306304932e-02
-7.142238318920135498e-02
4.931557551026344299e-02
6.235488131642341614e-02
-3.096914291381835938e-02
-2.072754316031932831e-02
6.371740996837615967e-02
-6.243346258997917175e-02
6.150664761662483215e-02
-1.927022449672222137e-02
7.507519423961639404e-02
8.356126397848129272e-02
9.810925461351871490e-03
3.610777482390403748e-02
7.058836519718170166e-02
-6.724353879690170288e-02
-8.706237375736236572e-02
-6.012912094593048096e-02
-3.356514126062393188e-02
-8.156914263963699341e-02
-4.063764214515686035e-02
-8.099161833524703979e-02
2.549939230084419250e-02
-3.836194053292274475e-03
3.691243380308151245e-02
1.501264236867427826e-02
-4.063592106103897095e-02
-1.150685735046863556e-02
-3.250432386994361877e-02
1.255137473344802856e-02
-7.309401035308837891e-02
-5.667418707162141800e-03
2.823945693671703339e-02
6.329306215047836304e-02
-3.011424280703067780e-02
8.433961868286132812e-02
-4.421980306506156921e-02
-5.318208411335945129e-02
-6.484530121088027954e-02
-6.948759406805038452e-02
1.462613791227340698e-02
-7.657776772975921631e-02
-7.273459434509277344e-02
-6.234048306941986084e-02
4.664074257016181946e-02
8.497182279825210571e-02
-4.247972741723060608e-02
4.664586111903190613e-02
-6.195534020662307739e-02
1.102378126233816147e-02
5.213995277881622314e-02
-1.553557813167572021e-02
1.711335964500904083e-02
-9.141880087554454803e-03
6.771969795227050781e-02
-3.276072070002555847e-02
-8.092337101697921753e-02
-5.967468395829200745e-02
4.284990578889846802e-02
-2.629807032644748688e-02
3.996184468269348145e-02
5.681535974144935608e-02
5.509985983371734619e-02
-1.858851127326488495e-02
3.331017121672630310e-02
-6.181547790765762329e-02
-2.103942073881626129e-02
7.616114616394042969e-02
-2.791748754680156708e-02
1.178153557702898979e-03
-8.011149615049362183e-02
7.381934672594070435e-02
1.169307529926300049e-02
-6.574614346027374268e-02
-7.531814277172088623e-02
-2.845584228634834290e-02
-6.756444275379180908e-02
-3.073318488895893097e-02
-6.860702484846115112e-02
-4.245442897081375122e-02
6.737528741359710693e-02
7.062591612339019775e-02
2.911268547177314758e-02
-2.274975879117846489e-03
-2.529605105519294739e-02
1.005439460277557373e-02
5.203847959637641907e-02
-1.911314204335212708e-02
3.744496032595634460e-02
8.090758696198463440e-03
4.166115820407867432e-02
-9.377637878060340881e-03
-2.188426069915294647e-02
9.969675913453102112e-03
5.911380797624588013e-02
-7.533098012208938599e-02
3.525397926568984985e-02
-4.870651662349700928e-02
-8.595582097768783569e-02
-7.943613082170486450e-02
3.954877704381942749e-02
-7.898563891649246216e-02
8.143285661935806274e-02
-3.554563969373703003e-02
-5.765954032540321350e-02
-8.067601919174194336e-02
2.306687831878662109e-02
-3.815164044499397278e-02
-2.432444319128990173e-02
4.154706001281738281e-02
6.473041605204343796e-03
-4.373764246702194214e-02
2.538136392831802368e-02
-5.120883882045745850e-02
4.104388877749443054e-02
-8.668813854455947876e-02
4.591615870594978333e-02
6.294858176261186600e-03
-1.872904226183891296e-02
-3.424841677770018578e-03
-7.240033894777297974e-02
-6.385383754968643188e-02
7.426825910806655884e-02
-7.207941729575395584e-03
3.319336101412773132e-02
4.659065976738929749e-02
4.520957823842763901e-03
-1.834334246814250946e-02
8.495745807886123657e-02
5.638057831674814224e-03
-1.071244105696678162e-02
3.771945834159851074e-02
1.372475828975439072e-02
-1.606554165482521057e-02
-8.461213856935501099e-02
4.313746094703674316e-02
-9.664541110396385193e-03
2.553064189851284027e-02
-8.180506527423858643e-02
5.306901782751083374e-02
-1.973034814000129700e-02
1.171985361725091934e-02
-7.745908945798873901e-02
-8.111751079559326172e-02
4.760431870818138123e-02
5.067766085267066956e-02
-8.072364330291748047e-02
6.734271999448537827e-03
-2.981896698474884033e-02
-1.239172648638486862e-02
-8.348233252763748169e-02
-1.516129728406667709e-02
1.080493349581956863e-02
7.782299816608428955e-02
6.467901915311813354e-02
-4.279557615518569946e-02
3.763939440250396729e-02
-1.756791584193706512e-02
2.596493437886238098e-02
3.584466129541397095e-02
7.516816258430480957e-02
-7.153421640396118164e-02
-1.323249470442533493e-02
2.092278795316815376e-03
-5.374426255002617836e-04
-1.079921051859855652e-02
-4.158712178468704224e-02
7.684110105037689209e-02
-7.206314057111740112e-02
-3.631728887557983398e-02
4.315183311700820923e-02
-4.668435547500848770e-03
6.254546344280242920e-02
5.282115936279296875e-02
1.309969229623675346e-03
2.335543744266033173e-02
1.669692806899547577e-02
7.641427218914031982e-03
-5.670244246721267700e-02
7.393028587102890015e-02
8.231500536203384399e-02
-5.310980975627899170e-02
-2.798184193670749664e-02
6.359711755067110062e-03
-6.202897429466247559e-02
-5.003675818443298340e-02
5.071605741977691650e-02
6.275156140327453613e-02
1.950677670538425446e-02
-1.010721828788518906e-02
1.179368887096643448e-02
7.872394286096096039e-03
5.436134524643421173e-03
8.562233299016952515e-02
-7.681506872177124023e-02
-8.187157660722732544e-02
-1.191538292914628983e-02
-3.129781037569046021e-02
8.208338171243667603e-02
3.150988835841417313e-03
1.954087987542152405e-02
3.851886093616485596e-02
8.558312058448791504e-02
-4.711518064141273499e-03
4.534468520432710648e-03
8.194759720936417580e-05
-6.813821196556091309e-02
-6.555920094251632690e-02
-7.904150336980819702e-02
-3.774420171976089478e-02
-7.837172597646713257e-02
-8.349530398845672607e-02
-3.749112598598003387e-03
-1.923181489109992981e-02
1.002392545342445374e-02
2.136335708200931549e-02
1.783331669867038727e-02
-2.604890801012516022e-02
-2.693158108741044998e-03
-4.947739839553833008e-02
5.091867595911026001e-02
-7.767123728990554810e-02
4.550011456012725830e-02
-3.040080890059471130e-02
-7.880586385726928711e-02
5.576762929558753967e-02
-2.518701925873756409e-02
-3.598806215450167656e-03
-6.223466247320175171e-02
-2.981924265623092651e-02
8.665294200181961060e-02
4.437927901744842529e-02
-7.810452580451965332e-02
8.543146401643753052e-02
-4.709929600358009338e-02
1.352555025368928909e-02
-1.227593515068292618e-03
-2.815670333802700043e-02
3.503381088376045227e-02
6.794227287173271179e-03
2.120812609791755676e-02
4.382845759391784668e-02
1.046995818614959717e-02
-6.926173716783523560e-02
-6.217154115438461304e-02
-6.628154218196868896e-02
3.916233032941818237e-02
4.271512106060981750e-02
-5.264969076961278915e-03
-5.031595751643180847e-02
8.033105731010437012e-02
-4.112532734870910645e-02
-4.092089459300041199e-02
3.906717896461486816e-02
1.560088247060775757e-02
-3.255992010235786438e-02
8.134650066494941711e-03
7.753866165876388550e-02
5.092835798859596252e-02
3.297396004199981689e-02
-3.908314183354377747e-02
5.076258629560470581e-02
-9.459726512432098389e-03
-3.012627549469470978e-02
4.942301660776138306e-02
3.052216582000255585e-02
7.048874348402023315e-02
-3.854877501726150513e-02
-8.435717225074768066e-02
1.883864030241966248e-02
5.538265779614448547e-02
2.396875806152820587e-02
-2.411564253270626068e-02
-2.093609981238842010e-02
4.176110774278640747e-02
7.517900667153298855e-04
-1.734675170155242085e-04
-5.866710096597671509e-03
-4.328981414437294006e-02
8.167793601751327515e-02
3.093107976019382477e-02
-4.969532042741775513e-02
-4.618214815855026245e-02
7.717105746269226074e-02
7.650005817413330078e-02
5.651636049151420593e-02
-4.217214137315750122e-02
-2.155885333195328712e-03
4.726133868098258972e-02
-7.804195582866668701e-02
-5.597207695245742798e-02
-7.859317958354949951e-02
5.983359366655349731e-02
2.168637514114379883e-02
-2.160302177071571350e-02
2.251591533422470093e-02
-3.453071415424346924e-02
-3.784634172916412354e-02
7.105676084756851196e-02
-3.179854154586791992e-02
6.806456297636032104e-02
3.965345770120620728e-02
7.924123108386993408e-02
-4.283988103270530701e-02
-6.806545704603195190e-02
3.423372283577919006e-02
4.501923918724060059e-02
1.886925846338272095e-02
-5.838458612561225891e-02
-8.503286540508270264e-02
1.377251278609037399e-02
5.964566022157669067e-02
-4.763923957943916321e-02
5.467325821518898010e-02
4.991147667169570923e-02
-5.804442241787910461e-02
2.428437583148479462e-02
-7.904662191867828369e-02
2.687667682766914368e-02
-1.523252390325069427e-02
-7.000421732664108276e-02
5.798887461423873901e-02
-6.743823643773794174e-03
7.690688222646713257e-02
-7.104223594069480896e-03
5.873657763004302979e-02
1.264037657529115677e-02
4.543997719883918762e-02
-6.589572131633758545e-02
-3.088823752477765083e-03
-7.314451783895492554e-02
-8.461712300777435303e-02
-5.022132396697998047e-02
-8.068802207708358765e-02
-4.038192331790924072e-02
-3.120966441929340363e-02
4.062375426292419434e-02
-8.214079588651657104e-02
7.472898066043853760e-02
6.930927932262420654e-02
-8.010572195053100586e-02
1.717276289127767086e-03
4.216887801885604858e-02
-4.067200049757957458e-02
-3.039557300508022308e-02
5.416549742221832275e-03
-1.152311731129884720e-02
8.108574151992797852e-02
1.357126515358686447e-02
-7.130235433578491211e-02
-2.081390842795372009e-02
3.074020147323608398e-02
7.386164367198944092e-02
5.961991474032402039e-02
2.097922191023826599e-02
-1.990642398595809937e-02
3.169847652316093445e-02
-5.304226279258728027e-02
-6.113195791840553284e-02
5.298745259642601013e-02
3.105670958757400513e-02
-4.709042236208915710e-02
5.556283891201019287e-02
6.800839304924011230e-02
-4.061990231275558472e-02
-7.150839269161224365e-02
-4.986370727419853210e-02
-8.663452416658401489e-02
-6.643855571746826172e-02
-6.178462505340576172e-02
6.987097859382629395e-02
-5.935925245285034180e-02
2.712205052375793457e-02
2.535585127770900726e-02
-1.285888347774744034e-02
8.389554917812347412e-02
-5.591743439435958862e-02
6.278267502784729004e-02
7.828613370656967163e-02
4.482034593820571899e-02
7.868496328592300415e-02
-2.915697544813156128e-02
-1.105638593435287476e-02
6.590747833251953125e-02
-5.619145557284355164e-02
-7.674392312765121460e-02
-4.066892713308334351e-02
6.268429756164550781e-02
-4.261233657598495483e-02
-1.465156115591526031e-02
2.898515574634075165e-02
7.562947273254394531e-02
2.546326071023941040e-02
-2.099739387631416321e-03
5.702624469995498657e-02
7.210692018270492554e-02
1.364037580788135529e-02
-7.947801798582077026e-02
7.266136258840560913e-02
3.438390791416168213e-02
-5.407529696822166443e-02
5.586831271648406982e-02
6.221974268555641174e-02
6.020890548825263977e-02
-5.437012761831283569e-03
-3.726988658308982849e-02
5.747960507869720459e-02
2.585954405367374420e-02
-6.111525744199752808e-02
4.916391894221305847e-02
-1.590783521533012390e-02
-6.905262172222137451e-02
-6.666541099548339844e-02
6.021443381905555725e-02
8.402872085571289062e-02
-3.568018227815628052e-02
7.066573202610015869e-02
-4.331928119063377380e-02
-5.966069176793098450e-02
-5.859477072954177856e-02
2.928127720952033997e-02
5.657643079757690430e-02
-6.956685334444046021e-02
-3.187910839915275574e-02
-3.214330226182937622e-02
7.467307895421981812e-02
-4.643702879548072815e-02
6.867700815200805664e-02
8.235712349414825439e-02
-6.046021357178688049e-02
1.640122011303901672e-02
-5.837218090891838074e-02
8.260509371757507324e-02
-8.039557375013828278e-03
-8.479709178209304810e-02
-9.473278187215328217e-03
4.189751669764518738e-02
5.990004912018775940e-02
-7.023636996746063232e-02
6.801558285951614380e-02
2.241297625005245209e-02
1.043665804900228977e-03
8.612953126430511475e-02
4.292191937565803528e-02
-2.539779059588909149e-02
8.353904634714126587e-02
-7.935680449008941650e-02
-4.137411713600158691e-02
-4.646770283579826355e-02
-5.183690041303634644e-02
-1.274491846561431885e-02
7.006304711103439331e-02
-8.186583966016769409e-02
4.910676274448633194e-03
-4.846812412142753601e-02
-2.681282348930835724e-02
-7.101286202669143677e-03
-7.722161244601011276e-03
-4.478846490383148193e-02
-1.137121953070163727e-02
1.902633532881736755e-02
5.877885222434997559e-02
1.742091402411460876e-02
1.499699987471103668e-02
-3.585743159055709839e-02
1.989392377436161041e-02
-8.110401779413223267e-02
-8.059672266244888306e-02
-6.857623811811208725e-03
-6.414964795112609863e-02
7.458462566137313843e-02
-7.116031646728515625e-02
2.404514513909816742e-02
7.404883205890655518e-02
5.898360908031463623e-02
8.585573732852935791e-02
7.092943042516708374e-02
6.683513522148132324e-02
-4.213241860270500183e-02
-6.212112307548522949e-02
-7.161221653223037720e-02
3.234397619962692261e-02
-7.871782034635543823e-02
-6.629510968923568726e-02
-4.943598434329032898e-02
-4.002827405929565430e-02
-5.946365650743246078e-03
3.066045790910720825e-02
3.946441411972045898e-02
3.648021444678306580e-02
-6.735685467720031738e-02
-2.813441678881645203e-02
8.656574413180351257e-03
3.733397647738456726e-02
7.408347725868225098e-02
5.999897792935371399e-02
-2.943882346153259277e-02
8.015976846218109131e-02
6.657558679580688477e-02
5.087551847100257874e-02
-7.065759599208831787e-02
5.452951416373252869e-02
6.697161495685577393e-02
4.064502939581871033e-02
4.195681959390640259e-02
3.933103010058403015e-02
3.988150134682655334e-02
2.626637555658817291e-02
1.952397637069225311e-02
8.495687693357467651e-02
5.133677646517753601e-02
3.510327637195587158e-02
3.063407540321350098e-02
5.981037765741348267e-02
5.600847676396369934e-02
6.841337680816650391e-02
-6.685101985931396484e-02
-3.656602278351783752e-02
1.244277600198984146e-02
5.982887744903564453e-02
-8.673551678657531738e-02
3.230027481913566589e-02
-5.496422201395034790e-02
9.112976491451263428e-03
-1.703262329101562500e-02
-6.754752248525619507e-02
-1.755492389202117920e-02
4.071997478604316711e-02
-7.404342293739318848e-02
-3.762855380773544312e-02
4.941626451909542084e-03
-5.750736594200134277e-02
-6.978191435337066650e-02
-1.477550249546766281e-02
7.032675296068191528e-02
5.938879027962684631e-02
-6.207222864031791687e-02
2.356567606329917908e-02
-9.982236661016941071e-04
4.464047774672508240e-02
2.184594608843326569e-02
-3.633831441402435303e-02
-6.934736389666795731e-03
-3.419619426131248474e-02
-6.321834027767181396e-02
-3.762674331665039062e-02
-5.248744413256645203e-02
-4.289890453219413757e-02
1.299561094492673874e-02
4.717992991209030151e-02
-6.968480348587036133e-02
1.350297592580318451e-02
-7.162823807448148727e-03
-3.746159747242927551e-02
-6.407114863395690918e-02
6.298097968101501465e-02
-1.784588210284709930e-02
5.541021004319190979e-03
1.699638739228248596e-02
-4.728597588837146759e-03
5.508438870310783386e-02
-6.472232937812805176e-02
2.498150803148746490e-02
7.255078852176666260e-02
7.774185854941606522e-03
8.714476600289344788e-03
4.531532153487205505e-02
3.289072588086128235e-02
-5.440558120608329773e-02
-4.236068949103355408e-02
-9.160703979432582855e-03
5.461195856332778931e-02
8.455279283225536346e-03
7.111646234989166260e-02
-6.621170043945312500e-02
3.250325098633766174e-02
-5.314579233527183533e-02
-3.143500909209251404e-02
7.687027752399444580e-02
4.713907465338706970e-02
-7.089098542928695679e-02
-7.948821783065795898e-02
-2.604576386511325836e-02
9.130864404141902924e-03
-2.976549789309501648e-02
-2.914499258622527122e-03
-1.455196738243103027e-02
3.962253406643867493e-02
-8.398312330245971680e-02
-8.417135477066040039e-02
-5.173289030790328979e-02
5.835567414760589600e-02
-6.162352487444877625e-02
6.053457781672477722e-02
4.428546875715255737e-02
3.333367779850959778e-02
-1.744400709867477417e-02
2.924132393673062325e-03
-2.045723423361778259e-02
1.535414159297943115e-02
4.776637256145477295e-02
5.760938674211502075e-02
-1.665819995105266571e-02
-3.040778264403343201e-02
4.208802804350852966e-02
4.369756206870079041e-03
-8.450642228126525879e-02
7.621417939662933350e-02
6.015624105930328369e-02
7.954744994640350342e-02
3.666435927152633667e-02
7.643118500709533691e-02
-8.663173764944076538e-02
-7.602208107709884644e-02
-1.080238493159413338e-03
-2.917489223182201385e-02
8.258244954049587250e-03
7.154056429862976074e-02
-7.620482891798019409e-02
1.152052637189626694e-02
7.464887946844100952e-02
-4.067072272300720215e-02
-1.676342450082302094e-02
-7.364571839570999146e-02
-6.681379675865173340e-02
-5.916919559240341187e-02
4.686262458562850952e-02
2.959496341645717621e-03
3.098407760262489319e-02
-6.021492183208465576e-02
-6.835227459669113159e-02
-7.953825406730175018e-03
8.461905270814895630e-02
2.265803283080458641e-03
4.894487559795379639e-02
4.009687528014183044e-02
-8.001531660556793213e-02
5.162921547889709473e-02
2.963687852025032043e-02
6.731059402227401733e-02
4.449159651994705200e-02
-2.036713249981403351e-02
5.709111690521240234e-02
4.507097601890563965e-02
-9.209083393216133118e-03
-3.064889647066593170e-02
-7.069369405508041382e-02
8.634425699710845947e-02
-4.566132277250289917e-02
-5.966692417860031128e-02
1.120517589151859283e-02
-5.768349394202232361e-02
-1.315952092409133911e-02
8.160005509853363037e-02
-4.417933151125907898e-02
7.188421674072742462e-03
-6.422735750675201416e-02
-8.395422250032424927e-02
-7.649331539869308472e-02
5.399391055107116699e-02
-5.690373107790946960e-02
-5.757152289152145386e-02
-4.053642228245735168e-02
-5.892692506313323975e-02
3.188287466764450073e-02
-7.826215028762817383e-02
6.834149360656738281e-02
3.902806714177131653e-02
6.052576750516891479e-02
1.129326596856117249e-02
1.969255879521369934e-02
1.840812154114246368e-02
7.819164544343948364e-02
-9.825396351516246796e-03
-2.313574030995368958e-02
-1.762242428958415985e-02
4.678317531943321228e-02
-6.629323586821556091e-03
-1.794552430510520935e-02
-8.554913103580474854e-02
2.088568173348903656e-02
8.043253421783447266e-02
-5.604153126478195190e-02
-7.891211658716201782e-02
7.542414218187332153e-02
-1.297046989202499390e-02
1.551154628396034241e-02
-7.542587816715240479e-02
-9.678466245532035828e-03
2.625347673892974854e-02
6.578377634286880493e-02
2.061077579855918884e-02
5.587337538599967957e-02
-6.141942366957664490e-02
4.887524247169494629e-02
1.089376397430896759e-03
-5.248632282018661499e-02
3.056997619569301605e-02
-4.651842266321182251e-02
-7.859011739492416382e-02
-4.476112499833106995e-02
6.039897724986076355e-02
2.701597660779953003e-02
-5.323062464594841003e-02
-3.607872501015663147e-02
-8.278331905603408813e-02
1.633837632834911346e-02
-7.596241682767868042e-02
-2.221123781055212021e-03
8.558437973260879517e-02
-7.431592047214508057e-02
-6.799282133579254150e-02
7.936868071556091309e-02
-4.315732419490814209e-02
-5.971922352910041809e-02
6.811928004026412964e-02
3.106337785720825195e-02
4.298807680606842041e-02
7.988878339529037476e-02
-6.528252363204956055e-02
-1.742532290518283844e-02
5.900577455759048462e-02
4.251977801322937012e-02
-4.821872338652610779e-02
8.477777987718582153e-02
4.727672319859266281e-03
4.005063697695732117e-02
-5.440184101462364197e-02
-5.138990283012390137e-02
8.071858435869216919e-02
-4.579807445406913757e-02
-8.934923447668552399e-03
5.446687713265419006e-02
6.843338161706924438e-02
2.502587623894214630e-02
-6.828784197568893433e-02
7.283430546522140503e-02
-4.531966149806976318e-02
-5.706524103879928589e-02
-1.606935821473598480e-02
-4.641830921173095703e-02
-4.420629516243934631e-02
3.108662087470293045e-03
-5.372327938675880432e-02
-1.739541476126760244e-04
3.060639277100563049e-02
-7.223136723041534424e-02
-5.574292317032814026e-02
-1.305422373116016388e-02
-7.902228832244873047e-02
-3.384829312562942505e-02
5.669253319501876831e-02
6.715238839387893677e-02
-7.802062481641769409e-02
-7.821106165647506714e-02
6.525668501853942871e-02
1.392765529453754425e-02
4.906519502401351929e-02
-7.575328648090362549e-02
4.977428913116455078e-02
4.314877092838287354e-02
-3.432542458176612854e-02
-4.584414884448051453e-02
1.093111094087362289e-02
-5.257127434015274048e-02
6.637443602085113525e-02
2.984071522951126099e-02
-6.640663743019104004e-02
-6.559915095567703247e-02
6.002696603536605835e-02
4.771868698298931122e-03
-2.480129711329936981e-02
-7.083973288536071777e-02
-7.874265313148498535e-02
8.722112514078617096e-03
1.621587574481964111e-02
3.905666992068290710e-02
2.366336807608604431e-02
4.765913262963294983e-02
-6.067704781889915466e-02
3.184844180941581726e-02
-7.285722345113754272e-02
8.323874324560165405e-02
1.239066477864980698e-02
-6.362246721982955933e-02
-8.163138478994369507e-02
-8.984930813312530518e-03
3.751599043607711792e-02
5.467537790536880493e-02
2.469376195222139359e-03
5.970841157250106335e-04
1.113473437726497650e-02
5.531944707036018372e-02
4.192986339330673218e-02
-6.458439677953720093e-02
-8.388914912939071655e-02
2.165032178163528442e-02
5.245780199766159058e-02
-6.312205642461776733e-02
4.321553185582160950e-02
2.583007700741291046e-02
2.888448536396026611e-02
-6.819141656160354614e-02
4.218507558107376099e-02
3.730687499046325684e-02
2.770471386611461639e-02
-2.828339114785194397e-02
-1.033277623355388641e-02
-3.527913242578506470e-02
-6.727495044469833374e-02
1.622301526367664337e-02
8.376541733741760254e-02
-5.297024175524711609e-02
1.277841627597808838e-02
9.522644802927970886e-03
-2.933402359485626221e-02
1.840777695178985596e-02
-8.612711727619171143e-02
-7.851428538560867310e-02
-1.358866691589355469e-02
3.532950067892670631e-03
9.272263385355472565e-03
8.479674905538558960e-02
-2.779308333992958069e-02
-3.545317426323890686e-02
-6.649673730134963989e-02
-2.452960424125194550e-02
7.340516149997711182e-02
7.322563976049423218e-02
-3.798990801442414522e-04
3.001121804118156433e-02
1.238327659666538239e-02
-5.818542465567588806e-02
4.900533705949783325e-02
-3.211506456136703491e-02
6.628428399562835693e-02
-9.944289922714233398e-03
2.679944969713687897e-02
-3.068079799413681030e-02
4.196546971797943115e-02
4.670246690511703491e-02
7.278406620025634766e-02
3.914869949221611023e-02
8.102802932262420654e-02
-1.080048037692904472e-03
-3.801832348108291626e-02
-3.498622402548789978e-02
-6.934671849012374878e-02
-3.697787225246429443e-02
-2.633905969560146332e-02
4.246310796588659286e-03
5.374578386545181274e-02
7.014233618974685669e-02
2.361369319260120392e-03
-6.070629879832267761e-02
-5.190274491906166077e-02
2.309536188840866089e-02
2.001972170546650887e-03
-6.518462300300598145e-02
9.647976607084274292e-03
-8.505281805992126465e-02
5.200297012925148010e-02
-6.465706229209899902e-02
-5.606035888195037842e-02
1.436438784003257751e-02
-9.541438892483711243e-03
-7.638379931449890137e-02
-8.220258355140686035e-02
-6.939379870891571045e-02
-1.985832117497920990e-02
4.695636406540870667e-02
6.455917656421661377e-02
-3.375322371721267700e-02
-5.835236515849828720e-04
5.892067775130271912e-02
5.236113071441650391e-02
4.858111962676048279e-02
-6.274261325597763062e-02
7.022113353013992310e-02
-7.500679045915603638e-02
-1.836755545809864998e-03
-1.218948978930711746e-02
6.593042612075805664e-02
-1.833709329366683960e-02
7.737150788307189941e-02
-8.142842352390289307e-02
1.691057533025741577e-02
1.379787642508745193e-02
7.765076123178005219e-03
3.890800103545188904e-02
-6.322854012250900269e-02
9.903675876557826996e-03
4.268776159733533859e-03
-4.066502302885055542e-02
4.104834422469139099e-02
-6.803783029317855835e-02
3.697592392563819885e-02
5.183917656540870667e-02
-6.308040022850036621e-02
5.479287728667259216e-02
-5.468852445483207703e-02
7.106508314609527588e-02
3.268527612090110779e-02
-1.250323606655001640e-03
-1.618532463908195496e-02
4.939176142215728760e-03
-3.555902466177940369e-02
-5.426242202520370483e-02
2.939827553927898407e-02
-5.201532319188117981e-02
-4.210212454199790955e-02
-5.911452323198318481e-02
2.298837713897228241e-02
-6.283742189407348633e-02
9.731275960803031921e-03
1.369177643209695816e-02
-5.707432329654693604e-02
-6.002492457628250122e-02
-5.917722359299659729e-02
3.788217529654502869e-02
6.608387827873229980e-02
-3.520724177360534668e-02
-3.889023885130882263e-02
-1.634184829890727997e-02
1.127665489912033081e-02
-8.454691618680953979e-02
2.803327981382608414e-03
-3.838104382157325745e-02
5.452299490571022034e-02
2.695337682962417603e-02
-7.023701816797256470e-02
-8.683157712221145630e-02
1.134249009191989899e-02
4.961904883384704590e-02
-9.031159570440649986e-04
8.231914788484573364e-02
-3.215221688151359558e-02
5.066119506955146790e-02
-5.865645408630371094e-02
8.442489057779312134e-02
8.586223423480987549e-02
-1.352983061224222183e-02
-6.129733845591545105e-02
2.224717661738395691e-02
1.087187603116035461e-02
3.562691062688827515e-02
-5.074524879455566406e-02
4.096223786473274231e-02
6.277085840702056885e-02
-2.278650365769863129e-02
-7.883939892053604126e-03
4.213131591677665710e-02
2.918237634003162384e-02
4.042690619826316833e-02
-6.081909686326980591e-02
-4.610443115234375000e-02
4.320253804326057434e-02
2.927937544882297516e-02
2.749243518337607384e-03
1.104679983109235764e-02
-3.046001121401786804e-02
1.967204734683036804e-02
1.138868182897567749e-02
6.802882999181747437e-02
-1.739270426332950592e-02
-7.617598026990890503e-02
6.375171244144439697e-02
3.770260140299797058e-02
6.176682561635971069e-02
-8.147041499614715576e-02
3.560708090662956238e-02
6.108877807855606079e-02
-7.735592778772115707e-03
6.150193512439727783e-02
-3.358030924573540688e-03
-8.356172591447830200e-02
1.046381611377000809e-02
3.305813297629356384e-02
4.460043832659721375e-02
-1.340040471404790878e-02
-7.629858702421188354e-02
-4.988140985369682312e-02
-5.785204097628593445e-02
4.018372297286987305e-02
7.788829505443572998e-02
-3.135312348604202271e-02
8.132249116897583008e-02
3.440725803375244141e-02
8.508444577455520630e-02
-2.641006605699658394e-03
-4.121196642518043518e-02
-3.205609321594238281e-02
-6.959740817546844482e-02
5.741503462195396423e-02
-5.060817301273345947e-02
2.377160708419978619e-04
6.849214434623718262e-02
-7.343448698520660400e-02
-4.857069253921508789e-02
4.371867701411247253e-02
-6.765878945589065552e-02
7.422710955142974854e-02
1.810203492641448975e-02
1.174026541411876678e-02
4.906190559267997742e-02
-7.189979404211044312e-02
1.542904600501060486e-02
-2.708476968109607697e-02
4.840630665421485901e-02
-2.661586925387382507e-02
4.672995954751968384e-02
5.938823521137237549e-02
1.084051188081502914e-02
7.619907706975936890e-02
1.295745745301246643e-02
2.066628308966755867e-03
-4.185356199741363525e-02
7.577382028102874756e-03
-5.016419291496276855e-02
-4.339662939310073853e-02
-8.164972811937332153e-02
-4.172340966761112213e-03
1.172923482954502106e-02
-6.407352536916732788e-02
-3.335696086287498474e-02
4.848239570856094360e-02
2.353439107537269592e-02
-5.140982195734977722e-02
6.227227672934532166e-02
6.217537447810173035e-02
7.947854697704315186e-02
8.176843076944351196e-02
4.971813037991523743e-02
1.091094221919775009e-02
6.875488441437482834e-03
1.212181337177753448e-02
2.619121596217155457e-02
-6.432002782821655273e-02
7.233294099569320679e-02
-1.189619768410921097e-02
-3.586530685424804688e-03
3.249247744679450989e-02
-3.914682194590568542e-02
-7.940959930419921875e-02
2.199255488812923431e-02
6.093833595514297485e-02
9.792913682758808136e-03
6.730653345584869385e-02
-1.812469400465488434e-02
4.683760181069374084e-02
-6.271829456090927124e-02
-1.249935571104288101e-02
-4.387924820184707642e-02
3.638814389705657959e-02
1.073647662997245789e-02
1.003857608884572983e-02
-1.789923640899360180e-03
-5.240134149789810181e-02
4.578473046422004700e-02
-2.624926157295703888e-02
-7.694739103317260742e-02
3.858786076307296753e-02
-3.109135851263999939e-02
6.004831939935684204e-02
-3.708169236779212952e-02
6.307476013898849487e-02
-1.439756993204355240e-02
7.646118104457855225e-02
8.604817837476730347e-02
-2.868772298097610474e-02
-2.209662459790706635e-02
-4.214042797684669495e-03
-8.287728577852249146e-02
2.592447213828563690e-02
3.559845499694347382e-03
2.633535116910934448e-02
2.747589605860412121e-04
-7.322425395250320435e-02
7.063806988298892975e-03
6.943091750144958496e-02
6.089433282613754272e-02
3.163247555494308472e-02
-2.970582433044910431e-02
-6.962241977453231812e-02
-1.864612288773059845e-02
6.822208315134048462e-02
2.760517038404941559e-02
6.674990803003311157e-02
-7.083987444639205933e-02
-1.324302516877651215e-02
-4.609772562980651855e-02
-6.052592396736145020e-02
-6.125453487038612366e-02
1.004922017455101013e-02
-8.712327480316162109e-02
-1.109942421317100525e-02
-1.351442374289035797e-02
-1.431172341108322144e-02
-2.122919447720050812e-02
-1.405709423124790192e-02
4.426790401339530945e-02
4.386570677161216736e-02
6.892941147089004517e-02
4.859730601310729980e-02
-1.685319468379020691e-02
-1.415429357439279556e-02
-1.171539351344108582e-02
7.062330842018127441e-02
-1.750941592035815120e-04
8.255870640277862549e-02
5.339310690760612488e-02
-2.594329416751861572e-02
2.752440422773361206e-02
-6.297948956489562988e-02
-8.374294266104698181e-03
-7.778849452733993530e-02
-8.142428845167160034e-02
-6.743349134922027588e-02
7.615841180086135864e-02
-6.506650149822235107e-02
6.521247327327728271e-03
-5.659980326890945435e-02
-3.840341046452522278e-02
3.245830535888671875e-02
4.064090549945831299e-02
-3.833209350705146790e-02
-6.530789285898208618e-02
-5.953975394368171692e-02
3.454757481813430786e-02
5.809383001178503036e-04
1.351975928992033005e-02
-7.923552766442298889e-03
-4.229011386632919312e-02
-4.286713432520627975e-03
-4.606935754418373108e-02
2.795918285846710205e-02
6.866429746150970459e-02
2.932168170809745789e-02
1.184001471847295761e-02
-1.825189404189586639e-02
2.514350600540637970e-02
-2.150664478540420532e-02
4.292190447449684143e-02
-3.407910838723182678e-02
2.627263776957988739e-03
-5.219940096139907837e-02
-2.475150115787982941e-02
8.307080715894699097e-03
-3.253811970353126526e-02
-3.535181283950805664e-02
3.035835921764373779e-02
6.111637502908706665e-02
-4.822058137506246567e-03
7.908220589160919189e-02
6.835505831986665726e-03
-5.092990770936012268e-02
-4.599419608712196350e-02
2.863186784088611603e-02
-2.336492389440536499e-02
7.565440982580184937e-02
-5.754510685801506042e-02
7.725340127944946289e-02
-1.903013885021209717e-02
-1.273766811937093735e-02
-1.376872789114713669e-02
2.203976549208164215e-02
-7.148656994104385376e-02
-3.182849660515785217e-02
-3.537265211343765259e-02
2.746694162487983704e-02
3.703244030475616455e-02
7.687707990407943726e-02
-8.079119771718978882e-02
-6.815454922616481781e-03
-4.395684972405433655e-02
8.948341943323612213e-03
2.810839936137199402e-02
1.841801404953002930e-02
-6.945294141769409180e-02
8.273243159055709839e-02
7.022120803594589233e-02
4.803840443491935730e-02
5.710405483841896057e-02
-2.135208062827587128e-02
4.037436470389366150e-02
-2.279935777187347412e-02
1.484047621488571167e-02
8.147870749235153198e-02
-8.090475946664810181e-02
7.861446589231491089e-02
7.041350752115249634e-02
-5.132586881518363953e-02
6.914957612752914429e-02
-3.531448170542716980e-02
2.310837246477603912e-02
-3.133189305663108826e-02
7.383597642183303833e-02
3.872537985444068909e-02
2.394144237041473389e-02
-4.828901588916778564e-02
-2.054478973150253296e-02
-2.577691152691841125e-02
-5.815361440181732178e-02
-1.420874241739511490e-02
5.456185340881347656e-02
-1.495385821908712387e-02
8.190058916807174683e-02
-4.040872678160667419e-03
-8.324602991342544556e-02
-7.428069412708282471e-02
-8.049732074141502380e-03
7.407953590154647827e-02
6.085106357932090759e-02
-3.770032897591590881e-02
-3.400829806923866272e-02
1.449168659746646881e-02
2.661849185824394226e-02
6.795200705528259277e-02
9.247204288840293884e-03
3.284544497728347778e-02
5.983690544962882996e-02
-7.057288661599159241e-03
6.866884231567382812e-02
4.227100685238838196e-02
4.475440457463264465e-02
5.030376370996236801e-03
-7.582190632820129395e-02
3.183600306510925293e-02
-4.297715425491333008e-02
3.526876121759414673e-02
7.071197032928466797e-02
2.361365407705307007e-02
-7.726249098777770996e-02
-7.418822497129440308e-02
-7.731139659881591797e-02
6.445848196744918823e-02
-1.984991598874330521e-03
-8.213368803262710571e-02
-2.631509490311145782e-02
1.887505874037742615e-03
-6.931003183126449585e-02
5.274673551321029663e-02
-1.076264679431915283e-02
7.868509739637374878e-02
-7.168266922235488892e-02
4.232996702194213867e-02
6.417406257241964340e-03
4.207521304488182068e-02
2.358968742191791534e-02
-7.102043181657791138e-02
-1.179499365389347076e-02
-3.297194140031933784e-03
9.047506377100944519e-03
-2.986950986087322235e-02
-4.778521880507469177e-02
-3.297206386923789978e-02
6.225235015153884888e-02
-3.648852929472923279e-02
8.600220084190368652e-02
-6.745644658803939819e-02
8.589878678321838379e-02
6.998062133789062500e-02
4.330931603908538818e-02
-7.804579287767410278e-02
8.294691145420074463e-02
5.313470587134361267e-02
7.353270798921585083e-02
-5.786391906440258026e-03
5.810115113854408264e-02
-3.954667225480079651e-02
8.319782465696334839e-02
7.591043412685394287e-02
-7.352796941995620728e-02
-1.429485715925693512e-02
6.786224991083145142e-02
-5.807011947035789490e-02
-5.866274237632751465e-02
-1.240629423409700394e-02
7.114201039075851440e-02
5.204750597476959229e-02
3.688805736601352692e-03
-2.740308642387390137e-02
-3.800439089536666870e-02
-7.401923090219497681e-02
2.984234131872653961e-02
1.349084544926881790e-03
-1.983401179313659668e-02
5.393919069319963455e-03
5.200264230370521545e-02
-2.054896764457225800e-02
2.508566528558731079e-02
5.119520425796508789e-02
-3.729169443249702454e-02
-1.833429560065269470e-02
6.026490405201911926e-02
-4.108749330043792725e-02
-5.194229632616043091e-02
4.705490544438362122e-02
4.024740681052207947e-02
-8.056838810443878174e-02
-7.921299338340759277e-02
3.672720491886138916e-02
8.248050510883331299e-02
-6.561008840799331665e-02
-6.429759413003921509e-02
6.361840665340423584e-02
-3.655769675970077515e-02
-3.584449365735054016e-02
-3.553059324622154236e-02
-5.215839669108390808e-02
-7.053969055414199829e-02
5.527380481362342834e-02
7.561406120657920837e-03
-2.141694352030754089e-02
6.837882101535797119e-02
-4.933711513876914978e-02
6.703781336545944214e-02
-3.821325302124023438e-02
4.316975548863410950e-02
3.231304511427879333e-02
2.838117070496082306e-02
-1.846909523010253906e-02
-3.224494168534874916e-03
7.820259779691696167e-02
5.030410736799240112e-02
-2.970968745648860931e-02
-4.963471740484237671e-02
8.547313511371612549e-02
-6.941163539886474609e-02
7.770709693431854248e-02
-8.186183124780654907e-02
-6.152374669909477234e-02
2.768544480204582214e-02
-8.610546588897705078e-02
-3.998382762074470520e-02
5.054030567407608032e-02
6.464590877294540405e-02
1.056999061256647110e-02
-7.206442207098007202e-02
-5.763870477676391602e-02
4.551016166806221008e-02
-5.550000816583633423e-02
8.472794294357299805e-02
-3.369029983878135681e-02
1.018516998738050461e-02
6.636624038219451904e-02
4.100070800632238388e-03
-9.485406801104545593e-03
-5.853519588708877563e-02
-3.942009434103965759e-02
-6.388425081968307495e-02
5.695837363600730896e-02
2.921020239591598511e-02
1.999904587864875793e-02
4.840426519513130188e-02
-7.235208991914987564e-03
7.738361507654190063e-02
8.589887619018554688e-02
-8.480867370963096619e-03
-7.872468233108520508e-02
7.687811553478240967e-02
-3.179271938279271126e-03
-5.308219417929649353e-02
1.789210550487041473e-02
-2.148572588339447975e-03
-5.957060493528842926e-03
-1.832811720669269562e-02
-2.424890547990798950e-02
-8.213023841381072998e-02
-3.260777099058032036e-03
5.231767427176237106e-03
5.052174255251884460e-02
2.838852815330028534e-02
3.245788859203457832e-03
-6.988964229822158813e-02
-4.812440276145935059e-02
-1.707429438829421997e-02
2.139570564031600952e-02
2.953615970909595490e-02
1.149795204401016235e-02
6.906986981630325317e-02
5.276140943169593811e-02
-1.829310506582260132e-02
1.155123300850391388e-02
-1.397476345300674438e-02
-5.661004036664962769e-02
-8.240150660276412964e-02
-2.331322990357875824e-02
-5.743490532040596008e-02
-3.729515010491013527e-03
-1.487289369106292725e-02
-6.724078953266143799e-02
8.022502809762954712e-02
1.915351487696170807e-02
3.774995729327201843e-02
-8.683768101036548615e-03
-7.356053590774536133e-02
-6.730066984891891479e-02
5.419831350445747375e-02
-6.855680793523788452e-02
1.655546575784683228e-02
-2.732665650546550751e-02
6.909390538930892944e-02
-4.175743833184242249e-02
6.310080736875534058e-02
8.637320995330810547e-02
-2.749694278463721275e-03
-4.071992263197898865e-02
2.101852931082248688e-02
-5.997281149029731750e-02
5.788448825478553772e-02
3.365387674421072006e-03
7.993182539939880371e-02
-4.711810126900672913e-02
-7.182317972183227539e-02
-2.081120572984218597e-02
-1.658769510686397552e-02
-6.704814732074737549e-02
4.307580366730690002e-02
1.313130557537078857e-02
1.634780503809452057e-02
-5.854046717286109924e-02
3.300151973962783813e-02
9.816832840442657471e-03
4.771922156214714050e-02
-1.598970405757427216e-02
-8.559727668762207031e-02
6.128797307610511780e-02
3.819360164925456047e-03
5.571985244750976562e-02
7.990141957998275757e-02
-6.629540026187896729e-02
-5.826649442315101624e-02
6.227820366621017456e-02
-2.093289420008659363e-02
-8.191125094890594482e-02
6.190022826194763184e-02
6.341189891099929810e-02
-3.554099053144454956e-02
-3.842248581349849701e-03
-8.329605311155319214e-02
-6.437953561544418335e-02
8.665440976619720459e-02
8.377769589424133301e-02
-2.433430962264537811e-02
-7.185389101505279541e-02
-2.371039427816867828e-02
4.620990529656410217e-02
-5.178829655051231384e-02
-6.737981736660003662e-02
-2.741461060941219330e-02
5.165484920144081116e-02
-3.882582485675811768e-02
-8.116746693849563599e-02
-2.525769546627998352e-02
-7.781276851892471313e-02
-9.996444918215274811e-03
-2.370586618781089783e-02
7.062482088804244995e-02
8.098250627517700195e-02
-5.467839539051055908e-02
6.378950923681259155e-02
-7.205589115619659424e-02
-2.583210729062557220e-02
3.931874409317970276e-02
-5.885432474315166473e-03
-2.062805183231830597e-02
1.449457742273807526e-02
-2.917883545160293579e-02
3.098423779010772705e-02
-7.606346160173416138e-02
-2.533203363418579102e-02
5.375657975673675537e-02
-7.612019032239913940e-02
-2.827739529311656952e-02
-5.731879547238349915e-02
-6.085859611630439758e-02
3.512780368328094482e-02
7.600641995668411255e-02
-2.553139440715312958e-02
5.486600473523139954e-02
-3.813779354095458984e-02
-6.059909611940383911e-02
-7.067839056253433228e-02
-3.216327726840972900e-02
1.280005788430571556e-03
-6.137109547853469849e-02
4.496260359883308411e-02
6.470230966806411743e-02
-7.748609036207199097e-02
3.920240327715873718e-02
-7.671879231929779053e-02
7.341890782117843628e-02
5.426200479269027710e-02
-1.543269399553537369e-02
2.600120566785335541e-02
-3.835409507155418396e-02
5.106060579419136047e-02
-4.625059664249420166e-02
1.957840472459793091e-02
-4.698093980550765991e-03
-3.519479557871818542e-02
8.136540651321411133e-02
-3.768479451537132263e-02
-2.419949509203433990e-02
-3.365469351410865784e-02
-7.888094522058963776e-03
2.057505771517753601e-03
-8.526968955993652344e-02
-1.862475834786891937e-02
6.363446265459060669e-02
5.669520795345306396e-02
3.033972345292568207e-02
-8.371301740407943726e-02
7.313159853219985962e-02
8.530850708484649658e-02
4.695025272667407990e-03
-7.496479153633117676e-02
4.352840408682823181e-02
-1.735345274209976196e-02
-6.534128636121749878e-02
-4.023419693112373352e-03
-6.959011778235435486e-03
-7.867401838302612305e-02
-3.651410341262817383e-02
6.471352279186248779e-02
3.442982584238052368e-02
1.224045362323522568e-02
2.902612276375293732e-02
7.531041651964187622e-02
-5.489612370729446411e-02
-6.238849461078643799e-02
-4.661509394645690918e-02
-6.028478592634201050e-02
-1.297002471983432770e-02
1.628822088241577148e-02
-6.835537496954202652e-03
6.624412536621093750e-02
-6.840839236974716187e-02
-4.993746057152748108e-03
-3.910616785287857056e-02
8.236014097929000854e-02
-3.500579297542572021e-02
7.838073372840881348e-02
8.578852564096450806e-02
-4.859079420566558838e-02
7.693361490964889526e-02
3.725448623299598694e-03
-3.645064309239387512e-02
3.372200950980186462e-02
7.349780946969985962e-02
-1.467413455247879028e-02
-5.703609809279441833e-02
-2.016513794660568237e-02
-6.198278162628412247e-03
-6.423826329410076141e-03
-4.219113290309906006e-02
-5.848089233040809631e-02
-8.088359236717224121e-02
7.397951185703277588e-02
-6.991409510374069214e-02
-4.868084937334060669e-02
-7.515563815832138062e-02
-2.941952459514141083e-02
-2.183190174400806427e-02
-1.007395097985863686e-03
7.400342077016830444e-02
5.848246067762374878e-02
-2.146820351481437683e-02
-8.114561438560485840e-02
-3.322750702500343323e-02
2.655821666121482849e-02
-8.548948913812637329e-02
1.889210566878318787e-02
1.817759871482849121e-02
-8.646334707736968994e-02
5.740588158369064331e-02
8.359685540199279785e-03
4.395185038447380066e-03
-6.576755642890930176e-02
-4.465562850236892700e-02
-8.844083175063133240e-03
6.658275146037340164e-03
-1.459590159356594086e-02
5.812060460448265076e-02
-8.624753355979919434e-02
6.614420562982559204e-02
-7.081478834152221680e-02
-5.763049423694610596e-02
7.236081361770629883e-02
-8.359087258577346802e-02
-4.044887796044349670e-02
-6.304416060447692871e-02
-7.162039726972579956e-02
1.727196201682090759e-02
2.241758164018392563e-03
1.446649804711341858e-02
4.523688461631536484e-03
-2.598974294960498810e-02
8.016408979892730713e-02
1.054270565509796143e-02
2.789490483701229095e-02
1.996007189154624939e-02
1.216440834105014801e-02
-3.995340690016746521e-02
-4.860139265656471252e-02
1.286295149475336075e-02
-6.927644461393356323e-02
4.687985405325889587e-02
-6.951081007719039917e-02
-4.795740544795989990e-02
-8.450634777545928955e-02
8.810224942862987518e-03
4.587775468826293945e-02
-1.194559223949909210e-02
-1.982069574296474457e-02
4.673130437731742859e-02
-3.254942968487739563e-02
-3.531210822984576225e-03
7.619846612215042114e-02
-4.691817983984947205e-02
-1.043081283569335938e-07
-5.096955224871635437e-02
-2.284630946815013885e-02
1.548397727310657501e-02
5.345482751727104187e-02
6.656949967145919800e-02
-5.671655386686325073e-02
-2.874920889735221863e-02
-4.618009552359580994e-02
-6.330349296331405640e-02
6.890409439802169800e-02
6.881485134363174438e-02
4.375400394201278687e-02
-5.679420195519924164e-03
-5.788441374897956848e-02
8.227583765983581543e-02
-7.957136631011962891e-02
-4.004643484950065613e-02
4.246128723025321960e-02
-6.194145977497100830e-02
-8.508968167006969452e-04
4.505540430545806885e-02
3.397890552878379822e-02
-4.172079637646675110e-02
-5.364282429218292236e-02
-7.259862869977951050e-02
-8.174123615026473999e-02
9.390956256538629532e-04
1.101169269531965256e-02
8.161038160324096680e-02
4.116525501012802124e-02
-7.572532445192337036e-02
-5.609164386987686157e-02
-6.842048466205596924e-02
2.692050486803054810e-02
8.446820825338363647e-02
8.524981141090393066e-02
5.731960386037826538e-02
-3.102174587547779083e-02
-4.767831787467002869e-02
8.112522959709167480e-02
-4.884998500347137451e-02
-6.556950509548187256e-02
3.817035630345344543e-02
3.259169310331344604e-02
-3.633891791105270386e-02
3.372090682387351990e-02
4.014236479997634888e-02
1.074330601841211319e-02
-1.059069391340017319e-02
6.531441211700439453e-02
-7.685028761625289917e-02
-5.228417739272117615e-02
1.254557818174362183e-02
-3.145569562911987305e-02
-1.879519410431385040e-02
2.708160504698753357e-02
-2.607241459190845490e-02
6.925664097070693970e-02
-4.865700751543045044e-02
-3.121559508144855499e-02
2.365996502339839935e-02
-3.724859654903411865e-02
-1.940941583598032594e-04
4.235290363430976868e-02
7.678750902414321899e-02
-2.468594117090106010e-03
4.086010530591011047e-02
4.736430570483207703e-02
5.362330377101898193e-02
8.030270785093307495e-02
4.175320640206336975e-02
-8.197679370641708374e-02
-7.202538847923278809e-02
-6.824993994086980820e-03
3.773200511932373047e-02
-2.124779485166072845e-02
-5.985429510474205017e-02
-8.869494311511516571e-03
7.661101222038269043e-02
1.667050458490848541e-02
-3.029789403080940247e-02
-8.698209375143051147e-02
5.150810629129409790e-02
6.936779618263244629e-02
-3.132801875472068787e-02
-5.404726043343544006e-02
9.679936803877353668e-03
2.968898043036460876e-02
-7.153982669115066528e-02
4.815937578678131104e-02
8.561520278453826904e-02
3.926210477948188782e-02
-7.581879198551177979e-02
-1.322373631410300732e-03
-5.135264247655868530e-03
-8.578914403915405273e-02
8.331770449876785278e-02
-5.103555694222450256e-02
4.866444319486618042e-02
5.015514418482780457e-02
-5.750475451350212097e-02
3.664298448711633682e-03
5.530652031302452087e-02
-4.239394888281822205e-02
8.399464935064315796e-02
6.339506246149539948e-03
2.350740507245063782e-02
-6.260441988706588745e-02
8.457048982381820679e-02
1.335606351494789124e-02
4.117054119706153870e-02
-3.250210732221603394e-02
1.345271617174148560e-02
5.900355055928230286e-03
-4.988754540681838989e-02
6.924121081829071045e-02
3.900016844272613525e-02
4.697248339653015137e-02
1.227750349789857864e-02
5.464890599250793457e-02
8.419995196163654327e-03
1.113743986934423447e-02
7.145931478589773178e-03
1.969421468675136566e-02
-7.693186402320861816e-02
-8.475337922573089600e-02
2.101493626832962036e-02
-8.035300672054290771e-02
-4.862971603870391846e-02
-1.703358814120292664e-02
5.696983635425567627e-02
-1.895431056618690491e-02
7.384876906871795654e-02
2.562300488352775574e-02
2.581768110394477844e-02
7.109565287828445435e-02
-5.480340123176574707e-02
-3.743848577141761780e-02
-7.823961973190307617e-02
-5.698508024215698242e-02
6.304312497377395630e-02
5.006521567702293396e-02
-2.314541023224592209e-03
-1.020960230380296707e-02
-3.072558715939521790e-02
3.498651832342147827e-02
-2.760225906968116760e-02
-7.837839424610137939e-02
-4.747812170535326004e-03
7.177251577377319336e-02
6.335936486721038818e-02
-8.310237526893615723e-02
-3.823234001174569130e-03
-1.624072343111038208e-02
2.373399585485458374e-02
6.388610228896141052e-03
-1.382719166576862335e-02
-4.197353124618530273e-02
1.319456472992897034e-02
2.472521178424358368e-02
2.822338789701461792e-02
-1.649019494652748108e-02
-8.093474060297012329e-02
1.532263867557048798e-02
-7.763914018869400024e-02
3.195805102586746216e-02
-3.177669714204967022e-04
-4.530744627118110657e-02
8.167639374732971191e-02
8.595022372901439667e-03
-1.514173392206430435e-02
5.798980593681335449e-02
-2.806366048753261566e-02
6.972717493772506714e-02
-3.885583952069282532e-02
2.841530553996562958e-02
1.800702512264251709e-02
2.065622061491012573e-02
3.712900355458259583e-02
-7.350584864616394043e-02
5.714162252843379974e-03
1.377735473215579987e-02
-6.943561881780624390e-02
-8.484110236167907715e-02
8.464501798152923584e-02
4.140375182032585144e-02
8.713315241038799286e-03
-1.579923368990421295e-02
8.667517453432083130e-02
-6.475318968296051025e-02
-7.779438793659210205e-02
2.816840447485446930e-02
5.858103279024362564e-03
-7.163615524768829346e-02
-4.325725510716438293e-02
1.533702015876770020e-02
4.746500030159950256e-02
4.355007037520408630e-02
5.713663995265960693e-02
4.242731630802154541e-02
-3.452757000923156738e-02
-4.462354630231857300e-02
1.378537714481353760e-02
2.459210529923439026e-02
-6.162079423666000366e-02
6.204686313867568970e-02
-3.375595062971115112e-02
4.346154257655143738e-02
-4.071484319865703583e-03
-8.338259160518646240e-02
5.708957463502883911e-02
-8.508907258510589600e-02
1.752879284322261810e-02
7.482064515352249146e-02
-8.273486793041229248e-02
1.556558348238468170e-02
2.956690452992916107e-02
1.315260585397481918e-02
-8.697219192981719971e-02
2.949563600122928619e-02
3.549190238118171692e-02
-7.769294083118438721e-02
-2.911393344402313232e-02
-4.539806395769119263e-02
-6.217728182673454285e-02
1.479897089302539825e-02
5.710295215249061584e-02
7.246338576078414917e-02
-2.832961454987525940e-02
2.761370502412319183e-02
2.822090499103069305e-02
2.429290488362312317e-02
7.010900974273681641e-02
-4.474231228232383728e-02
-3.786779567599296570e-02
-7.826947420835494995e-02
-6.944281607866287231e-02
1.551034674048423767e-02
5.235780030488967896e-02
1.365788932889699936e-02
1.929676905274391174e-02
2.276059985160827637e-02
1.574333012104034424e-02
-4.984499514102935791e-02
1.086240634322166443e-02
2.014730498194694519e-02
5.283610522747039795e-02
-4.631349444389343262e-02
-5.344448238611221313e-02
5.297573283314704895e-02
7.030180841684341431e-02
6.918496638536453247e-02
6.244248524308204651e-02
-4.550969600677490234e-02
-6.291297078132629395e-02
-8.644839376211166382e-02
5.641916394233703613e-02
8.134240657091140747e-02
7.315340638160705566e-02
-5.863829329609870911e-02
2.286837063729763031e-02
1.528657134622335434e-02
5.342506989836692810e-02
6.234671454876661301e-03
5.766586959362030029e-02
-7.117542624473571777e-02
1.509557198733091354e-02
7.535337656736373901e-02
3.146247193217277527e-02
-1.928282901644706726e-02
2.276971470564603806e-03
-3.596812859177589417e-02
-8.326002210378646851e-02
-6.871862709522247314e-02
1.302371500059962273e-03
1.471797190606594086e-02
3.854417055845260620e-02
-3.260432928800582886e-02
5.551997199654579163e-02
7.221687585115432739e-02
-6.636762619018554688e-02
3.908555582165718079e-02
5.466705933213233948e-02
8.320136368274688721e-02
8.071090281009674072e-02
7.886647433042526245e-02
8.386247605085372925e-02
5.036637187004089355e-02
7.346617430448532104e-02
7.026751339435577393e-02
7.884489744901657104e-02
8.912925608456134796e-03
-1.834534574300050735e-03
4.487845674157142639e-02
-7.220825552940368652e-02
-3.155115246772766113e-02
6.016317754983901978e-02
2.936247549951076508e-02
-4.363874346017837524e-02
4.211929161101579666e-03
-7.735938578844070435e-02
4.512346908450126648e-02
5.471337214112281799e-02
-7.413709163665771484e-02
6.283470988273620605e-02
-3.140075132250785828e-02
2.702150493860244751e-02
1.400617137551307678e-02
2.246625907719135284e-02
-4.881967324763536453e-03
-1.220711041241884232e-03
4.259615018963813782e-02
-5.318892374634742737e-02
-3.389643877744674683e-02
3.836094960570335388e-02
-5.987472832202911377e-02
-4.243623092770576477e-02
3.490198776125907898e-02
7.695426791906356812e-02
-5.639787018299102783e-02
1.766365580260753632e-02
6.836380809545516968e-02
3.897779062390327454e-02
-7.160609960556030273e-02
2.582919970154762268e-02
5.328084900975227356e-02
-1.664307340979576111e-02
-1.359308138489723206e-03
-4.800269845873117447e-03
2.620267122983932495e-02
-8.453503251075744629e-02
4.404672421514987946e-03
-1.604887284338474274e-02
5.661959946155548096e-02
1.657518930733203888e-02
-4.066544398665428162e-02
-6.221174076199531555e-02
-4.380992427468299866e-02
5.988436564803123474e-02
4.681086912751197815e-02
3.786990791559219360e-02
-2.867350541055202484e-02
1.951571437530219555e-03
7.115507125854492188e-02
2.391641773283481598e-02
-4.698353260755538940e-02
-7.608098536729812622e-02
6.785766035318374634e-02
7.417672127485275269e-02
8.721435815095901489e-02
-7.600721716880798340e-02
4.497730638831853867e-03
6.843262910842895508e-02
4.975867643952369690e-02
1.943635381758213043e-02
6.790116429328918457e-03
1.547277253121137619e-02
-8.461042493581771851e-02
-8.189827948808670044e-02
-7.656973600387573242e-02
2.814340032637119293e-02
-7.997944205999374390e-02
1.415932364761829376e-02
-7.532621920108795166e-02
6.310230493545532227e-02
-5.663486570119857788e-02
-2.943228371441364288e-02
8.735024183988571167e-02
-1.404101215302944183e-02
-5.706882476806640625e-02
4.668885841965675354e-02
-6.357152760028839111e-02
7.189379539340734482e-04
-3.860753774642944336e-02
-7.968790829181671143e-02
-6.275285035371780396e-02
7.693946827203035355e-04
-6.933792680501937866e-02
-8.227481693029403687e-02
-1.248281262814998627e-02
-6.940623372793197632e-02
-7.174987345933914185e-02
7.838466763496398926e-02
8.517187088727951050e-02
6.425596773624420166e-02
1.042707171291112900e-02
4.555271472781896591e-03
-7.596488576382398605e-03
1.235877256840467453e-02
9.132144972681999207e-03
2.180271781980991364e-03
-4.699892550706863403e-02
1.543096639215946198e-02
-7.122792303562164307e-02
-3.596377000212669373e-02
-9.001927450299263000e-03
-4.158184677362442017e-02
2.086734026670455933e-02
-9.088274091482162476e-03
3.085637092590332031e-02
5.024877190589904785e-02
-4.979033023118972778e-02
5.371994152665138245e-02
-3.649473190307617188e-02
-2.083383267745375633e-03
6.038088351488113403e-02
-1.291819848120212555e-02
8.502040803432464600e-02
7.743153721094131470e-02
-8.804298005998134613e-03
-1.499132625758647919e-02
-7.958959788084030151e-02
5.849771667271852493e-03
-2.396873012185096741e-02
-8.180392533540725708e-02
-1.729299314320087433e-02
7.288286834955215454e-02
9.143640287220478058e-03
6.143720075488090515e-02
-2.270139753818511963e-03
-6.923334300518035889e-02
-2.377010509371757507e-02
3.731247037649154663e-02
3.274925425648689270e-02
-8.581981994211673737e-03
-8.623002469539642334e-02
-6.371252238750457764e-02
3.624157235026359558e-02
2.110766991972923279e-02
1.364791486412286758e-02
-2.033303678035736084e-02
-1.608848571777343750e-02
5.027622729539871216e-02
-5.400218069553375244e-02
3.391018509864807129e-02
-3.908447921276092529e-02
-8.081507682800292969e-02
-6.626307964324951172e-02
-4.153754562139511108e-02
8.288387209177017212e-02
1.131977140903472900e-02
2.995466999709606171e-02
-8.410332351922988892e-02
-7.024375349283218384e-02
-8.143718540668487549e-02
-7.947376370429992676e-02
-1.077392837032675743e-03
7.795684784650802612e-02
1.622118428349494934e-02
-2.691742219030857086e-02
-1.152946054935455322e-02
3.358472883701324463e-02
3.574360162019729614e-02
-6.183822825551033020e-02
-2.119332924485206604e-02
-6.034563109278678894e-02
-6.160772964358329773e-02
1.554671442136168480e-03
6.235657259821891785e-02
4.596047103404998779e-02
-7.218292355537414551e-02
-4.534092918038368225e-02
-5.747852846980094910e-02
6.460807472467422485e-02
-1.283242832869291306e-02
6.292567402124404907e-02
-6.193763017654418945e-02
-7.329928223043680191e-03
8.305007219314575195e-02
-1.701813004910945892e-02
-1.184372790157794952e-02
6.972171831876039505e-03
-7.446122914552688599e-02
-9.486528113484382629e-03
2.320457063615322113e-02
-6.941316276788711548e-02
-2.481694333255290985e-03
-6.526744365692138672e-02
-7.887651026248931885e-02
-7.363493740558624268e-02
-5.683589261025190353e-03
-3.976635634899139404e-03
4.633408412337303162e-02
-5.742662772536277771e-02
2.060857042670249939e-02
-6.222985312342643738e-02
-3.124245628714561462e-02
4.548702389001846313e-02
2.573819272220134735e-02
-5.637944862246513367e-02
3.977308981120586395e-03
3.996874764561653137e-02
-1.531204767525196075e-02
3.299187123775482178e-02
1.735025830566883087e-02
5.845138430595397949e-02
8.530819788575172424e-03
4.176957160234451294e-02
-3.633262962102890015e-02
4.245352931320667267e-03
-6.247332319617271423e-02
3.833308070898056030e-02
-7.628728449344635010e-02
-5.070938169956207275e-02
-5.867375805974006653e-02
3.333478048443794250e-02
-3.363421186804771423e-02
2.539412863552570343e-02
5.477168411016464233e-02
-2.590246126055717468e-02
3.820003569126129150e-02
-3.848733007907867432e-02
5.649322643876075745e-02
-2.796264365315437317e-03
-9.294449351727962494e-03
-1.027889642864465714e-02
2.129553817212581635e-02
4.562779515981674194e-02
-5.234494060277938843e-02
-4.033541679382324219e-02
7.583815604448318481e-02
3.829236328601837158e-02
8.637624233961105347e-02
-2.683827653527259827e-02
-1.616602949798107147e-02
1.605127193033695221e-02
-5.578332021832466125e-02
7.891271263360977173e-02
-2.940853498876094818e-02
-5.696874577552080154e-03
-4.414525814354419708e-03
-5.804982502013444901e-03
-5.484510213136672974e-02
5.853085778653621674e-03
3.013219498097896576e-02
-2.679491229355335236e-02
-4.795804619789123535e-02
8.287771046161651611e-02
8.489297330379486084e-02
-8.089042454957962036e-02
-3.041420318186283112e-02
3.581184148788452148e-02
-3.274670615792274475e-02
-6.133808195590972900e-02
-5.451093241572380066e-02
4.416931420564651489e-02
1.483236439526081085e-02
5.332703888416290283e-02
2.526996657252311707e-03
4.915511980652809143e-02
-7.436235994100570679e-02
-9.234989061951637268e-03
-2.315285091754049063e-04
-7.563982903957366943e-02
5.043729767203330994e-02
7.013372331857681274e-02
2.697502076625823975e-02
8.115015178918838501e-02
6.158560514450073242e-02
8.388730138540267944e-02
-1.192708034068346024e-02
-3.017956577241420746e-02
-9.303164668381214142e-03
1.975569315254688263e-02
6.199441850185394287e-02
-6.676223874092102051e-02
7.910597324371337891e-02
-7.351542264223098755e-02
-7.123672217130661011e-02
7.663957774639129639e-02
-6.792320311069488525e-02
-1.516652386635541916e-02
2.497401274740695953e-02
-1.433346420526504517e-02
9.819090366363525391e-03
5.677818134427070618e-02
-5.767295137047767639e-02
-6.271520256996154785e-02
2.261256054043769836e-02
3.114232979714870453e-02
7.256367802619934082e-02
3.467167168855667114e-02
-6.546602398157119751e-02
-1.505963318049907684e-02
4.548201337456703186e-02
7.138846069574356079e-02
-3.243792429566383362e-02
-1.507664285600185394e-02
6.502516567707061768e-02
-5.831487476825714111e-02
-1.866722479462623596e-02
-3.422384336590766907e-02
-2.153200563043355942e-03
5.838124454021453857e-02
7.169967144727706909e-02
-2.751262858510017395e-02
7.808957248926162720e-02
6.340215355157852173e-02
-1.458601094782352448e-02
-8.059111237525939941e-02
5.254168808460235596e-02
3.872513305395841599e-03
-9.402892552316188812e-03
-9.915632195770740509e-03
7.606825232505798340e-02
8.707224577665328979e-02
-4.044092819094657898e-02
-6.910132616758346558e-02
-6.328062713146209717e-02
6.864117085933685303e-02
4.849757254123687744e-02
-7.811996340751647949e-02
1.588743180036544800e-02
6.944888830184936523e-02
-6.771569605916738510e-03
-2.605384215712547302e-02
5.346870422363281250e-02
4.735147953033447266e-02
4.553859308362007141e-02
3.132741153240203857e-02
7.552689313888549805e-02
-6.063592806458473206e-02
8.329597115516662598e-02
-1.402962859719991684e-02
8.420527726411819458e-02
6.759224086999893188e-02
4.490513354539871216e-02
7.487120479345321655e-02
4.359613358974456787e-02
-5.703883618116378784e-02
8.082218468189239502e-02
8.823733776807785034e-03
3.340012580156326294e-02
-1.587602123618125916e-02
8.539360016584396362e-02
2.197007089853286743e-02
-1.635442860424518585e-02
-4.247333109378814697e-02
3.932927176356315613e-02
6.825471762567758560e-03
-6.123011931777000427e-02
4.291714576538652182e-04
1.517137140035629272e-02
4.114587232470512390e-02
-1.747643016278743744e-02
-7.894602417945861816e-02
-7.221336662769317627e-02
-5.135883018374443054e-02
5.485517159104347229e-02
5.965577065944671631e-02
6.629887223243713379e-02
4.295467212796211243e-02
8.548047393560409546e-02
6.219717115163803101e-02
-5.847262963652610779e-02
8.228797465562820435e-02
4.239746928215026855e-02
7.290637493133544922e-02
6.978737562894821167e-02
-1.391928526572883129e-03
-7.153812795877456665e-02
6.320247799158096313e-02
-7.996752858161926270e-02
4.828397184610366821e-02
-4.010652750730514526e-02
-8.196582645177841187e-02
-1.714373007416725159e-02
2.999967150390148163e-02
-3.797863051295280457e-02
-6.521212309598922729e-02
-5.057252943515777588e-02
-1.274891104549169540e-02
2.166156470775604248e-02
5.102253332734107971e-02
-5.902975052595138550e-02
-8.312759548425674438e-02
5.862123891711235046e-02
-4.478112980723381042e-02
-4.809439927339553833e-02
2.603146992623806000e-02
-7.252312451601028442e-02
-6.910780817270278931e-02
-1.836446486413478851e-02
-7.445832341909408569e-02
7.944169640541076660e-02
9.544435888528823853e-03
-7.959678024053573608e-02
3.441822528839111328e-02
-4.975145682692527771e-03
7.676214724779129028e-02
-5.420631915330886841e-02
9.986217133700847626e-03
5.250353366136550903e-02
-4.783282801508903503e-02
-2.910622954368591309e-02
-7.488057017326354980e-02
-4.322260245680809021e-02
4.017670080065727234e-02
4.140828549861907959e-02
5.088646896183490753e-03
6.140679121017456055e-02
7.728689163923263550e-02
7.890054583549499512e-02
-4.130733665078878403e-03
4.108939319849014282e-02
-6.757519394159317017e-02
-9.962373878806829453e-04
1.218467205762863159e-02
-2.582460269331932068e-02
3.752655535936355591e-02
-4.908034577965736389e-02
-1.196493208408355713e-02
5.460613593459129333e-02
1.883622445166110992e-02
8.601098670624196529e-05
4.673392325639724731e-02
-5.886038765311241150e-02
7.199548184871673584e-03
-6.207417231053113937e-03
2.256090193986892700e-02
-3.693650942295789719e-03
2.590327151119709015e-02
-5.474998056888580322e-02
-3.840705752372741699e-02
6.455151736736297607e-02
2.492973580956459045e-03
-2.715465612709522247e-02
-6.623393297195434570e-02
-4.463431984186172485e-02
-7.298415899276733398e-02
2.554254420101642609e-02
-7.044971734285354614e-02
-8.322369307279586792e-02
1.686630211770534515e-02
1.163007132709026337e-02
4.434946924448013306e-02
3.579803928732872009e-02
-7.656688243150711060e-02
-3.084514476358890533e-02
-7.745441794395446777e-02
4.713603854179382324e-02
6.501482333987951279e-03
-2.860097680240869522e-03
1.435547601431608200e-02
-6.190415471792221069e-02
8.377779275178909302e-02
-2.656646445393562317e-02
-3.458763286471366882e-02
3.221671329811215401e-03
5.383666977286338806e-02
7.444477081298828125e-02
8.615099638700485229e-02
-7.597569376230239868e-03
-6.768345832824707031e-02
-3.989383578300476074e-02
-3.045539557933807373e-02
2.137037925422191620e-02
1.941929943859577179e-02
-1.015923637896776199e-02
6.312737613916397095e-02
3.263197466731071472e-02
-7.224694639444351196e-02
7.898647338151931763e-02
3.606716915965080261e-02
3.108915500342845917e-02
3.263000631704926491e-03
-7.098008878529071808e-03
-2.071671932935714722e-02
1.283995714038610458e-02
4.851159080862998962e-02
-1.168517395853996277e-02
-2.750632725656032562e-02
-3.221900388598442078e-02
7.191187888383865356e-02
7.331105321645736694e-02
-8.008146658539772034e-03
6.814485043287277222e-02
-4.044432938098907471e-02
4.383267089724540710e-02
-1.597623340785503387e-02
-7.398460805416107178e-02
3.083976171910762787e-02
-1.745635271072387695e-02
4.758927505463361740e-03
4.954960197210311890e-02
2.901565283536911011e-02
6.086733192205429077e-02
-1.659507118165493011e-02
-3.902287036180496216e-02
-3.693328052759170532e-02
-4.084526374936103821e-02
8.014657348394393921e-02
-2.273882925510406494e-02
-4.926712438464164734e-02
2.878263033926486969e-02
-7.913119345903396606e-02
4.039163887500762939e-02
-6.559824198484420776e-02
-1.322399731725454330e-02
-3.402835503220558167e-02
6.967817991971969604e-02
6.165621802210807800e-02
2.496745064854621887e-02
-5.024983361363410950e-02
4.621706902980804443e-02
1.093077193945646286e-02
2.819067053496837616e-02
2.694326639175415039e-02
5.691693350672721863e-02
-1.539319939911365509e-02
-7.646203786134719849e-02
6.940375268459320068e-02
-7.186884433031082153e-02
-7.380194962024688721e-03
-1.303310599178075790e-02
6.413049995899200439e-02
-6.584354490041732788e-02
-3.986252844333648682e-02
-3.978312760591506958e-02
-1.839713007211685181e-02
9.665171615779399872e-03
5.836389027535915375e-03
-2.566019259393215179e-02
7.337261736392974854e-02
4.305109381675720215e-02
-8.419596403837203979e-02
8.077668398618698120e-02
-3.923773765563964844e-03
-6.332498788833618164e-02
-1.990036293864250183e-02
4.845029860734939575e-02
-8.121572434902191162e-02
-4.553632810711860657e-02
-1.395282801240682602e-02
-4.500493034720420837e-02
8.712819963693618774e-02
8.342783898115158081e-02
6.964627653360366821e-02
2.670797146856784821e-02
5.298776924610137939e-02
-3.312577307224273682e-02
3.672750666737556458e-02
3.506305068731307983e-02
-1.855742931365966797e-02
-5.813445895910263062e-02
-6.560382246971130371e-02
-4.179763048887252808e-02
-3.749392926692962646e-02
-1.900582946836948395e-02
4.879771731793880463e-03
3.056957013905048370e-02
7.711987197399139404e-02
-7.668572664260864258e-02
-8.247642219066619873e-02
6.310907751321792603e-02
5.281117185950279236e-02
-8.024572581052780151e-02
5.647516995668411255e-02
-3.852503001689910889e-02
-5.711713060736656189e-02
-5.074582993984222412e-02
-7.746062427759170532e-02
-5.187232792377471924e-02
-9.821628220379352570e-03
-4.952828399837017059e-03
-1.041662879288196564e-02
-1.007802877575159073e-02
-8.912892080843448639e-03
-2.818115986883640289e-02
-7.080649584531784058e-02
-4.338233545422554016e-02
2.517729438841342926e-02
5.240026116371154785e-02
7.817339152097702026e-02
-8.078811317682266235e-02
8.072077482938766479e-02
-7.487082481384277344e-02
-3.605899959802627563e-02
-4.410590231418609619e-02
-7.369012571871280670e-03
5.518661439418792725e-02
7.280536741018295288e-02
-1.778382807970046997e-02
6.486630439758300781e-02
7.672528177499771118e-02
-4.196153953671455383e-02
3.044501319527626038e-02
8.312102407217025757e-02
-7.290544360876083374e-02
7.833867520093917847e-02
-6.145662814378738403e-02
-3.704446181654930115e-02
8.748771250247955322e-02
-2.681209519505500793e-02
3.939415886998176575e-02
-5.113848950713872910e-03
4.905206337571144104e-02
-5.816062167286872864e-02
7.246543467044830322e-02
-6.627683341503143311e-02
-4.218971356749534607e-02
-5.811069533228874207e-02
4.524439200758934021e-02
-7.733502238988876343e-02
-6.742127984762191772e-02
5.112844705581665039e-02
-8.379562199115753174e-02
-5.577918887138366699e-02
-7.268413156270980835e-02
-4.183422774076461792e-02
2.308267541229724884e-02
6.897048652172088623e-02
-5.623522773385047913e-02
-8.171609789133071899e-02
4.682227224111557007e-02
-6.675945967435836792e-02
-3.743390738964080811e-02
-1.034132856875658035e-02
-7.109678536653518677e-02
-2.362234704196453094e-02
-1.917610876262187958e-02
-4.608611762523651123e-02
2.533586882054805756e-02
-1.956382766366004944e-02
1.336754392832517624e-02
-2.255657315254211426e-02
6.214498355984687805e-02
-2.455130033195018768e-02
5.991969257593154907e-03
4.721047356724739075e-02
-4.727060440927743912e-03
5.000577121973037720e-02
7.547865062952041626e-02
-4.657552763819694519e-02
5.933479219675064087e-02
-7.926569879055023193e-02
-8.321934193372726440e-02
6.173655018210411072e-02
-4.865951463580131531e-02
-6.934769451618194580e-02
-6.724676489830017090e-02
6.108744814991950989e-02
8.604363352060317993e-02
-3.730592504143714905e-02
6.533455848693847656e-02
4.526397213339805603e-02
-1.765901036560535431e-02
-5.923323705792427063e-02
-5.230993404984474182e-02
-2.162691904231905937e-03
3.322699340060353279e-03
1.477891858667135239e-02
3.807734325528144836e-02
-5.876094847917556763e-02
8.177535235881805420e-02
-3.586755320429801941e-02
5.056454800069332123e-03
5.618499219417572021e-02
2.563240192830562592e-02
-7.649902254343032837e-02
1.592420600354671478e-02
-6.631501764059066772e-02
6.005300953984260559e-02
3.957828041166067123e-03
-2.681521698832511902e-02
3.173199668526649475e-02
1.095168851315975189e-02
-2.374815754592418671e-02
6.067489273846149445e-03
4.869837686419487000e-02
-6.804329343140125275e-03
2.480153366923332214e-02
2.195013314485549927e-02
-8.214328438043594360e-03
7.392457127571105957e-02
-8.462855475954711437e-05
-5.035896971821784973e-02
-3.119407780468463898e-02
2.688045613467693329e-02
-1.642784662544727325e-02
5.280992761254310608e-02
-5.741292610764503479e-02
8.482804149389266968e-02
3.497424535453319550e-03
-2.969134785234928131e-02
7.886433601379394531e-02
5.385437980294227600e-02
6.167227029800415039e-02
4.765146970748901367e-02
-7.906385697424411774e-03
7.158873975276947021e-02
-2.392982132732868195e-02
1.199080701917409897e-02
4.407940432429313660e-02
6.641971319913864136e-02
7.166021317243576050e-02
-1.126050110906362534e-02
-9.790574200451374054e-03
-3.936110436916351318e-02
8.085042238235473633e-02
-4.877002909779548645e-02
4.015287011861801147e-02
1.825677044689655304e-02
5.963322520256042480e-02
-5.550870671868324280e-02
4.693031776696443558e-03
-2.792550250887870789e-02
-1.943879760801792145e-02
6.000792980194091797e-02
8.556308597326278687e-02
5.102114379405975342e-02
2.572100423276424408e-02
-5.913415923714637756e-02
4.803667217493057251e-02
-5.838552862405776978e-02
-2.594128483906388283e-03
3.951057046651840210e-02
8.191705495119094849e-02
-2.834077551960945129e-02
-2.684756764210760593e-04
-1.339814066886901855e-02
-4.410969093441963196e-02
6.237239018082618713e-02
8.521365374326705933e-02
8.670945465564727783e-02
4.157866537570953369e-02
6.952384114265441895e-02
-1.231072843074798584e-02
-5.579562857747077942e-02
-5.739513039588928223e-02
-1.885792985558509827e-02
-1.810512878000736237e-02
6.921491771936416626e-02
8.585160225629806519e-02
-4.586107283830642700e-02
-7.364430278539657593e-02
3.242481499910354614e-03
1.277167163789272308e-02
-6.502425763756036758e-03
-2.403783611953258514e-02
1.092503778636455536e-02
-4.317123070359230042e-02
-8.588992804288864136e-02
3.811727091670036316e-02
-8.246105164289474487e-02
-5.774374678730964661e-02
