2.067594416439533234e-02
1.424535550177097321e-02
8.595936000347137451e-03
2.032217942178249359e-02
1.265769451856613159e-02
5.458882078528404236e-03
-5.080495029687881470e-03
-7.975716143846511841e-03
4.964206367731094360e-03
2.561624161899089813e-03
-1.048119645565748215e-02
-6.799857132136821747e-03
-2.752336207777261734e-03
-1.832770742475986481e-02
-1.252526789903640747e-02
-8.878758177161216736e-03
-1.094409637153148651e-02
-2.935427613556385040e-02
-4.200653731822967529e-02
-2.394040301442146301e-02
-9.947368875145912170e-03
-1.411469094455242157e-02
-2.515143901109695435e-02
-2.761284261941909790e-02
-5.381951108574867249e-03
1.509219408035278320e-03
7.881032302975654602e-03
-1.557894144207239151e-02
-2.529216930270195007e-02
-2.376138232648372650e-02
1.911078579723834991e-02
1.417068764567375183e-02
-1.643192768096923828e-02
-3.128521516919136047e-02
-3.368606045842170715e-02
-1.549998205155134201e-02
-2.713870815932750702e-02
-2.570099569857120514e-02
-4.888942837715148926e-02
-5.110760033130645752e-02
-3.739792853593826294e-02
-2.221621759235858917e-02
-1.577601954340934753e-02
-3.221299126744270325e-02
-2.978777885437011719e-02
-1.510859280824661255e-02
7.529323920607566833e-03
2.168182656168937683e-02
2.442980557680130005e-02
1.536274328827857971e-02
-1.897102966904640198e-02
-1.735619828104972839e-02
-2.530974894762039185e-02
-4.725171625614166260e-02
-5.132655054330825806e-02
-2.020938135683536530e-02
-1.573119126260280609e-02
-3.715121746063232422e-02
-4.475805163383483887e-02
-2.298985980451107025e-02
-6.016804371029138565e-03
1.515333307906985283e-03
-1.041061058640480042e-02
-1.138848997652530670e-02
1.395899150520563126e-02
1.050121895968914032e-02
-4.330792929977178574e-03
-1.018421724438667297e-03
-2.628043293952941895e-04
1.539079379290342331e-02
1.624933630228042603e-02
4.232428036630153656e-03
2.520432695746421814e-03
4.399329423904418945e-03
3.135430440306663513e-02
-3.336520120501518250e-02
-3.824073076248168945e-02
-5.661862343549728394e-02
-3.927412256598472595e-02
-1.492401771247386932e-02
5.475626327097415924e-03
-2.524317242205142975e-02
-5.384236574172973633e-02
-1.747983694076538086e-02
3.823873586952686310e-03
2.588652260601520538e-02
3.300514072179794312e-03
-9.983399882912635803e-03
8.114507421851158142e-03
1.102667488157749176e-02
5.369384214282035828e-02
3.572815284132957458e-02
1.127916574478149414e-02
1.644646748900413513e-03
1.253277901560068130e-02
7.180128246545791626e-02
3.261018544435501099e-02
-4.616240039467811584e-05
-1.200624555349349976e-02
-1.637952402234077454e-03
